svm_type c_svc
kernel_type linear
nr_class 6
total_sv 1302
rho -2.0855693518192697 -1.1645007948292907 -4.464246805698724 -1.397788147171523 -1.3755985322572426 -0.5026965320667642 -0.6542035954852293 -0.321213540604178 0.6310980805362987 -0.5196179632830317 0.7622213491252893 0.36456959561380076 -0.046116696439028285 0.4242273338539697 0.4231212822381363
label 0 1 2 3 4 5
nr_sv 79 447 127 167 35 447
SV
0.0 0.0 0.01 0.0 0.0 1:-7.0 2:0.7925925925925926 3:4.0 4:-3.0 5:-5.0 6:-6.0 9:-3.0 10:-6.0 11:-2.0 14:-2.0 15:-2.0 16:-7.0 17:0.7925925925925926 18:4.0 19:-2.0 20:-7.0 21:-5.0 24:-3.0 25:-5.0 26:-15.0 27:0.5222222222222223 28:2.0 29:-4.0 30:-15.0 
0.0 0.0 0.0 0.0 0.01 1:-7.0 2:0.7925925925925926 3:4.0 4:-3.0 5:-5.0 6:-5.0 9:-3.0 10:-5.0 11:-4.0 14:-2.0 15:-4.0 16:-4.0 19:-2.0 20:-3.0 21:-5.0 24:-3.0 25:-5.0 26:-9.0 27:0.5666666666666667 28:2.0 29:-4.0 30:-9.0 
0.0 0.0 0.0 0.0 0.01 1:-7.0 2:0.7925925925925926 3:4.0 4:-3.0 5:-5.0 6:-5.0 9:-3.0 10:-5.0 11:-6.0 14:-3.0 15:-6.0 16:-8.0 19:-4.0 20:-8.0 21:-5.0 24:-3.0 25:-5.0 26:-12.0 27:0.5256410256410257 28:2.0 29:-4.0 30:-12.0 
0.0 0.0 0.01 0.0 0.0 1:-7.0 2:0.8727272727272728 3:8.0 4:-3.0 5:-5.0 6:-6.0 7:0.47222222222222215 8:2.0 9:-3.0 10:-6.0 11:-4.0 14:-2.0 15:-4.0 16:-16.0 18:4.0 19:-4.0 20:-16.0 21:-32.0 24:-4.0 25:-29.0 26:-9.0 29:-4.0 30:-9.0 
0.0 0.002046503939179896 0.01 0.0 0.0 1:-7.0 2:0.7925925925925926 3:4.0 4:-3.0 5:-5.0 6:-6.0 9:-3.0 10:-6.0 11:-4.0 14:-2.0 15:-4.0 16:-15.0 18:4.0 19:-4.0 20:-15.0 26:-12.0 29:-4.0 30:-12.0 
0.0 0.0 0.0 0.005781998626174846 0.01 1:-7.0 2:0.7925925925925926 3:4.0 4:-3.0 5:-5.0 6:-11.0 9:-4.0 10:-11.0 11:-6.0 14:-3.0 15:-6.0 16:-7.0 19:-4.0 20:-7.0 21:-11.0 24:-4.0 25:-11.0 26:-9.0 27:0.5370370370370371 28:2.0 29:-4.0 30:-9.0 
0.0 0.0 0.01 0.0 0.0 1:-7.0 2:0.8727272727272728 3:8.0 4:-3.0 5:-5.0 6:-6.0 7:0.5178571428571428 8:2.0 9:-2.0 10:-6.0 11:-4.0 14:-2.0 15:-4.0 16:-36.0 17:0.6133333333333334 18:8.0 19:-3.0 20:-36.0 26:-9.0 29:-4.0 30:-9.0 
0.0 0.0 0.0 0.0 0.01 1:-7.0 2:0.7925925925925926 3:4.0 4:-3.0 5:-5.0 6:-6.0 9:-3.0 10:-6.0 11:-4.0 14:-3.0 15:-3.0 16:-13.0 17:0.5238095238095238 18:2.0 19:-4.0 20:-13.0 21:-5.0 24:-3.0 25:-5.0 26:-9.0 27:0.5370370370370371 28:2.0 29:-4.0 30:-9.0 
0.0 0.0076835057441441736 0.0 0.01 0.0 1:-7.0 2:0.7925925925925926 3:4.0 4:-3.0 5:-5.0 6:-5.0 9:-3.0 10:-5.0 11:-4.0 14:-2.0 15:-4.0 16:-4.0 17:0.5666666666666667 18:2.0 19:-1.0 20:-4.0 21:-19.0 24:-4.0 25:-18.0 26:-10.0 29:-4.0 30:-10.0 
0.0 0.0 0.0 0.0 0.01 1:-7.0 2:0.7925925925925926 3:4.0 4:-3.0 5:-5.0 6:-11.0 9:-4.0 10:-11.0 11:-6.0 14:-3.0 15:-6.0 16:-3.0 17:0.5833333333333334 18:2.0 19:-1.0 20:-3.0 21:-6.0 24:-4.0 25:-6.0 26:-9.0 27:0.5370370370370371 28:2.0 29:-4.0 30:-9.0 
0.0 0.0 0.01 0.0 0.0 1:-7.0 2:0.8727272727272728 3:8.0 4:-3.0 5:-5.0 6:-6.0 7:0.47222222222222215 8:2.0 9:-3.0 10:-6.0 11:-4.0 14:-2.0 15:-4.0 16:-67.0 17:0.6779342723004695 18:8.0 19:-3.0 20:-66.0 26:-9.0 29:-4.0 30:-9.0 
0.0 0.0 0.01 0.0 0.0 1:-7.0 2:0.7925925925925926 3:4.0 4:-3.0 5:-5.0 6:-6.0 9:-3.0 10:-6.0 11:-4.0 14:-2.0 15:-4.0 16:-10.0 18:4.0 19:-4.0 20:-10.0 26:-8.0 28:2.0 29:-4.0 30:-8.0 
0.0 0.0 0.0 0.0 0.01 1:-7.0 2:0.7925925925925926 3:4.0 4:-3.0 5:-5.0 6:-5.0 9:-3.0 10:-5.0 11:-7.0 14:-4.0 15:-7.0 16:-7.0 19:-4.0 20:-7.0 21:-5.0 24:-2.0 25:-5.0 
0.0 0.0 0.0 0.0 0.01 1:-7.0 2:0.7925925925925926 3:4.0 4:-3.0 5:-5.0 6:-6.0 9:-3.0 10:-6.0 11:-4.0 14:-3.0 15:-3.0 16:-13.0 17:0.5238095238095238 18:2.0 19:-3.0 20:-13.0 21:-5.0 24:-3.0 25:-5.0 26:-15.0 27:0.5222222222222223 28:2.0 29:-4.0 30:-15.0 
0.0 0.0 0.0 0.0 3.7247442108837497E-4 1:-7.0 2:0.7925925925925926 3:4.0 4:-3.0 5:-5.0 6:-6.0 9:-3.0 10:-6.0 11:-4.0 14:-3.0 15:-3.0 16:-5.0 17:0.5555555555555555 18:2.0 19:-2.0 20:-5.0 21:-5.0 24:-3.0 25:-5.0 26:-9.0 27:0.5370370370370371 28:2.0 29:-4.0 30:-9.0 
0.0 0.0 0.01 0.0 0.0 1:-7.0 2:0.7925925925925926 3:4.0 4:-3.0 5:-5.0 6:-6.0 9:-3.0 10:-6.0 11:-6.0 14:-3.0 15:-6.0 16:-11.0 18:2.0 19:-4.0 20:-11.0 21:-6.0 24:-4.0 25:-6.0 26:-12.0 29:-4.0 30:-12.0 
0.0 0.01 8.031817066462963E-4 0.0 0.0 1:-7.0 2:0.7925925925925926 3:4.0 4:-3.0 5:-5.0 6:-6.0 9:-3.0 10:-6.0 11:-2.0 14:-2.0 15:-2.0 16:-14.0 18:2.0 19:-4.0 20:-14.0 21:-6.0 24:-4.0 25:-6.0 26:-12.0 29:-4.0 30:-12.0 
0.01 0.0 0.0 0.0 0.0018345728098723 1:-7.0 2:0.7925925925925926 3:4.0 4:-3.0 5:-5.0 6:-5.0 7:0.5555555555555555 8:2.0 9:-3.0 10:-5.0 11:-7.0 14:-3.0 15:-7.0 16:-9.0 19:-4.0 20:-8.0 21:-8.0 24:-4.0 25:-7.0 26:-9.0 27:0.5370370370370371 28:2.0 29:-4.0 30:-9.0 
0.00964248210199376 0.0 0.0 0.0 0.0 1:-7.0 2:0.7925925925925926 3:4.0 4:-3.0 5:-5.0 6:-5.0 7:0.5999999999999999 8:2.0 9:-2.0 10:-5.0 11:-5.0 14:-3.0 15:-5.0 16:-4.0 17:0.5666666666666667 18:2.0 19:-1.0 20:-4.0 21:-5.0 24:-2.0 25:-5.0 
0.0 0.0 0.0 0.0 0.01 1:-7.0 2:0.7925925925925926 3:4.0 4:-3.0 5:-5.0 6:-6.0 9:-3.0 10:-6.0 11:-4.0 14:-3.0 15:-3.0 16:-4.0 19:-3.0 20:-3.0 21:-12.0 24:-4.0 25:-12.0 26:-9.0 27:0.5370370370370371 28:2.0 29:-4.0 30:-9.0 
0.0 0.0 0.01 0.0 0.0 1:-7.0 2:0.8727272727272728 3:8.0 4:-3.0 5:-5.0 6:-8.0 7:0.6166666666666667 8:3.0 9:-3.0 10:-8.0 11:-4.0 14:-3.0 15:-4.0 16:-46.0 18:8.0 19:-4.0 20:-45.0 21:-12.0 24:-4.0 25:-11.0 26:-16.0 29:-4.0 30:-16.0 
0.0 0.0 0.01 0.0 0.005255191233023343 1:-7.0 2:0.7925925925925926 3:4.0 4:-3.0 5:-5.0 6:-5.0 7:0.5555555555555555 8:2.0 9:-3.0 10:-5.0 11:-4.0 14:-2.0 15:-4.0 16:-4.0 18:4.0 19:-3.0 20:-4.0 21:-11.0 24:-4.0 25:-10.0 
0.01 6.121705017815968E-5 0.0 0.0 0.0 1:-7.0 2:0.7925925925925926 3:4.0 4:-3.0 5:-5.0 6:-4.0 7:0.61 8:2.0 9:-2.0 10:-4.0 11:-2.0 14:-2.0 15:-2.0 16:-19.0 19:-4.0 20:-19.0 21:-5.0 24:-3.0 25:-5.0 26:-9.0 29:-4.0 30:-9.0 
0.01 0.0 0.0 0.0 0.0 1:-7.0 2:0.7925925925925926 3:4.0 4:-3.0 5:-5.0 6:-3.0 7:0.625 8:2.0 9:-2.0 10:-3.0 11:-6.0 14:-3.0 15:-6.0 16:-4.0 18:2.0 19:-2.0 20:-4.0 21:-10.0 24:-4.0 25:-10.0 26:-15.0 29:-4.0 30:-15.0 
0.01 0.0 0.0 0.0 0.01 1:-7.0 2:0.7925925925925926 3:4.0 4:-3.0 5:-5.0 6:-5.0 7:0.5555555555555555 8:2.0 9:-3.0 10:-5.0 11:-4.0 14:-2.0 15:-4.0 16:-4.0 19:-1.0 20:-4.0 21:-5.0 24:-2.0 25:-5.0 26:-9.0 27:0.5370370370370371 28:2.0 29:-4.0 30:-9.0 
0.0 0.0 0.01 0.0 0.0 1:-7.0 2:0.7925925925925926 3:4.0 4:-3.0 5:-5.0 6:-6.0 9:-3.0 10:-6.0 11:-4.0 14:-3.0 15:-4.0 16:-5.0 18:3.0 19:-2.0 20:-5.0 21:-14.0 24:-4.0 25:-14.0 26:-16.0 29:-4.0 30:-16.0 
0.01 0.0 0.0 4.7208073572757277E-4 0.0 1:-7.0 2:0.7925925925925926 3:4.0 4:-3.0 5:-5.0 6:-5.0 7:0.5999999999999999 8:2.0 9:-2.0 10:-5.0 11:-15.0 14:-4.0 15:-15.0 16:-9.0 19:-4.0 20:-9.0 21:-12.0 24:-4.0 25:-12.0 26:-4.0 29:-2.0 30:-4.0 
0.01 0.0 0.0 0.0 0.0 1:-7.0 2:0.7925925925925926 3:4.0 4:-3.0 5:-5.0 6:-5.0 7:0.5999999999999999 8:2.0 9:-2.0 10:-5.0 11:-6.0 14:-3.0 15:-6.0 16:-6.0 19:-3.0 20:-6.0 21:-5.0 24:-3.0 25:-5.0 26:-9.0 27:0.5370370370370371 28:2.0 29:-4.0 30:-9.0 
0.0 0.01 0.0 0.0 0.01 1:-7.0 2:0.7925925925925926 3:4.0 4:-3.0 5:-5.0 6:-6.0 9:-3.0 10:-6.0 11:-2.0 14:-2.0 15:-2.0 16:-8.0 19:-4.0 20:-8.0 21:-6.0 24:-4.0 25:-6.0 26:-16.0 27:0.5208333333333334 28:2.0 29:-4.0 30:-16.0 
0.0 0.0 0.01 0.0 0.0 1:-7.0 2:0.8727272727272728 3:8.0 4:-3.0 5:-5.0 6:-6.0 9:-3.0 10:-6.0 11:-4.0 14:-3.0 15:-4.0 16:-30.0 18:8.0 19:-4.0 20:-30.0 21:-5.0 24:-3.0 25:-5.0 26:-4.0 29:-3.0 30:-4.0 
0.0 0.0 0.0036812520271103646 0.0 0.01 1:-7.0 2:0.7925925925925926 3:4.0 4:-3.0 5:-5.0 6:-11.0 9:-4.0 10:-11.0 11:-6.0 14:-3.0 15:-6.0 16:-10.0 17:0.5303030303030303 18:2.0 19:-4.0 20:-10.0 21:-6.0 24:-4.0 25:-6.0 26:-9.0 27:0.5370370370370371 28:2.0 29:-4.0 30:-9.0 
0.0 0.01 0.0 0.0 0.0 1:-7.0 2:0.7925925925925926 3:4.0 4:-3.0 5:-5.0 6:-11.0 9:-4.0 10:-11.0 11:-2.0 14:-2.0 15:-2.0 16:-8.0 19:-4.0 20:-6.0 21:-5.0 24:-3.0 25:-5.0 26:-10.0 29:-4.0 30:-10.0 
0.0 0.0 0.005386650963101781 0.0 0.0 1:-7.0 2:0.8727272727272728 3:8.0 4:-3.0 5:-5.0 6:-11.0 7:0.5 8:2.0 9:-3.0 10:-11.0 11:-7.0 14:-3.0 15:-7.0 16:-26.0 18:4.0 19:-4.0 20:-25.0 21:-6.0 24:-4.0 25:-6.0 26:-9.0 29:-4.0 30:-9.0 
0.0 0.0 0.01 0.01 0.01 1:-7.0 2:0.7925925925925926 3:4.0 4:-3.0 5:-5.0 6:-6.0 9:-3.0 10:-6.0 11:-4.0 14:-2.0 15:-4.0 16:-4.0 18:4.0 19:-3.0 20:-4.0 21:-24.0 24:-4.0 25:-22.0 26:-9.0 27:0.5370370370370371 28:2.0 29:-4.0 30:-9.0 
0.0 0.0 0.0 0.0 0.01 1:-7.0 2:0.7925925925925926 3:4.0 4:-3.0 5:-5.0 6:-4.0 9:-3.0 10:-4.0 11:-6.0 14:-3.0 15:-6.0 16:-8.0 19:-4.0 20:-8.0 21:-5.0 24:-3.0 25:-5.0 26:-9.0 27:0.5370370370370371 28:2.0 29:-4.0 30:-9.0 
0.0 0.0 0.01 0.0 0.0 1:-7.0 2:0.7925925925925926 3:4.0 4:-3.0 5:-5.0 6:-6.0 9:-3.0 10:-6.0 11:-4.0 14:-3.0 15:-4.0 16:-5.0 18:3.0 19:-2.0 20:-5.0 21:-12.0 24:-4.0 25:-12.0 26:-16.0 29:-4.0 30:-16.0 
0.0 0.0 0.0011679582020803253 0.0 0.0 1:-7.0 2:0.8727272727272728 3:8.0 4:-3.0 5:-5.0 6:-6.0 7:0.47222222222222215 8:2.0 9:-3.0 10:-6.0 11:-4.0 14:-2.0 15:-4.0 16:-12.0 18:4.0 19:-4.0 20:-10.0 26:-9.0 28:2.0 29:-4.0 30:-9.0 
0.01 0.0 0.0 0.0 0.0 1:-7.0 2:0.7925925925925926 3:4.0 4:-3.0 5:-5.0 6:-3.0 7:0.625 8:2.0 9:-2.0 10:-3.0 11:-4.0 14:-2.0 15:-4.0 16:-8.0 19:-4.0 20:-8.0 21:-6.0 24:-4.0 25:-6.0 26:-16.0 29:-4.0 30:-16.0 
0.0 0.0 0.006385051723651494 0.0 0.0 1:-7.0 2:0.8727272727272728 3:8.0 4:-3.0 5:-5.0 6:-6.0 7:0.47222222222222215 8:2.0 9:-3.0 10:-6.0 11:-4.0 14:-2.0 15:-4.0 16:-11.0 18:4.0 19:-4.0 20:-11.0 21:-32.0 24:-4.0 25:-29.0 26:-8.0 28:2.0 29:-4.0 30:-8.0 
0.0 0.0 0.0 0.01 0.0 1:-5.0 3:12.0 4:-1.0 5:-5.0 6:-6.0 9:-4.0 10:-4.0 11:-6.0 13:2.0 14:-4.0 15:-6.0 16:-16.0 18:2.0 19:-3.0 20:-16.0 21:-26.0 22:0.64 23:5.0 24:-2.0 25:-25.0 
0.01 0.0 0.0 0.0 0.0 1:-7.0 2:0.7925925925925926 3:4.0 4:-3.0 5:-5.0 6:-4.0 7:0.61 8:2.0 9:-2.0 10:-4.0 11:-2.0 14:-2.0 15:-2.0 16:-8.0 19:-4.0 20:-8.0 26:-16.0 27:0.5208333333333334 28:2.0 29:-4.0 30:-16.0 
0.01 0.0 0.0 0.007513514817367498 0.01 1:-7.0 2:0.7925925925925926 3:4.0 4:-3.0 5:-5.0 6:-5.0 7:0.5999999999999999 8:2.0 9:-2.0 10:-5.0 11:-5.0 14:-3.0 15:-5.0 16:-16.0 19:-4.0 20:-16.0 21:-8.0 24:-4.0 25:-8.0 
0.001550122002114399 0.0 0.0 0.0 0.0 1:-7.0 2:0.7925925925925926 3:4.0 4:-3.0 5:-5.0 6:-18.0 8:2.0 9:-4.0 10:-18.0 11:-9.0 14:-4.0 15:-8.0 16:-18.0 19:-4.0 20:-15.0 21:-5.0 24:-3.0 25:-5.0 26:-9.0 29:-4.0 30:-9.0 
0.01 0.0 0.0 0.0 0.0 1:-7.0 2:0.7925925925925926 3:4.0 4:-3.0 5:-5.0 6:-5.0 7:0.1 8:2.0 9:-2.0 10:-5.0 11:-9.0 14:-4.0 15:-8.0 16:-9.0 19:-4.0 20:-8.0 26:-16.0 29:-4.0 30:-16.0 
0.0012759607282826495 9.480610695356093E-5 0.01 0.0045652717470635144 0.0 1:-7.0 2:0.7925925925925926 3:4.0 4:-3.0 5:-5.0 6:-6.0 9:-3.0 10:-6.0 11:-6.0 14:-3.0 15:-6.0 16:-102.0 18:2.0 19:-4.0 20:-97.0 26:-15.0 29:-4.0 30:-15.0 
0.0 0.0 0.0 0.0 0.01 1:-7.0 2:0.7925925925925926 3:4.0 4:-3.0 5:-5.0 6:-6.0 9:-3.0 10:-6.0 11:-4.0 14:-2.0 15:-4.0 16:-9.0 19:-4.0 20:-6.0 26:-9.0 27:0.58 28:2.0 29:-3.0 30:-9.0 
0.0 0.0 0.0 2.9231340895215403E-4 0.01 1:-7.0 2:0.7925925925925926 3:4.0 4:-3.0 5:-5.0 6:-6.0 9:-3.0 10:-6.0 11:-4.0 14:-3.0 15:-3.0 16:-8.0 19:-4.0 20:-8.0 21:-14.0 24:-4.0 25:-14.0 26:-9.0 27:0.5370370370370371 28:2.0 29:-4.0 30:-9.0 
0.0 0.0014919005155629565 0.0 0.0 0.0 1:-7.0 2:0.7925925925925926 3:4.0 4:-3.0 5:-5.0 6:-11.0 9:-4.0 10:-11.0 11:-4.0 14:-2.0 15:-4.0 16:-8.0 19:-4.0 20:-8.0 21:-5.0 24:-2.0 25:-5.0 26:-9.0 29:-4.0 30:-9.0 
0.01 0.006635776086738051 0.0 0.0 0.0074471322798895 1:-7.0 2:0.7925925925925926 3:4.0 4:-3.0 5:-5.0 6:-5.0 7:0.5999999999999999 8:2.0 9:-2.0 10:-5.0 11:-2.0 14:-2.0 15:-2.0 16:-8.0 19:-4.0 20:-8.0 21:-5.0 24:-3.0 25:-5.0 
0.0 0.0 0.0 0.0 0.01 1:-7.0 2:0.7925925925925926 3:4.0 4:-3.0 5:-5.0 6:-6.0 9:-3.0 10:-6.0 11:-4.0 14:-2.0 15:-4.0 16:-18.0 19:-4.0 20:-16.0 21:-5.0 24:-2.0 25:-5.0 26:-9.0 27:0.5370370370370371 28:2.0 29:-4.0 30:-9.0 
0.0 0.0 0.01 0.0 0.0 1:-7.0 2:0.8727272727272728 3:8.0 4:-3.0 5:-5.0 6:-11.0 7:0.44696969696969696 8:2.0 9:-4.0 10:-11.0 11:-4.0 14:-2.0 15:-4.0 16:-11.0 18:4.0 19:-4.0 20:-11.0 21:-32.0 24:-4.0 25:-29.0 26:-9.0 29:-4.0 30:-9.0 
0.0 0.0 0.0 0.0 0.01 1:-7.0 2:0.7925925925925926 3:4.0 4:-3.0 5:-5.0 6:-3.0 9:-2.0 10:-3.0 11:-5.0 14:-2.0 15:-5.0 16:-12.0 19:-4.0 20:-12.0 26:-9.0 27:0.5370370370370371 28:2.0 29:-4.0 30:-9.0 
0.01 0.0 0.0 0.0 0.0 1:-7.0 2:0.7925925925925926 3:4.0 4:-3.0 5:-5.0 6:-10.0 7:0.5772727272727273 8:2.0 9:-3.0 10:-10.0 11:-6.0 14:-3.0 15:-6.0 16:-8.0 19:-4.0 20:-8.0 21:-5.0 24:-3.0 25:-5.0 26:-9.0 29:-4.0 30:-9.0 
0.0 0.0 0.01 0.0 0.0 1:-7.0 2:0.7925925925925926 3:4.0 4:-3.0 5:-5.0 6:-6.0 9:-3.0 10:-6.0 11:-2.0 14:-2.0 15:-2.0 16:-7.0 17:0.7925925925925926 18:4.0 19:-2.0 20:-7.0 26:-4.0 29:-3.0 30:-4.0 
0.0 0.0 0.0 0.004187641114614724 0.01 1:-7.0 2:0.7925925925925926 3:4.0 4:-3.0 5:-5.0 6:-20.0 7:0.5642857142857143 8:2.0 9:-3.0 10:-20.0 11:-5.0 14:-3.0 15:-5.0 16:-7.0 19:-4.0 20:-7.0 21:-5.0 24:-2.0 25:-5.0 26:-8.0 27:0.5833333333333334 28:2.0 29:-3.0 30:-8.0 
0.0 0.004128049676725009 0.0 0.0 0.0 1:-7.0 2:0.7925925925925926 3:4.0 4:-3.0 5:-5.0 6:-18.0 8:2.0 9:-4.0 10:-18.0 11:-2.0 14:-2.0 15:-2.0 16:-15.0 19:-4.0 20:-15.0 26:-13.0 28:2.0 29:-4.0 30:-13.0 
0.0 0.0 0.0 0.01 0.01 1:-7.0 2:0.7925925925925926 3:4.0 4:-3.0 5:-5.0 6:-11.0 9:-4.0 10:-11.0 11:-6.0 14:-3.0 15:-6.0 16:-7.0 19:-4.0 20:-7.0 21:-11.0 24:-4.0 25:-11.0 26:-9.0 27:0.5370370370370371 28:2.0 29:-4.0 30:-9.0 
0.0 0.0 0.0 0.0 0.01 1:-7.0 2:0.7925925925925926 3:4.0 4:-3.0 5:-5.0 6:-11.0 9:-4.0 10:-11.0 11:-6.0 14:-3.0 15:-6.0 16:-7.0 19:-4.0 20:-7.0 21:-6.0 24:-4.0 25:-6.0 26:-9.0 27:0.5370370370370371 28:2.0 29:-4.0 30:-9.0 
0.0 0.0 0.0 0.0 0.01 1:-7.0 2:0.7925925925925926 3:4.0 4:-3.0 5:-5.0 6:-6.0 9:-3.0 10:-6.0 11:-4.0 14:-2.0 15:-4.0 16:-4.0 19:-1.0 20:-4.0 21:-6.0 24:-4.0 25:-5.0 26:-9.0 27:0.5370370370370371 28:2.0 29:-4.0 30:-9.0 
0.0 0.0 0.0 0.0025556222396570147 0.0 1:-5.0 3:12.0 4:-1.0 5:-5.0 6:-6.0 9:-4.0 10:-6.0 11:-6.0 13:2.0 14:-4.0 15:-6.0 16:-9.0 17:0.4259259259259259 18:2.0 19:-4.0 20:-8.0 21:-26.0 22:0.64 23:5.0 24:-2.0 25:-25.0 
0.01 0.0 0.0 0.0 0.0 1:-7.0 2:0.7925925925925926 3:4.0 4:-3.0 5:-5.0 6:-6.0 7:0.5555555555555555 8:2.0 9:-3.0 10:-6.0 11:-4.0 14:-2.0 15:-4.0 16:-8.0 19:-4.0 20:-8.0 21:-13.0 24:-4.0 25:-13.0 26:-9.0 29:-4.0 30:-9.0 
0.01 0.0 0.01 0.0 0.0 1:-7.0 2:0.7925925925925926 3:4.0 4:-3.0 5:-5.0 6:-8.0 7:0.5833333333333334 8:2.0 9:-3.0 10:-8.0 11:-4.0 14:-2.0 15:-4.0 16:-10.0 18:4.0 19:-4.0 20:-10.0 21:-11.0 24:-4.0 25:-11.0 26:-16.0 29:-4.0 30:-16.0 
0.01 4.812519851143548E-4 0.0 0.0 0.0 1:-7.0 2:0.7925925925925926 3:4.0 4:-3.0 5:-5.0 6:-5.0 7:0.5555555555555555 8:2.0 9:-3.0 10:-5.0 11:-2.0 14:-2.0 15:-2.0 16:-19.0 19:-4.0 20:-19.0 26:-4.0 29:-3.0 30:-4.0 
0.0 0.0 0.01 0.0 0.003995144617435606 1:-7.0 2:0.7925925925925926 3:4.0 4:-3.0 5:-5.0 6:-6.0 9:-3.0 10:-6.0 11:-4.0 14:-2.0 15:-4.0 16:-4.0 18:4.0 19:-3.0 20:-4.0 26:-9.0 27:0.5370370370370371 28:2.0 29:-4.0 30:-9.0 
0.0 0.0 0.01 0.0 0.0 1:-7.0 2:0.7925925925925926 3:4.0 4:-3.0 5:-5.0 6:-6.0 9:-3.0 10:-6.0 11:-2.0 14:-2.0 15:-2.0 16:-7.0 17:0.7925925925925926 18:4.0 19:-2.0 20:-7.0 21:-5.0 24:-3.0 25:-5.0 26:-12.0 29:-4.0 30:-12.0 
0.0 0.0 0.0 0.0 0.01 1:-7.0 2:0.7925925925925926 3:4.0 4:-3.0 5:-5.0 6:-11.0 9:-4.0 10:-11.0 11:-6.0 14:-3.0 15:-6.0 16:-7.0 19:-4.0 20:-7.0 21:-4.0 24:-2.0 25:-4.0 26:-9.0 27:0.5370370370370371 28:2.0 29:-4.0 30:-9.0 
0.004807678268446925 0.0 0.0 0.0 0.01 1:-7.0 2:0.7925925925925926 3:4.0 4:-3.0 5:-5.0 6:-10.0 7:0.5303030303030303 8:2.0 9:-4.0 10:-10.0 11:-4.0 14:-2.0 15:-4.0 16:-8.0 19:-4.0 20:-8.0 21:-5.0 24:-3.0 25:-5.0 26:-9.0 27:0.5370370370370371 28:2.0 29:-4.0 30:-9.0 
0.0 0.0 0.01 0.0 0.0 1:-7.0 2:0.7925925925925926 3:4.0 4:-3.0 5:-5.0 6:-6.0 9:-3.0 10:-6.0 11:-4.0 14:-3.0 15:-3.0 16:-5.0 18:4.0 19:-3.0 20:-4.0 21:-16.0 24:-4.0 25:-15.0 26:-10.0 29:-4.0 30:-10.0 
0.0 0.0 1.8720778280799003E-4 0.0 0.0 1:-7.0 2:0.8727272727272728 3:8.0 4:-3.0 5:-5.0 6:-6.0 7:0.5178571428571428 8:2.0 9:-2.0 10:-6.0 11:-4.0 14:-2.0 15:-4.0 16:-17.0 18:4.0 19:-4.0 20:-17.0 21:-11.0 24:-4.0 25:-11.0 26:-9.0 29:-4.0 30:-9.0 
0.0 0.0 0.01 0.0 0.01 1:-7.0 2:0.7925925925925926 3:4.0 4:-3.0 5:-5.0 6:-6.0 9:-3.0 10:-6.0 11:-4.0 14:-3.0 15:-4.0 16:-4.0 18:3.0 19:-1.0 20:-4.0 21:-12.0 24:-4.0 25:-12.0 26:-16.0 27:0.5208333333333334 28:2.0 29:-4.0 30:-16.0 
0.0 0.0 0.0 0.004676974105196716 0.01 1:-7.0 2:0.7925925925925926 3:4.0 4:-3.0 5:-5.0 6:-6.0 9:-3.0 10:-6.0 11:-4.0 14:-3.0 15:-3.0 16:-8.0 19:-4.0 20:-8.0 21:-14.0 24:-4.0 25:-14.0 26:-9.0 27:0.5370370370370371 28:2.0 29:-4.0 30:-9.0 
0.00589781968130217 0.0 0.006172584015791675 0.0 0.0 1:-7.0 2:0.7925925925925926 3:4.0 4:-3.0 5:-5.0 6:-6.0 7:0.5928571428571427 8:2.0 9:-2.0 10:-6.0 11:-21.0 14:-4.0 15:-19.0 16:-3.0 17:0.5833333333333334 18:2.0 19:-1.0 20:-3.0 26:-13.0 28:2.0 29:-4.0 30:-13.0 
0.0 0.0 0.007321685252217787 0.0 0.0 1:-7.0 2:0.8727272727272728 3:8.0 4:-3.0 5:-5.0 6:-6.0 7:0.47222222222222215 8:2.0 9:-3.0 10:-6.0 11:-4.0 14:-2.0 15:-4.0 16:-11.0 18:4.0 19:-4.0 20:-11.0 21:-32.0 24:-4.0 25:-29.0 
0.0 0.0 0.007275138135721076 0.0 0.0 1:-7.0 2:0.8727272727272728 3:8.0 4:-3.0 5:-5.0 6:-11.0 7:0.44696969696969696 8:2.0 9:-4.0 10:-11.0 11:-4.0 14:-2.0 15:-4.0 16:-11.0 18:4.0 19:-4.0 20:-11.0 21:-32.0 24:-4.0 25:-29.0 26:-9.0 29:-4.0 30:-9.0 
0.01 0.0 0.01 0.0 0.0 1:-7.0 2:0.7925925925925926 3:4.0 4:-3.0 5:-5.0 6:-5.0 7:0.5555555555555555 8:2.0 9:-3.0 10:-5.0 11:-4.0 14:-2.0 15:-4.0 16:-9.0 18:4.0 19:-4.0 20:-9.0 26:-4.0 29:-3.0 30:-4.0 
0.0 0.0 0.01 0.0 0.0 1:-7.0 2:0.7925925925925926 3:4.0 4:-3.0 5:-5.0 6:-11.0 9:-4.0 10:-11.0 11:-7.0 14:-3.0 15:-7.0 16:-19.0 18:2.0 19:-4.0 20:-18.0 21:-5.0 24:-3.0 25:-5.0 26:-9.0 29:-4.0 30:-9.0 
0.0 0.0 0.004565039871382113 0.0 0.0 1:-7.0 2:0.8727272727272728 3:8.0 4:-3.0 5:-5.0 6:-18.0 7:0.43421052631578944 8:2.0 9:-4.0 10:-18.0 11:-4.0 14:-2.0 15:-4.0 16:-19.0 18:4.0 19:-4.0 20:-19.0 26:-4.0 28:2.0 29:-3.0 30:-4.0 
0.0 0.008374515463159347 0.01 0.0 0.0 1:-7.0 2:0.7925925925925926 3:4.0 4:-3.0 5:-5.0 6:-6.0 9:-3.0 10:-6.0 11:-2.0 14:-2.0 15:-2.0 16:-7.0 17:0.7925925925925926 18:4.0 19:-2.0 20:-7.0 26:-4.0 29:-2.0 30:-4.0 
0.0 0.0019866118018666327 -0.0 0.0 0.0 1:-5.0 3:12.0 4:-1.0 5:-5.0 6:-6.0 9:-4.0 10:-6.0 11:-14.0 13:6.0 14:-3.0 15:-11.0 16:-15.0 17:0.4444444444444444 18:4.0 19:-2.0 20:-16.0 21:-6.0 22:0.45555555555555555 23:2.0 24:-3.0 25:-4.0 
-0.008637791269800136 0.0 0.0 0.007269213249936271 0.01 1:-10.0 2:0.7272727272727272 3:2.0 4:-3.0 5:-8.0 6:-3.0 7:0.775 8:2.0 9:-2.0 10:-3.0 11:-6.0 14:-3.0 15:-6.0 16:-8.0 19:-1.0 20:-8.0 21:-5.0 24:-3.0 25:-5.0 
-0.0 0.0 0.0 0.0 0.01 1:-11.0 4:-4.0 5:-9.0 6:-4.0 8:4.0 9:-3.0 10:-4.0 11:-4.0 14:-3.0 15:-4.0 16:-6.0 19:-4.0 20:-6.0 21:-5.0 22:0.5666666666666667 23:2.0 24:-3.0 25:-5.0 26:-7.0 28:4.0 29:-4.0 30:-7.0 
-0.0 0.01 0.01 0.0 0.0 1:-10.0 2:0.7272727272727272 3:2.0 4:-3.0 5:-8.0 6:-3.0 7:0.775 8:2.0 9:-2.0 10:-3.0 11:-2.0 14:-2.0 15:-2.0 16:-6.0 18:2.0 19:-3.0 20:-6.0 26:-15.0 29:-4.0 30:-15.0 
-0.0 0.0 0.0 0.0 0.01 1:-11.0 4:-4.0 5:-9.0 6:-4.0 8:4.0 9:-3.0 10:-4.0 11:-4.0 14:-3.0 15:-4.0 16:-6.0 19:-4.0 20:-6.0 26:-13.0 28:4.0 29:-4.0 30:-13.0 
-0.0 0.0 0.0 0.0 0.01 1:-11.0 4:-4.0 5:-9.0 6:-4.0 8:4.0 9:-3.0 10:-4.0 11:-7.0 13:2.0 14:-3.0 15:-7.0 16:-9.0 19:-2.0 20:-9.0 21:-10.0 23:2.0 24:-4.0 25:-10.0 26:-2.0 28:4.0 29:-3.0 30:-2.0 
-0.0 0.0 0.0 0.0 0.01 1:-11.0 4:-4.0 5:-9.0 6:-4.0 8:4.0 9:-3.0 10:-4.0 11:-2.0 14:-1.0 15:-2.0 16:-15.0 19:-4.0 20:-15.0 26:-2.0 28:4.0 29:-3.0 30:-2.0 
-0.0 0.0 0.0 0.0 0.01 1:-11.0 4:-4.0 5:-9.0 6:-4.0 8:4.0 9:-3.0 10:-4.0 11:-2.0 14:-1.0 15:-2.0 16:-9.0 18:2.0 19:-3.0 20:-9.0 21:-5.0 22:0.5666666666666667 23:2.0 24:-3.0 25:-5.0 26:-2.0 28:4.0 29:-3.0 30:-2.0 
-0.0 0.0 0.0 0.0 0.01 1:-9.0 4:-4.0 5:-7.0 6:-4.0 8:4.0 9:-3.0 10:-4.0 11:-2.0 14:-1.0 15:-2.0 16:-8.0 18:2.0 19:-2.0 20:-8.0 21:-5.0 22:0.5666666666666667 23:2.0 24:-3.0 25:-5.0 26:-13.0 28:4.0 29:-4.0 30:-13.0 
-0.0 0.0 0.0 0.0 0.01 1:-11.0 4:-4.0 5:-9.0 6:-4.0 8:4.0 9:-3.0 10:-4.0 11:-4.0 14:-3.0 15:-4.0 16:-6.0 19:-2.0 20:-6.0 21:-5.0 22:0.5666666666666667 23:2.0 24:-3.0 25:-5.0 26:-7.0 28:4.0 29:-4.0 30:-7.0 
-0.0 0.0 0.0 0.0 0.0053355545292926385 1:-9.0 4:-4.0 5:-7.0 6:-3.0 8:4.0 9:-3.0 10:-3.0 11:-4.0 14:-2.0 15:-4.0 16:-4.0 19:-2.0 20:-3.0 21:-5.0 22:0.5666666666666667 23:2.0 24:-3.0 25:-5.0 26:-9.0 28:2.0 29:-4.0 30:-9.0 
-0.0 0.0 0.0 0.0 0.01 1:-11.0 4:-4.0 5:-9.0 6:-4.0 8:4.0 9:-3.0 10:-4.0 11:-4.0 14:-3.0 15:-3.0 16:-4.0 19:-3.0 20:-3.0 21:-5.0 22:0.5666666666666667 23:2.0 24:-3.0 25:-5.0 26:-7.0 28:4.0 29:-4.0 30:-7.0 
-0.0 0.0 0.0 0.0 0.01 1:-12.0 4:-4.0 5:-10.0 6:-4.0 8:4.0 9:-3.0 10:-4.0 11:-21.0 13:2.0 14:-4.0 15:-19.0 16:-4.0 19:-2.0 20:-4.0 26:-12.0 28:4.0 29:-4.0 30:-12.0 
-0.0 0.0 0.0 0.0 0.01 1:-9.0 4:-4.0 5:-7.0 6:-3.0 8:4.0 9:-3.0 10:-3.0 11:-6.0 14:-3.0 15:-6.0 16:-8.0 19:-4.0 20:-8.0 21:-5.0 22:0.5666666666666667 23:2.0 24:-3.0 25:-5.0 26:-11.0 28:4.0 29:-4.0 30:-11.0 
-0.0 0.0 0.0 0.0 0.01 1:-11.0 4:-4.0 5:-9.0 6:-4.0 8:4.0 9:-3.0 10:-4.0 11:-4.0 14:-2.0 15:-4.0 16:-8.0 19:-4.0 20:-8.0 26:-14.0 28:4.0 29:-4.0 30:-14.0 
-0.0 0.0 0.0 0.0 0.01 1:-11.0 4:-4.0 5:-9.0 6:-7.0 8:4.0 9:-4.0 10:-7.0 11:-4.0 14:-2.0 15:-4.0 16:-18.0 19:-4.0 20:-18.0 26:-8.0 28:4.0 29:-4.0 30:-8.0 
-0.0 0.01 0.0 0.0 0.0 1:-11.0 3:2.0 4:-4.0 5:-9.0 6:-6.0 8:6.0 9:-4.0 10:-6.0 11:-4.0 12:0.7222222222222222 13:4.0 14:-2.0 15:-4.0 16:-17.0 17:0.5925925925925926 18:4.0 19:-4.0 20:-17.0 26:-9.0 28:2.0 29:-4.0 30:-9.0 
-0.0 0.0 0.0 0.0 0.01 1:-11.0 4:-4.0 5:-9.0 6:-4.0 8:4.0 9:-3.0 10:-4.0 11:-4.0 14:-2.0 15:-4.0 16:-12.0 18:2.0 19:-4.0 20:-12.0 21:-5.0 22:0.5666666666666667 23:2.0 24:-3.0 25:-5.0 26:-13.0 28:4.0 29:-4.0 30:-13.0 
-0.0 0.0 0.0 0.0 0.01 1:-11.0 4:-4.0 5:-9.0 6:-9.0 8:4.0 9:-4.0 10:-9.0 11:-7.0 13:2.0 14:-3.0 15:-7.0 16:-27.0 18:2.0 19:-4.0 20:-26.0 26:-7.0 28:4.0 29:-4.0 30:-7.0 
-0.0 0.0 0.0 0.0 0.01 1:-11.0 4:-4.0 5:-9.0 6:-4.0 8:4.0 9:-3.0 10:-4.0 11:-7.0 13:2.0 14:-3.0 15:-7.0 16:-9.0 19:-2.0 20:-9.0 26:-13.0 28:4.0 29:-4.0 30:-13.0 
-0.0 0.0 0.0 0.0 0.01 1:-11.0 4:-4.0 5:-9.0 6:-5.0 8:4.0 9:-3.0 10:-5.0 11:-4.0 14:-3.0 15:-3.0 16:-6.0 19:-2.0 20:-6.0 21:-10.0 23:2.0 24:-4.0 25:-10.0 26:-7.0 28:4.0 29:-4.0 30:-7.0 
-0.0 0.0 0.0 0.0 0.01 1:-12.0 4:-4.0 5:-10.0 6:-3.0 8:4.0 9:-3.0 10:-3.0 11:-4.0 14:-3.0 15:-4.0 16:-10.0 18:2.0 19:-4.0 20:-10.0 21:-8.0 23:2.0 24:-4.0 25:-8.0 26:-13.0 28:4.0 29:-4.0 30:-13.0 
-0.0 0.0 0.0 0.0 0.01 1:-11.0 4:-4.0 5:-9.0 6:-5.0 8:4.0 9:-3.0 10:-5.0 11:-2.0 14:-1.0 15:-2.0 16:-4.0 19:-3.0 20:-4.0 21:-14.0 24:-4.0 25:-12.0 26:-15.0 28:4.0 29:-4.0 30:-15.0 
-0.0 0.0 0.0 0.0 0.01 1:-11.0 4:-4.0 5:-9.0 6:-4.0 8:4.0 9:-3.0 10:-4.0 11:-4.0 14:-2.0 15:-4.0 16:-18.0 19:-4.0 20:-18.0 21:-32.0 22:0.5104166666666666 23:2.0 24:-4.0 25:-29.0 26:-7.0 28:4.0 29:-4.0 30:-7.0 
-0.0 0.0 0.0 0.0 0.01 1:-11.0 4:-4.0 5:-9.0 6:-4.0 8:4.0 9:-3.0 10:-4.0 11:-4.0 14:-3.0 15:-3.0 16:-17.0 19:-4.0 20:-17.0 26:-13.0 28:4.0 29:-4.0 30:-13.0 
-0.0 0.0 0.0 0.0 0.01 1:-11.0 4:-4.0 5:-9.0 6:-9.0 8:4.0 9:-4.0 10:-9.0 11:-6.0 14:-3.0 15:-6.0 16:-7.0 19:-4.0 20:-7.0 21:-5.0 22:0.5666666666666667 23:2.0 24:-3.0 25:-5.0 26:-7.0 28:4.0 29:-4.0 30:-7.0 
-0.0 0.0 0.0 0.0 0.01 1:-11.0 4:-4.0 5:-9.0 6:-9.0 8:4.0 9:-4.0 10:-9.0 11:-6.0 14:-3.0 15:-6.0 16:-7.0 19:-4.0 20:-7.0 21:-5.0 22:0.5666666666666667 23:2.0 24:-3.0 25:-5.0 26:-7.0 28:4.0 29:-4.0 30:-7.0 
-0.0 0.0 0.0 0.0 0.01 1:-11.0 4:-4.0 5:-9.0 6:-4.0 8:4.0 9:-3.0 10:-4.0 11:-4.0 14:-3.0 15:-4.0 16:-6.0 19:-2.0 20:-6.0 21:-13.0 23:2.0 24:-4.0 25:-13.0 26:-14.0 28:4.0 29:-4.0 30:-14.0 
-0.0 0.0 0.0 0.0 0.002076756061854735 1:-10.0 2:0.7272727272727272 3:2.0 4:-3.0 5:-8.0 6:-8.0 7:0.7333333333333334 8:2.0 9:-3.0 10:-8.0 11:-4.0 14:-3.0 15:-4.0 16:-7.0 19:-2.0 20:-7.0 21:-10.0 24:-4.0 25:-10.0 26:-9.0 29:-4.0 30:-9.0 
-0.0 0.0 0.0 0.0 0.01 1:-11.0 4:-4.0 5:-9.0 6:-7.0 8:4.0 9:-4.0 10:-7.0 11:-4.0 14:-3.0 15:-4.0 16:-7.0 19:-1.0 20:-7.0 21:-10.0 23:2.0 24:-4.0 25:-10.0 26:-8.0 28:2.0 29:-4.0 30:-8.0 
-0.0 0.0 0.0 0.0 0.01 1:-9.0 4:-4.0 5:-7.0 6:-9.0 8:4.0 9:-4.0 10:-9.0 11:-6.0 14:-3.0 15:-6.0 16:-7.0 19:-4.0 20:-7.0 21:-10.0 23:2.0 24:-4.0 25:-10.0 26:-7.0 28:4.0 29:-4.0 30:-7.0 
-0.0 0.0 0.0 0.0 0.01 1:-11.0 4:-4.0 5:-9.0 6:-9.0 8:4.0 9:-4.0 10:-9.0 11:-4.0 14:-3.0 15:-4.0 16:-7.0 19:-1.0 20:-7.0 21:-10.0 24:-4.0 25:-10.0 26:-7.0 28:4.0 29:-4.0 30:-7.0 
-0.0 0.0 0.0 0.0 0.01 1:-11.0 4:-4.0 5:-9.0 6:-5.0 8:4.0 9:-3.0 10:-5.0 11:-2.0 14:-1.0 15:-2.0 16:-40.0 18:2.0 19:-4.0 20:-40.0 26:-7.0 28:4.0 29:-4.0 30:-7.0 
-0.0 0.0 0.0 0.0 0.01 1:-12.0 4:-4.0 5:-10.0 6:-3.0 8:4.0 9:-3.0 10:-3.0 11:-4.0 14:-3.0 15:-4.0 16:-10.0 18:2.0 19:-4.0 20:-10.0 26:-2.0 28:4.0 29:-3.0 30:-2.0 
-0.0 0.0 0.0 0.0 0.01 1:-11.0 4:-4.0 5:-9.0 6:-4.0 8:4.0 9:-3.0 10:-4.0 11:-4.0 14:-3.0 15:-4.0 16:-6.0 19:-4.0 20:-6.0 21:-3.0 22:0.625 23:2.0 24:-1.0 25:-3.0 26:-8.0 28:4.0 29:-4.0 30:-8.0 
-0.0 0.0 0.0 0.0 0.01 1:-9.0 4:-4.0 5:-7.0 6:-17.0 8:4.0 9:-4.0 10:-17.0 11:-6.0 14:-3.0 15:-6.0 16:-4.0 19:-2.0 20:-4.0 26:-13.0 28:4.0 29:-4.0 30:-13.0 
-0.0 0.006786538335757968 0.01 0.0018937553567221173 0.01 1:-10.0 2:0.7272727272727272 3:2.0 4:-3.0 5:-8.0 6:-3.0 7:0.775 8:2.0 9:-2.0 10:-3.0 11:-2.0 14:-2.0 15:-2.0 16:-45.0 18:2.0 19:-4.0 20:-43.0 21:-6.0 24:-4.0 25:-6.0 
-0.0 0.0 0.0042730121714686375 0.0 0.0 1:-11.0 4:-4.0 5:-9.0 6:-2.0 8:4.0 9:-3.0 10:-2.0 11:-2.0 14:-1.0 15:-2.0 16:-45.0 18:2.0 19:-3.0 20:-43.0 21:-6.0 24:-4.0 25:-6.0 
-0.0 0.0 0.0 0.0 0.01 1:-11.0 4:-4.0 5:-9.0 6:-3.0 8:4.0 9:-3.0 10:-3.0 11:-4.0 14:-2.0 15:-4.0 16:-8.0 19:-4.0 20:-8.0 21:-4.0 22:0.625 23:2.0 24:-1.0 25:-4.0 26:-7.0 28:4.0 29:-4.0 30:-7.0 
-0.01 0.0 0.0 0.0 0.0 1:-9.0 2:0.1 3:3.0 4:-3.0 5:-7.0 6:-3.0 7:0.84 8:4.0 9:-2.0 10:-3.0 11:-4.0 14:-3.0 15:-4.0 16:-3.0 18:2.0 19:-1.0 20:-3.0 21:-9.0 24:-4.0 25:-9.0 26:-9.0 29:-4.0 30:-9.0 
-0.0 0.0 0.0 0.0 0.01 1:-11.0 4:-4.0 5:-9.0 6:-3.0 8:4.0 9:-3.0 10:-3.0 11:-4.0 14:-3.0 15:-4.0 16:-4.0 19:-2.0 20:-4.0 21:-8.0 23:2.0 24:-4.0 25:-8.0 26:-7.0 28:4.0 29:-4.0 30:-7.0 
-0.0 0.0 0.0 0.0 0.01 1:-11.0 4:-4.0 5:-9.0 6:-4.0 8:4.0 9:-3.0 10:-4.0 11:-7.0 13:2.0 14:-4.0 15:-7.0 16:-13.0 18:2.0 19:-3.0 20:-13.0 21:-9.0 23:2.0 24:-4.0 25:-9.0 26:-13.0 28:4.0 29:-4.0 30:-13.0 
-0.0 0.0 0.0 0.0 0.01 1:-11.0 4:-4.0 5:-9.0 6:-3.0 8:4.0 9:-3.0 10:-3.0 11:-7.0 13:2.0 14:-3.0 15:-7.0 16:-28.0 18:2.0 19:-4.0 20:-28.0 21:-6.0 24:-4.0 25:-6.0 26:-7.0 28:4.0 29:-4.0 30:-7.0 
-0.0 0.0 0.0 0.0 0.01 1:-11.0 4:-4.0 5:-9.0 6:-4.0 8:4.0 9:-3.0 10:-4.0 11:-4.0 14:-3.0 15:-3.0 16:-6.0 19:-2.0 20:-6.0 21:-5.0 22:0.5666666666666667 23:2.0 24:-3.0 25:-5.0 26:-7.0 28:4.0 29:-4.0 30:-7.0 
-0.0 0.0 0.0 0.0 0.01 1:-11.0 4:-4.0 5:-9.0 6:-4.0 8:4.0 9:-3.0 10:-4.0 11:-7.0 13:2.0 14:-3.0 15:-7.0 16:-9.0 19:-4.0 20:-8.0 21:-5.0 22:0.5666666666666667 23:2.0 24:-3.0 25:-5.0 26:-13.0 28:4.0 29:-4.0 30:-13.0 
-0.0 0.0 0.0 0.0 0.004084925929124777 1:-11.0 4:-4.0 5:-9.0 6:-2.0 8:4.0 9:-3.0 10:-2.0 11:-4.0 14:-3.0 15:-3.0 16:-13.0 19:-4.0 20:-11.0 21:-9.0 24:-4.0 25:-9.0 26:-8.0 28:2.0 29:-4.0 30:-8.0 
-0.0 0.0 0.0 0.0 0.01 1:-9.0 4:-4.0 5:-7.0 6:-9.0 8:4.0 9:-4.0 10:-9.0 11:-6.0 14:-3.0 15:-6.0 16:-4.0 19:-2.0 20:-4.0 21:-6.0 24:-4.0 25:-6.0 26:-7.0 28:4.0 29:-4.0 30:-7.0 
-0.0 0.0 0.0 0.0 0.01 1:-10.0 2:0.7272727272727272 3:2.0 4:-3.0 5:-8.0 6:-3.0 7:0.775 8:2.0 9:-2.0 10:-3.0 11:-4.0 14:-3.0 15:-3.0 16:-8.0 19:-4.0 20:-8.0 21:-5.0 24:-3.0 25:-5.0 26:-9.0 27:0.7300000000000001 28:2.0 29:-3.0 30:-9.0 
-0.0 0.0 0.0 0.0 0.01 1:-11.0 4:-4.0 5:-9.0 6:-4.0 8:4.0 9:-3.0 10:-4.0 11:-4.0 14:-3.0 15:-4.0 16:-7.0 19:-1.0 20:-7.0 21:-12.0 24:-4.0 25:-12.0 26:-14.0 28:4.0 29:-4.0 30:-14.0 
-0.0 0.0 0.0 0.0 0.01 1:-11.0 4:-4.0 5:-9.0 6:-4.0 8:4.0 9:-3.0 10:-4.0 11:-2.0 14:-1.0 15:-2.0 16:-9.0 19:-3.0 20:-9.0 21:-15.0 24:-4.0 25:-13.0 26:-13.0 28:4.0 29:-4.0 30:-13.0 
-0.0 0.0 0.0 0.0 0.01 1:-11.0 4:-4.0 5:-9.0 6:-9.0 8:4.0 9:-4.0 10:-9.0 11:-6.0 14:-3.0 15:-6.0 16:-8.0 19:-4.0 20:-8.0 21:-5.0 22:0.5666666666666667 23:2.0 24:-3.0 25:-5.0 26:-7.0 28:4.0 29:-4.0 30:-7.0 
-0.0 0.0 0.0 0.0 0.01 1:-11.0 4:-4.0 5:-9.0 6:-9.0 8:4.0 9:-4.0 10:-9.0 11:-6.0 14:-3.0 15:-6.0 16:-7.0 19:-4.0 20:-7.0 21:-9.0 23:2.0 24:-4.0 25:-9.0 26:-7.0 28:4.0 29:-4.0 30:-7.0 
-0.0 0.0 0.0 0.0 0.01 1:-11.0 4:-4.0 5:-9.0 6:-9.0 8:4.0 9:-4.0 10:-9.0 11:-6.0 14:-3.0 15:-6.0 16:-7.0 19:-4.0 20:-7.0 21:-5.0 22:0.5666666666666667 23:2.0 24:-3.0 25:-5.0 26:-7.0 28:4.0 29:-4.0 30:-7.0 
-0.0 0.0 0.0 0.0 0.01 1:-11.0 4:-4.0 5:-9.0 6:-9.0 8:4.0 9:-4.0 10:-9.0 11:-7.0 13:2.0 14:-3.0 15:-7.0 16:-27.0 18:2.0 19:-4.0 20:-26.0 21:-26.0 23:2.0 24:-4.0 25:-26.0 26:-7.0 28:4.0 29:-4.0 30:-7.0 
-0.0 0.0 0.0 0.008749157559522453 0.0 1:-11.0 3:2.0 4:-4.0 5:-9.0 6:-7.0 8:8.0 9:-4.0 10:-7.0 11:-7.0 13:2.0 14:-3.0 15:-7.0 16:-25.0 18:6.0 19:-4.0 20:-24.0 21:-25.0 22:0.7342592592592593 23:6.0 24:-2.0 25:-25.0 26:-9.0 29:-4.0 30:-9.0 
-0.0 0.0 0.0 0.0 0.01 1:-11.0 4:-4.0 5:-9.0 6:-4.0 8:4.0 9:-3.0 10:-4.0 11:-4.0 14:-3.0 15:-4.0 16:-6.0 19:-2.0 20:-6.0 21:-9.0 23:2.0 24:-4.0 25:-9.0 26:-7.0 28:4.0 29:-4.0 30:-7.0 
-0.0 0.0 0.0 0.0 0.01 1:-11.0 4:-4.0 5:-9.0 6:-4.0 8:4.0 9:-3.0 10:-4.0 11:-4.0 14:-3.0 15:-4.0 16:-11.0 19:-2.0 20:-11.0 26:-2.0 28:4.0 29:-3.0 30:-2.0 
-0.0 0.0 0.0 0.0 0.01 1:-11.0 4:-4.0 5:-9.0 6:-9.0 8:4.0 9:-4.0 10:-9.0 11:-4.0 14:-3.0 15:-4.0 16:-7.0 19:-1.0 20:-7.0 21:-12.0 24:-4.0 25:-12.0 26:-7.0 28:4.0 29:-4.0 30:-7.0 
-0.0 0.0 0.0 0.0 0.01 1:-11.0 4:-4.0 5:-9.0 6:-10.0 8:4.0 9:-4.0 10:-10.0 11:-6.0 14:-3.0 15:-6.0 16:-7.0 19:-4.0 20:-7.0 21:-5.0 22:0.5666666666666667 23:2.0 24:-3.0 25:-5.0 26:-7.0 28:4.0 29:-4.0 30:-7.0 
-0.0 0.0 0.01 0.0 0.0 1:-10.0 2:0.47474747474747475 3:2.0 4:-4.0 5:-8.0 6:-3.0 7:0.8833333333333334 8:6.0 9:-2.0 10:-3.0 11:-4.0 14:-3.0 15:-3.0 16:-3.0 17:0.8333333333333334 18:6.0 19:-2.0 20:-3.0 21:-22.0 24:-4.0 25:-22.0 26:-9.0 29:-4.0 30:-9.0 
-0.0 0.0 0.0 0.0 0.01 1:-11.0 4:-4.0 5:-9.0 6:-4.0 8:4.0 9:-3.0 10:-4.0 11:-4.0 14:-3.0 15:-3.0 16:-6.0 19:-2.0 20:-6.0 21:-22.0 22:0.5151515151515151 23:2.0 24:-4.0 25:-22.0 26:-7.0 28:4.0 29:-4.0 30:-7.0 
-0.0 0.0 0.0 0.0 0.01 1:-11.0 4:-4.0 5:-9.0 6:-4.0 8:4.0 9:-3.0 10:-4.0 11:-4.0 14:-3.0 15:-4.0 16:-6.0 19:-2.0 20:-6.0 21:-10.0 22:0.575 23:2.0 24:-3.0 25:-10.0 26:-7.0 28:4.0 29:-4.0 30:-7.0 
-0.0 0.0 0.0 0.0 0.01 1:-12.0 4:-4.0 5:-10.0 6:-17.0 8:4.0 9:-4.0 10:-17.0 11:-2.0 14:-1.0 15:-2.0 16:-22.0 19:-3.0 20:-22.0 26:-7.0 28:4.0 29:-4.0 30:-7.0 
-0.0 0.0 0.01 0.0 0.0 1:-10.0 2:0.47474747474747475 3:2.0 4:-4.0 5:-8.0 6:-3.0 7:0.8833333333333334 8:6.0 9:-2.0 10:-3.0 11:-4.0 14:-3.0 15:-3.0 16:-8.0 17:0.7575757575757575 18:6.0 19:-3.0 20:-8.0 26:-5.0 29:-3.0 30:-5.0 
-0.0 0.0 0.0 0.0 0.01 1:-11.0 4:-4.0 5:-9.0 6:-4.0 8:4.0 9:-3.0 10:-4.0 11:-4.0 14:-3.0 15:-3.0 16:-10.0 17:0.5772727272727273 18:2.0 19:-2.0 20:-10.0 26:-3.0 28:4.0 29:-3.0 30:-3.0 
-0.0 0.0 0.0 0.0 0.01 1:-12.0 4:-4.0 5:-10.0 6:-4.0 8:4.0 9:-3.0 10:-4.0 11:-2.0 14:-1.0 15:-2.0 16:-14.0 19:-3.0 20:-14.0 21:-4.0 22:0.5833333333333334 23:2.0 24:-2.0 25:-4.0 26:-7.0 28:4.0 29:-4.0 30:-7.0 
-0.0 0.0 0.0 0.0 0.01 1:-11.0 4:-4.0 5:-9.0 6:-4.0 8:4.0 9:-3.0 10:-4.0 11:-2.0 14:-1.0 15:-2.0 16:-71.0 18:2.0 19:-4.0 20:-70.0 26:-7.0 28:4.0 29:-4.0 30:-7.0 
-0.0 0.0 0.0 0.0 0.01 1:-11.0 4:-4.0 5:-9.0 6:-9.0 8:4.0 9:-4.0 10:-9.0 11:-4.0 14:-2.0 15:-4.0 16:-11.0 19:-4.0 20:-11.0 21:-5.0 22:0.5666666666666667 23:2.0 24:-3.0 25:-5.0 26:-7.0 28:4.0 29:-4.0 30:-7.0 
-0.0 0.0 0.0 0.0 0.01 1:-11.0 4:-4.0 5:-9.0 6:-7.0 8:4.0 9:-4.0 10:-7.0 11:-4.0 14:-3.0 15:-4.0 16:-8.0 19:-2.0 20:-8.0 21:-13.0 24:-4.0 25:-12.0 26:-8.0 28:2.0 29:-4.0 30:-8.0 
-0.0 0.0 0.0 0.0 0.01 1:-11.0 4:-4.0 5:-9.0 6:-3.0 8:4.0 9:-3.0 10:-3.0 11:-4.0 14:-2.0 15:-4.0 16:-8.0 19:-4.0 20:-7.0 26:-7.0 28:4.0 29:-4.0 30:-7.0 
-0.0 0.0 0.0 0.0 0.01 1:-11.0 4:-4.0 5:-9.0 6:-9.0 8:4.0 9:-4.0 10:-9.0 11:-6.0 12:0.5928571428571427 13:2.0 14:-1.0 15:-6.0 16:-5.0 19:-3.0 20:-5.0 21:-9.0 23:2.0 24:-4.0 25:-9.0 26:-14.0 28:4.0 29:-4.0 30:-14.0 
-0.0 0.0 0.0 0.0 0.01 1:-9.0 4:-4.0 5:-7.0 6:-4.0 8:4.0 9:-3.0 10:-4.0 11:-4.0 14:-2.0 15:-4.0 16:-12.0 19:-4.0 20:-12.0 26:-7.0 28:4.0 29:-4.0 30:-7.0 
-0.0 0.0 0.0 0.0 0.01 1:-11.0 4:-4.0 5:-9.0 6:-5.0 8:4.0 9:-3.0 10:-5.0 11:-3.0 14:-2.0 15:-3.0 16:-3.0 17:0.625 18:2.0 19:-1.0 20:-3.0 21:-12.0 23:2.0 24:-4.0 25:-12.0 26:-15.0 28:4.0 29:-4.0 30:-15.0 
-0.0 0.0 0.0 0.0 0.01 1:-11.0 4:-4.0 5:-9.0 6:-9.0 8:4.0 9:-4.0 10:-9.0 11:-6.0 14:-3.0 15:-6.0 16:-7.0 19:-4.0 20:-7.0 21:-5.0 22:0.5666666666666667 23:2.0 24:-3.0 25:-5.0 26:-7.0 28:4.0 29:-4.0 30:-7.0 
-0.0 0.0 0.0 0.0 0.01 1:-11.0 4:-4.0 5:-9.0 6:-4.0 8:4.0 9:-3.0 10:-4.0 11:-4.0 14:-2.0 15:-4.0 16:-8.0 19:-4.0 20:-8.0 26:-14.0 28:4.0 29:-4.0 30:-14.0 
-0.0 0.0 0.0 0.0 0.01 1:-11.0 4:-4.0 5:-9.0 6:-4.0 8:4.0 9:-3.0 10:-4.0 11:-5.0 14:-2.0 15:-5.0 16:-10.0 18:2.0 19:-4.0 20:-10.0 21:-6.0 24:-4.0 25:-6.0 26:-13.0 28:4.0 29:-4.0 30:-13.0 
-0.0 0.0 0.0 0.0 0.01 1:-9.0 4:-4.0 5:-7.0 6:-4.0 8:4.0 9:-3.0 10:-4.0 11:-4.0 14:-3.0 15:-3.0 16:-13.0 18:2.0 19:-2.0 20:-13.0 21:-5.0 22:0.5666666666666667 23:2.0 24:-3.0 25:-5.0 26:-13.0 28:4.0 29:-4.0 30:-13.0 
-0.0 0.0 0.0 0.0 0.01 1:-11.0 4:-4.0 5:-9.0 6:-4.0 8:4.0 9:-3.0 10:-4.0 11:-4.0 14:-2.0 15:-4.0 16:-8.0 19:-4.0 20:-8.0 26:-7.0 28:4.0 29:-4.0 30:-7.0 
-0.0 0.0 0.0 0.0 0.01 1:-11.0 4:-4.0 5:-9.0 6:-4.0 8:4.0 9:-3.0 10:-4.0 11:-5.0 14:-2.0 15:-5.0 16:-20.0 18:2.0 19:-4.0 20:-20.0 26:-2.0 28:4.0 29:-3.0 30:-2.0 
-0.0 0.0 0.0 0.0 0.01 1:-11.0 4:-4.0 5:-9.0 6:-3.0 7:0.84 8:4.0 9:-2.0 10:-3.0 11:-4.0 14:-3.0 15:-4.0 16:-3.0 17:0.5833333333333334 18:2.0 19:-1.0 20:-3.0 21:-12.0 24:-4.0 25:-11.0 26:-15.0 27:0.5208333333333334 28:2.0 29:-4.0 30:-15.0 
-0.0 0.0 0.0 0.0 0.01 1:-11.0 4:-4.0 5:-9.0 6:-3.0 8:4.0 9:-3.0 10:-3.0 11:-4.0 14:-3.0 15:-4.0 16:-4.0 19:-2.0 20:-4.0 21:-11.0 22:0.575 23:2.0 24:-3.0 25:-10.0 26:-14.0 28:4.0 29:-4.0 30:-14.0 
-0.0 0.0 0.0 0.0 0.01 1:-9.0 4:-4.0 5:-7.0 6:-4.0 8:4.0 9:-3.0 10:-4.0 11:-4.0 14:-3.0 15:-3.0 16:-6.0 19:-2.0 20:-6.0 21:-5.0 22:0.5666666666666667 23:2.0 24:-3.0 25:-5.0 26:-7.0 28:4.0 29:-4.0 30:-7.0 
-0.0 0.0 0.0 0.0 0.01 1:-9.0 4:-4.0 5:-7.0 6:-4.0 8:4.0 9:-3.0 10:-4.0 11:-7.0 13:2.0 14:-3.0 15:-7.0 16:-9.0 19:-4.0 20:-8.0 21:-8.0 23:2.0 24:-4.0 25:-7.0 26:-7.0 28:4.0 29:-4.0 30:-7.0 
-0.0 0.0 0.0 0.0 0.01 1:-12.0 4:-4.0 5:-10.0 6:-4.0 8:4.0 9:-3.0 10:-4.0 11:-2.0 14:-1.0 15:-2.0 16:-4.0 19:-2.0 20:-4.0 21:-10.0 23:2.0 24:-4.0 25:-10.0 26:-15.0 28:4.0 29:-4.0 30:-15.0 
-0.0 0.0 0.0 0.0 0.01 1:-11.0 4:-4.0 5:-9.0 6:-4.0 8:4.0 9:-3.0 10:-4.0 11:-5.0 14:-2.0 15:-5.0 16:-8.0 18:2.0 19:-4.0 20:-8.0 26:-2.0 28:4.0 29:-3.0 30:-2.0 
-0.0 0.0 0.0 0.0 0.01 1:-11.0 4:-4.0 5:-9.0 6:-4.0 8:4.0 9:-3.0 10:-4.0 11:-4.0 14:-3.0 15:-3.0 16:-8.0 18:2.0 19:-4.0 20:-8.0 26:-7.0 28:4.0 29:-4.0 30:-7.0 
-0.0 0.0 0.0 0.0 0.01 1:-9.0 4:-4.0 5:-7.0 6:-4.0 8:4.0 9:-3.0 10:-4.0 11:-4.0 14:-3.0 15:-3.0 16:-4.0 19:-3.0 20:-3.0 21:-11.0 22:0.575 23:2.0 24:-3.0 25:-11.0 26:-7.0 28:4.0 29:-4.0 30:-7.0 
-0.0 0.0 0.0 0.0 0.01 1:-11.0 4:-4.0 5:-9.0 6:-4.0 8:4.0 9:-3.0 10:-4.0 11:-7.0 13:2.0 14:-3.0 15:-7.0 16:-17.0 18:2.0 19:-4.0 20:-17.0 21:-5.0 22:0.5666666666666667 23:2.0 24:-3.0 25:-5.0 26:-2.0 28:4.0 29:-3.0 30:-2.0 
-0.0 0.0 0.0 0.0 0.01 1:-11.0 4:-4.0 5:-9.0 6:-8.0 8:4.0 9:-4.0 10:-8.0 11:-7.0 13:2.0 14:-4.0 15:-7.0 16:-10.0 18:2.0 19:-4.0 20:-10.0 21:-6.0 24:-4.0 25:-6.0 26:-14.0 28:4.0 29:-4.0 30:-14.0 
-0.0 0.0 0.009580836415964234 0.0 0.0 1:-9.0 2:0.1 3:3.0 4:-3.0 5:-7.0 6:-7.0 7:0.7925925925925926 8:4.0 9:-3.0 10:-7.0 11:-4.0 14:-3.0 15:-4.0 16:-48.0 18:3.0 19:-4.0 20:-47.0 21:-12.0 24:-4.0 25:-11.0 26:-16.0 29:-4.0 30:-16.0 
-0.0 0.0 0.0 0.0 0.01 1:-11.0 4:-4.0 5:-9.0 6:-7.0 8:4.0 9:-4.0 10:-7.0 11:-4.0 14:-3.0 15:-4.0 16:-49.0 18:2.0 19:-4.0 20:-48.0 21:-11.0 22:0.575 23:2.0 24:-3.0 25:-10.0 26:-14.0 28:4.0 29:-4.0 30:-14.0 
-0.0 0.0 0.0 0.01 0.01 1:-11.0 4:-4.0 5:-9.0 6:-4.0 8:4.0 9:-3.0 10:-4.0 11:-2.0 14:-1.0 15:-2.0 16:-8.0 19:-3.0 20:-8.0 21:-14.0 23:3.0 24:-3.0 25:-11.0 26:-14.0 28:4.0 29:-4.0 30:-14.0 
-0.0 0.0 0.0 0.0 0.01 1:-11.0 4:-4.0 5:-9.0 6:-4.0 8:4.0 9:-3.0 10:-4.0 11:-4.0 14:-2.0 15:-4.0 16:-8.0 19:-4.0 20:-8.0 26:-14.0 28:4.0 29:-4.0 30:-14.0 
-0.0 0.0 0.0 0.0 0.01 1:-11.0 4:-4.0 5:-9.0 6:-8.0 8:4.0 9:-4.0 10:-8.0 11:-4.0 14:-2.0 15:-4.0 16:-8.0 19:-4.0 20:-7.0 21:-6.0 24:-4.0 25:-6.0 26:-7.0 28:4.0 29:-4.0 30:-7.0 
-0.0 0.0 0.0 0.0 0.01 1:-11.0 4:-4.0 5:-9.0 6:-4.0 8:4.0 9:-3.0 10:-4.0 11:-4.0 14:-3.0 15:-3.0 16:-11.0 19:-4.0 20:-10.0 21:-5.0 22:0.5666666666666667 23:2.0 24:-3.0 25:-5.0 26:-2.0 28:4.0 29:-3.0 30:-2.0 
-0.0 0.0 0.0 0.0 0.01 1:-11.0 4:-4.0 5:-9.0 6:-4.0 8:4.0 9:-3.0 10:-4.0 11:-7.0 13:2.0 14:-3.0 15:-7.0 16:-11.0 18:2.0 19:-4.0 20:-11.0 21:-10.0 23:2.0 24:-4.0 25:-10.0 26:-2.0 28:4.0 29:-3.0 30:-2.0 
-0.0 0.0 0.0 0.0 0.01 1:-11.0 4:-4.0 5:-9.0 6:-4.0 8:4.0 9:-3.0 10:-4.0 11:-2.0 14:-1.0 15:-2.0 16:-2.0 19:-1.0 20:-2.0 21:-14.0 22:0.5238095238095238 23:2.0 24:-4.0 25:-13.0 26:-14.0 28:4.0 29:-4.0 30:-14.0 
-0.0 0.0 0.01 0.0 0.0 1:-10.0 2:0.47474747474747475 3:2.0 4:-4.0 5:-8.0 6:-3.0 7:0.8833333333333334 8:6.0 9:-2.0 10:-3.0 11:-4.0 14:-3.0 15:-4.0 16:-8.0 18:6.0 19:-1.0 20:-8.0 26:-10.0 29:-4.0 30:-10.0 
-0.0 0.0 0.0 0.0 0.01 1:-12.0 4:-4.0 5:-10.0 6:-3.0 8:4.0 9:-3.0 10:-3.0 11:-4.0 14:-3.0 15:-4.0 16:-6.0 19:-4.0 20:-6.0 21:-3.0 22:0.625 23:2.0 24:-1.0 25:-3.0 26:-2.0 28:4.0 29:-3.0 30:-2.0 
-0.0 0.0 0.0 0.0 0.01 1:-10.0 2:0.1 3:3.0 4:-3.0 5:-8.0 6:-7.0 7:0.7925925925925926 8:4.0 9:-3.0 10:-7.0 11:-2.0 14:-2.0 15:-2.0 16:-12.0 18:2.0 19:-4.0 20:-12.0 21:-14.0 24:-4.0 25:-14.0 26:-12.0 28:4.0 29:-4.0 30:-12.0 
-0.0 0.0 0.0 0.0 0.01 1:-12.0 4:-4.0 5:-10.0 6:-7.0 8:4.0 9:-4.0 10:-7.0 11:-2.0 14:-1.0 15:-2.0 16:-13.0 18:2.0 19:-4.0 20:-13.0 21:-14.0 24:-4.0 25:-14.0 26:-12.0 28:4.0 29:-4.0 30:-12.0 
-0.0 0.0 0.0 0.0 0.01 1:-11.0 4:-4.0 5:-9.0 6:-4.0 8:4.0 9:-3.0 10:-4.0 11:-4.0 14:-2.0 15:-4.0 16:-8.0 19:-4.0 20:-8.0 26:-7.0 28:4.0 29:-4.0 30:-7.0 
-0.0 0.0 0.0 0.0 0.01 1:-11.0 4:-4.0 5:-9.0 6:-4.0 8:4.0 9:-3.0 10:-4.0 11:-4.0 14:-3.0 15:-3.0 16:-15.0 18:2.0 19:-4.0 20:-15.0 21:-5.0 22:0.5666666666666667 23:2.0 24:-3.0 25:-5.0 26:-13.0 28:4.0 29:-4.0 30:-13.0 
-0.0 0.0 0.0 0.0 0.01 1:-11.0 4:-4.0 5:-9.0 6:-4.0 8:4.0 9:-3.0 10:-4.0 11:-2.0 14:-1.0 15:-2.0 16:-4.0 19:-2.0 20:-4.0 26:-13.0 28:4.0 29:-4.0 30:-13.0 
-0.0 0.0 0.0 0.0 0.01 1:-11.0 4:-4.0 5:-9.0 6:-4.0 8:4.0 9:-3.0 10:-4.0 11:-4.0 14:-3.0 15:-3.0 16:-13.0 19:-4.0 20:-13.0 21:-5.0 22:0.5666666666666667 23:2.0 24:-3.0 25:-5.0 26:-13.0 28:4.0 29:-4.0 30:-13.0 
-0.0 0.0 0.0 0.0 0.01 1:-11.0 4:-4.0 5:-9.0 6:-9.0 8:4.0 9:-4.0 10:-9.0 11:-3.0 14:-2.0 15:-3.0 16:-7.0 17:0.5874999999999999 18:2.0 19:-3.0 20:-5.0 21:-5.0 22:0.5666666666666667 23:2.0 24:-3.0 25:-5.0 26:-14.0 28:4.0 29:-4.0 30:-14.0 
-0.0 0.0 0.0 0.0 0.01 1:-11.0 4:-4.0 5:-9.0 6:-7.0 7:0.7375 8:2.0 9:-3.0 10:-7.0 11:-6.0 14:-3.0 15:-6.0 16:-15.0 19:-4.0 20:-15.0 21:-11.0 24:-4.0 25:-11.0 26:-9.0 29:-4.0 30:-9.0 
-0.0 0.0 0.0 0.0 0.01 1:-11.0 4:-4.0 5:-9.0 6:-6.0 8:4.0 9:-4.0 10:-6.0 11:-6.0 14:-3.0 15:-6.0 16:-15.0 18:2.0 19:-4.0 20:-15.0 21:-10.0 23:2.0 24:-4.0 25:-10.0 26:-7.0 28:4.0 29:-4.0 30:-7.0 
-0.0 0.0 0.01 0.0017788024221259285 0.0 1:-10.0 2:0.7272727272727272 3:2.0 4:-3.0 5:-8.0 6:-8.0 7:0.7333333333333334 8:2.0 9:-3.0 10:-8.0 11:-7.0 14:-3.0 15:-7.0 16:-28.0 19:-4.0 20:-27.0 21:-30.0 24:-4.0 25:-28.0 26:-9.0 29:-4.0 30:-9.0 
-0.0 0.0 0.005297597152663632 0.0 0.0 1:-11.0 4:-4.0 5:-9.0 6:-7.0 8:4.0 9:-4.0 10:-7.0 11:-6.0 12:0.5928571428571427 13:2.0 14:-2.0 15:-6.0 16:-27.0 17:0.5607142857142857 18:2.0 19:-3.0 20:-26.0 21:-29.0 23:2.0 24:-4.0 25:-27.0 26:-8.0 28:2.0 29:-4.0 30:-8.0 
-0.0054614676325806825 0.0 0.0 0.0 0.0 1:-9.0 2:0.692929292929293 3:4.0 4:-3.0 5:-7.0 6:-3.0 7:0.8833333333333334 8:6.0 9:-2.0 10:-3.0 11:-3.0 14:-2.0 15:-3.0 16:-13.0 18:2.0 19:-4.0 20:-13.0 26:-12.0 29:-4.0 30:-12.0 
-0.0 0.0 0.0 0.0 0.01 1:-11.0 4:-4.0 5:-9.0 6:-10.0 8:4.0 9:-4.0 10:-10.0 11:-7.0 13:2.0 14:-3.0 15:-7.0 16:-27.0 18:2.0 19:-4.0 20:-26.0 21:-8.0 24:-4.0 25:-5.0 26:-7.0 28:4.0 29:-4.0 30:-7.0 
-0.01 0.0 0.0 0.0 0.0 1:-8.0 2:0.5833333333333334 3:2.0 4:-3.0 5:-6.0 6:-3.0 7:0.84 8:4.0 9:-2.0 10:-3.0 11:-2.0 14:-2.0 15:-2.0 16:-19.0 19:-4.0 20:-19.0 21:-5.0 24:-3.0 25:-5.0 26:-9.0 29:-4.0 30:-9.0 
-0.0 0.0 0.0 0.0 0.01 1:-9.0 4:-4.0 5:-7.0 6:-3.0 8:4.0 9:-3.0 10:-3.0 11:-2.0 14:-1.0 15:-2.0 16:-19.0 18:2.0 19:-3.0 20:-19.0 21:-5.0 22:0.5666666666666667 23:2.0 24:-3.0 25:-5.0 26:-7.0 28:4.0 29:-4.0 30:-7.0 
-0.0 0.0 0.0 0.0 0.01 1:-11.0 4:-4.0 5:-9.0 6:-9.0 8:4.0 9:-4.0 10:-9.0 11:-6.0 14:-3.0 15:-6.0 16:-7.0 19:-4.0 20:-7.0 21:-5.0 22:0.5666666666666667 23:2.0 24:-3.0 25:-5.0 26:-7.0 28:4.0 29:-4.0 30:-7.0 
-0.0 0.0 0.0 0.0 0.01 1:-11.0 4:-4.0 5:-9.0 6:-4.0 8:4.0 9:-3.0 10:-4.0 11:-4.0 14:-2.0 15:-4.0 16:-8.0 19:-4.0 20:-8.0 21:-5.0 22:0.5666666666666667 23:2.0 24:-3.0 25:-5.0 26:-14.0 28:4.0 29:-4.0 30:-14.0 
-0.0 0.0 0.0 0.0 0.01 1:-11.0 4:-4.0 5:-9.0 6:-4.0 8:4.0 9:-3.0 10:-4.0 11:-7.0 12:0.5928571428571427 13:2.0 14:-1.0 15:-7.0 16:-9.0 19:-2.0 20:-9.0 26:-7.0 28:4.0 29:-4.0 30:-7.0 
-0.0 0.0 0.0 0.0 0.01 1:-11.0 4:-4.0 5:-9.0 6:-4.0 8:4.0 9:-3.0 10:-4.0 11:-2.0 14:-1.0 15:-2.0 16:-9.0 19:-3.0 20:-9.0 26:-7.0 28:4.0 29:-4.0 30:-7.0 
-0.0 0.004243585861924103 0.01 0.0 0.0 1:-10.0 2:0.7272727272727272 3:2.0 4:-3.0 5:-8.0 6:-3.0 7:0.775 8:2.0 9:-2.0 10:-3.0 11:-2.0 14:-2.0 15:-2.0 16:-8.0 17:0.7333333333333334 18:2.0 19:-2.0 20:-8.0 26:-10.0 29:-4.0 30:-10.0 
-0.0 0.0 0.0 0.0 0.01 1:-10.0 2:0.5303030303030303 3:2.0 4:-4.0 5:-8.0 6:-16.0 7:0.762962962962963 8:4.0 9:-3.0 10:-16.0 11:-4.0 14:-2.0 15:-4.0 16:-8.0 19:-4.0 20:-8.0 21:-6.0 24:-4.0 25:-6.0 26:-12.0 27:0.5277777777777778 28:2.0 29:-4.0 30:-12.0 
-0.0 0.0 0.0 0.0 0.01 1:-11.0 4:-4.0 5:-9.0 6:-16.0 8:4.0 9:-4.0 10:-16.0 11:-4.0 14:-2.0 15:-4.0 16:-8.0 19:-4.0 20:-8.0 21:-6.0 24:-4.0 25:-6.0 26:-10.0 28:4.0 29:-4.0 30:-10.0 
-0.0 0.0 0.0 0.0 0.01 1:-11.0 4:-4.0 5:-9.0 6:-5.0 8:4.0 9:-3.0 10:-5.0 11:-3.0 14:-2.0 15:-3.0 16:-3.0 17:0.625 18:2.0 19:-1.0 20:-3.0 21:-12.0 23:2.0 24:-4.0 25:-12.0 26:-14.0 28:4.0 29:-4.0 30:-14.0 
-0.0 0.0 0.0 0.0 0.002539367135984234 1:-11.0 4:-4.0 5:-9.0 6:-4.0 8:4.0 9:-3.0 10:-4.0 11:-7.0 13:2.0 14:-4.0 15:-7.0 16:-8.0 19:-3.0 20:-6.0 26:-14.0 28:2.0 29:-4.0 30:-14.0 
-0.0 0.0 0.0 0.0 0.01 1:-11.0 4:-4.0 5:-9.0 6:-5.0 8:4.0 9:-3.0 10:-5.0 11:-4.0 14:-3.0 15:-3.0 16:-5.0 17:0.5999999999999999 18:2.0 19:-1.0 20:-5.0 21:-5.0 22:0.5666666666666667 23:2.0 24:-3.0 25:-5.0 26:-8.0 28:4.0 29:-4.0 30:-8.0 
-0.0 0.0 0.0 0.0 0.01 1:-11.0 4:-4.0 5:-9.0 6:-9.0 8:4.0 9:-4.0 10:-9.0 11:-4.0 14:-2.0 15:-4.0 16:-11.0 19:-4.0 20:-11.0 21:-5.0 22:0.5666666666666667 23:2.0 24:-3.0 25:-5.0 26:-7.0 28:4.0 29:-4.0 30:-7.0 
-0.0 0.0 0.0 0.0 0.01 1:-11.0 4:-4.0 5:-9.0 6:-10.0 8:4.0 9:-4.0 10:-10.0 11:-4.0 14:-3.0 15:-4.0 16:-7.0 18:2.0 19:-2.0 20:-7.0 21:-10.0 24:-4.0 25:-10.0 26:-7.0 28:4.0 29:-4.0 30:-7.0 
-0.0 0.0 0.0 0.0 0.01 1:-11.0 4:-4.0 5:-9.0 6:-4.0 8:4.0 9:-3.0 10:-4.0 11:-2.0 14:-1.0 15:-2.0 16:-2.0 19:-1.0 20:-2.0 26:-14.0 28:4.0 29:-4.0 30:-14.0 
-0.0 0.0 0.01 0.0 0.0031228866996932487 1:-11.0 4:-4.0 5:-9.0 6:-3.0 7:0.775 8:2.0 9:-2.0 10:-3.0 11:-7.0 14:-4.0 15:-7.0 16:-13.0 18:2.0 19:-4.0 20:-13.0 26:-4.0 29:-3.0 30:-4.0 
-0.0 0.0 0.0 0.0 0.01 1:-11.0 4:-4.0 5:-9.0 6:-2.0 8:4.0 9:-3.0 10:-2.0 11:-7.0 13:2.0 14:-4.0 15:-7.0 16:-13.0 18:2.0 19:-3.0 20:-13.0 26:-2.0 28:4.0 29:-3.0 30:-2.0 
-0.0 0.0 0.0 0.0 0.01 1:-11.0 4:-4.0 5:-9.0 6:-4.0 8:4.0 9:-3.0 10:-4.0 11:-2.0 14:-1.0 15:-2.0 16:-2.0 19:-1.0 20:-2.0 21:-14.0 22:0.5238095238095238 23:2.0 24:-4.0 25:-13.0 26:-13.0 28:4.0 29:-4.0 30:-13.0 
-0.0 0.0 0.0 0.0 0.01 1:-11.0 4:-4.0 5:-9.0 6:-9.0 8:4.0 9:-4.0 10:-9.0 11:-6.0 14:-3.0 15:-6.0 16:-7.0 19:-4.0 20:-7.0 21:-5.0 22:0.5666666666666667 23:2.0 24:-3.0 25:-5.0 26:-7.0 28:4.0 29:-4.0 30:-7.0 
-0.01 0.0 0.01 0.0 0.0 1:-8.0 2:0.7333333333333334 3:2.0 4:-3.0 5:-6.0 6:-3.0 7:0.775 8:2.0 9:-2.0 10:-3.0 11:-6.0 14:-3.0 15:-6.0 16:-4.0 18:2.0 19:-2.0 20:-4.0 21:-10.0 24:-4.0 25:-10.0 26:-15.0 29:-4.0 30:-15.0 
-0.0 0.0 0.0 0.0 0.01 1:-9.0 4:-4.0 5:-7.0 6:-2.0 8:4.0 9:-3.0 10:-2.0 11:-6.0 14:-3.0 15:-6.0 16:-5.0 19:-1.0 20:-5.0 21:-9.0 23:2.0 24:-4.0 25:-9.0 26:-14.0 28:2.0 29:-4.0 30:-14.0 
-0.0 0.0 0.0 0.0 0.01 1:-11.0 4:-4.0 5:-9.0 6:-9.0 8:4.0 9:-4.0 10:-9.0 11:-6.0 14:-3.0 15:-6.0 16:-7.0 19:-4.0 20:-7.0 21:-5.0 22:0.5666666666666667 23:2.0 24:-3.0 25:-5.0 26:-7.0 28:4.0 29:-4.0 30:-7.0 
-0.005562694279776082 0.0 0.01 0.0022075244546594344 0.01 1:-10.0 2:0.7272727272727272 3:2.0 4:-3.0 5:-8.0 6:-16.0 7:0.7176470588235293 8:2.0 9:-3.0 10:-16.0 11:-7.0 14:-4.0 15:-7.0 16:-8.0 19:-3.0 20:-6.0 21:-6.0 24:-4.0 25:-6.0 26:-9.0 29:-4.0 30:-9.0 
-0.0 0.0 0.0 0.0 0.01 1:-11.0 4:-4.0 5:-9.0 6:-15.0 8:4.0 9:-4.0 10:-15.0 11:-7.0 14:-4.0 15:-7.0 16:-8.0 19:-3.0 20:-6.0 21:-6.0 24:-4.0 25:-6.0 26:-8.0 28:2.0 29:-4.0 30:-8.0 
-0.0 0.0 0.0 0.0 0.01 1:-11.0 4:-4.0 5:-9.0 6:-4.0 8:4.0 9:-3.0 10:-4.0 11:-2.0 14:-1.0 15:-2.0 16:-9.0 19:-4.0 20:-9.0 21:-13.0 24:-4.0 25:-13.0 26:-2.0 28:4.0 29:-3.0 30:-2.0 
-0.0 0.0 0.0 0.0 0.01 1:-9.0 4:-4.0 5:-7.0 6:-4.0 8:4.0 9:-3.0 10:-4.0 11:-4.0 14:-2.0 15:-4.0 16:-4.0 19:-2.0 20:-4.0 21:-5.0 24:-2.0 25:-5.0 26:-7.0 28:4.0 29:-4.0 30:-7.0 
-0.0 0.0063357401780672435 0.0 0.0 0.0 1:-11.0 4:-4.0 5:-9.0 6:-2.0 8:4.0 9:-3.0 10:-2.0 11:-6.0 12:0.5928571428571427 13:2.0 14:-2.0 15:-6.0 21:-6.0 24:-4.0 25:-6.0 26:-10.0 29:-4.0 30:-10.0 
-0.0 0.0 0.0 0.0 0.01 1:-11.0 4:-4.0 5:-9.0 6:-9.0 8:4.0 9:-4.0 10:-9.0 11:-7.0 13:2.0 14:-3.0 15:-7.0 16:-28.0 18:2.0 19:-4.0 20:-27.0 21:-5.0 22:0.5666666666666667 23:2.0 24:-3.0 25:-5.0 26:-7.0 28:4.0 29:-4.0 30:-7.0 
-0.0 0.0 0.0 0.0 0.01 1:-9.0 4:-4.0 5:-7.0 6:-4.0 8:4.0 9:-3.0 10:-4.0 11:-4.0 14:-3.0 15:-4.0 16:-7.0 18:2.0 19:-2.0 20:-7.0 21:-14.0 23:2.0 24:-3.0 25:-14.0 26:-14.0 28:4.0 29:-4.0 30:-14.0 
-0.0 0.0 0.0 0.0 0.01 1:-11.0 4:-4.0 5:-9.0 6:-4.0 8:4.0 9:-3.0 10:-4.0 11:-4.0 14:-2.0 15:-4.0 16:-3.0 19:-2.0 20:-3.0 21:-6.0 24:-4.0 25:-6.0 26:-16.0 28:2.0 29:-4.0 30:-16.0 
-0.0 0.0 0.0 0.0 0.01 1:-11.0 4:-4.0 5:-9.0 6:-4.0 8:4.0 9:-3.0 10:-4.0 11:-2.0 14:-1.0 15:-2.0 16:-8.0 19:-3.0 20:-8.0 21:-5.0 22:0.5666666666666667 23:2.0 24:-3.0 25:-5.0 26:-14.0 28:4.0 29:-4.0 30:-14.0 
-0.0 0.0 0.0 0.0 0.01 1:-11.0 4:-4.0 5:-9.0 6:-4.0 8:4.0 9:-3.0 10:-4.0 11:-4.0 14:-2.0 15:-4.0 16:-11.0 19:-4.0 20:-11.0 26:-7.0 28:4.0 29:-4.0 30:-7.0 
-0.0 0.0 0.0 0.0 0.01 1:-11.0 4:-4.0 5:-9.0 6:-9.0 8:4.0 9:-4.0 10:-9.0 11:-5.0 14:-2.0 15:-5.0 16:-6.0 18:2.0 19:-4.0 20:-6.0 21:-5.0 24:-2.0 25:-5.0 26:-7.0 28:4.0 29:-4.0 30:-7.0 
-0.0 0.0 0.0 0.0 0.01 1:-11.0 4:-4.0 5:-9.0 6:-5.0 8:4.0 9:-3.0 10:-5.0 11:-2.0 14:-1.0 15:-2.0 16:-4.0 19:-3.0 20:-4.0 21:-14.0 24:-4.0 25:-12.0 26:-14.0 28:4.0 29:-4.0 30:-14.0 
-0.0 0.0 0.0 0.0 0.01 1:-11.0 4:-4.0 5:-9.0 6:-4.0 8:4.0 9:-3.0 10:-4.0 11:-4.0 14:-2.0 15:-4.0 16:-8.0 19:-4.0 20:-8.0 21:-32.0 22:0.5104166666666666 23:2.0 24:-4.0 25:-29.0 26:-7.0 28:4.0 29:-4.0 30:-7.0 
-0.0 0.0 0.0 0.0 0.01 1:-11.0 4:-4.0 5:-9.0 6:-4.0 8:4.0 9:-3.0 10:-4.0 11:-4.0 14:-3.0 15:-4.0 16:-19.0 19:-4.0 20:-19.0 21:-3.0 22:0.625 23:2.0 24:-1.0 25:-3.0 26:-13.0 28:4.0 29:-4.0 30:-13.0 
-0.0 0.01 0.01 0.0 0.0 1:-10.0 2:0.7272727272727272 3:2.0 4:-3.0 5:-8.0 6:-3.0 7:0.775 8:2.0 9:-2.0 10:-3.0 11:-2.0 14:-2.0 15:-2.0 16:-7.0 17:0.7375 18:2.0 19:-2.0 20:-7.0 21:-6.0 24:-4.0 25:-6.0 26:-12.0 29:-4.0 30:-12.0 
-0.009251548292958961 0.0 0.0 0.0 0.00601682117059889 1:-10.0 2:0.7272727272727272 3:2.0 4:-3.0 5:-8.0 6:-3.0 7:0.775 8:2.0 9:-2.0 10:-3.0 11:-16.0 14:-4.0 15:-13.0 16:-18.0 19:-4.0 20:-18.0 21:-5.0 24:-3.0 25:-5.0 
-0.0 0.0 0.0 0.0 0.01 1:-11.0 4:-4.0 5:-9.0 6:-4.0 8:4.0 9:-3.0 10:-4.0 11:-4.0 14:-3.0 15:-3.0 16:-4.0 19:-3.0 20:-3.0 21:-5.0 22:0.5666666666666667 23:2.0 24:-3.0 25:-5.0 26:-7.0 28:4.0 29:-4.0 30:-7.0 
-0.0 0.0 0.0 0.0 0.01 1:-11.0 4:-4.0 5:-9.0 6:-4.0 8:4.0 9:-3.0 10:-4.0 11:-7.0 13:2.0 14:-3.0 15:-7.0 16:-9.0 19:-4.0 20:-8.0 26:-7.0 28:4.0 29:-4.0 30:-7.0 
-0.0 0.0 0.0 0.0 0.01 1:-9.0 4:-4.0 5:-7.0 6:-4.0 8:4.0 9:-3.0 10:-4.0 11:-6.0 14:-3.0 15:-6.0 16:-6.0 19:-3.0 20:-6.0 21:-5.0 22:0.5666666666666667 23:2.0 24:-3.0 25:-5.0 26:-7.0 28:4.0 29:-4.0 30:-7.0 
-0.0 0.0 0.0 0.0 0.01 1:-11.0 4:-4.0 5:-9.0 6:-9.0 8:4.0 9:-4.0 10:-9.0 11:-3.0 14:-2.0 15:-3.0 16:-3.0 17:0.625 18:2.0 20:-3.0 21:-5.0 22:0.5666666666666667 23:2.0 24:-3.0 25:-5.0 26:-14.0 28:4.0 29:-4.0 30:-14.0 
-0.0 0.0 0.0 0.0 0.01 1:-11.0 4:-4.0 5:-9.0 6:-5.0 8:4.0 9:-3.0 10:-5.0 11:-4.0 14:-3.0 15:-3.0 16:-4.0 19:-3.0 20:-3.0 21:-10.0 23:2.0 24:-4.0 25:-10.0 26:-7.0 28:4.0 29:-4.0 30:-7.0 
-0.0 0.0 0.0 0.0 0.01 1:-11.0 4:-4.0 5:-9.0 6:-3.0 7:0.84 8:4.0 9:-2.0 10:-3.0 11:-5.0 14:-3.0 15:-5.0 16:-5.0 19:-3.0 20:-5.0 26:-12.0 27:0.5277777777777778 28:2.0 29:-4.0 30:-12.0 
-0.0 0.0 0.0 0.0 0.01 1:-11.0 4:-4.0 5:-9.0 6:-3.0 8:4.0 9:-3.0 10:-3.0 11:-5.0 14:-2.0 15:-5.0 16:-4.0 17:0.5666666666666667 18:2.0 19:-2.0 20:-4.0 26:-10.0 28:4.0 29:-4.0 30:-10.0 
-0.0 0.0 0.0 0.0 0.01 1:-11.0 4:-4.0 5:-9.0 6:-4.0 8:4.0 9:-3.0 10:-4.0 11:-4.0 14:-2.0 15:-4.0 16:-8.0 19:-4.0 20:-8.0 26:-7.0 28:4.0 29:-4.0 30:-7.0 
-0.0 0.0 0.0 0.0 0.01 1:-9.0 4:-4.0 5:-7.0 6:-4.0 8:4.0 9:-3.0 10:-4.0 11:-2.0 14:-1.0 15:-2.0 16:-8.0 19:-3.0 20:-8.0 21:-6.0 24:-4.0 25:-6.0 26:-14.0 28:4.0 29:-4.0 30:-14.0 
-0.0 0.0 0.0 0.0 0.01 1:-11.0 4:-4.0 5:-9.0 6:-9.0 8:4.0 9:-4.0 10:-9.0 11:-7.0 13:2.0 14:-3.0 15:-7.0 16:-28.0 18:2.0 19:-4.0 20:-27.0 21:-6.0 24:-4.0 25:-6.0 26:-7.0 28:4.0 29:-4.0 30:-7.0 
-0.0 0.0 0.0 0.0 0.01 1:-11.0 4:-4.0 5:-9.0 6:-4.0 8:4.0 9:-3.0 10:-4.0 11:-4.0 14:-3.0 15:-3.0 16:-6.0 19:-2.0 20:-6.0 26:-7.0 28:4.0 29:-4.0 30:-7.0 
-0.0 0.0 0.0 0.0 0.0031033201676798484 1:-11.0 4:-4.0 5:-9.0 6:-2.0 8:4.0 9:-3.0 10:-2.0 11:-4.0 14:-3.0 15:-3.0 16:-5.0 19:-2.0 20:-5.0 21:-13.0 22:0.5256410256410257 23:2.0 24:-4.0 25:-13.0 26:-8.0 28:2.0 29:-4.0 30:-8.0 
-0.0 0.0 0.01 0.0 0.0 1:-10.0 2:0.7272727272727272 3:2.0 4:-3.0 5:-8.0 6:-8.0 7:0.7333333333333334 8:2.0 9:-3.0 10:-8.0 11:-4.0 14:-2.0 15:-4.0 16:-10.0 18:2.0 19:-4.0 20:-10.0 21:-11.0 24:-4.0 25:-11.0 26:-9.0 29:-4.0 30:-9.0 
-0.0 0.0 0.0 0.0 0.01 1:-11.0 4:-4.0 5:-9.0 6:-7.0 8:4.0 9:-4.0 10:-7.0 11:-4.0 14:-2.0 15:-4.0 16:-11.0 19:-4.0 20:-11.0 21:-11.0 24:-4.0 25:-11.0 26:-8.0 28:2.0 29:-4.0 30:-8.0 
-0.0 0.0 0.0 0.0 0.01 1:-11.0 4:-4.0 5:-9.0 6:-4.0 8:4.0 9:-3.0 10:-4.0 11:-4.0 14:-3.0 15:-3.0 16:-33.0 18:2.0 19:-4.0 20:-33.0 21:-5.0 22:0.5666666666666667 23:2.0 24:-3.0 25:-5.0 26:-2.0 28:4.0 29:-3.0 30:-2.0 
-0.0 0.0 0.0 0.0 0.01 1:-9.0 4:-4.0 5:-7.0 6:-9.0 8:4.0 9:-4.0 10:-9.0 11:-6.0 14:-3.0 15:-6.0 16:-11.0 19:-4.0 20:-11.0 21:-6.0 24:-4.0 25:-6.0 26:-7.0 28:4.0 29:-4.0 30:-7.0 
-0.0 0.0 0.0 0.0 0.01 1:-11.0 4:-4.0 5:-9.0 6:-5.0 8:4.0 9:-3.0 10:-5.0 11:-4.0 14:-3.0 15:-3.0 16:-4.0 19:-3.0 20:-3.0 21:-8.0 23:2.0 24:-4.0 25:-8.0 26:-7.0 28:4.0 29:-4.0 30:-7.0 
-0.0 0.0 0.0 0.0 0.01 1:-11.0 4:-4.0 5:-9.0 6:-9.0 8:4.0 9:-4.0 10:-9.0 11:-9.0 14:-4.0 15:-8.0 16:-9.0 19:-4.0 20:-8.0 21:-11.0 23:2.0 24:-4.0 25:-11.0 26:-7.0 28:4.0 29:-4.0 30:-7.0 
-0.0 0.0 0.01 0.0 0.0 1:-10.0 2:0.7272727272727272 3:2.0 4:-3.0 5:-8.0 6:-3.0 7:0.775 8:2.0 9:-2.0 10:-3.0 11:-4.0 14:-2.0 15:-4.0 16:-11.0 18:2.0 19:-4.0 20:-11.0 21:-11.0 24:-4.0 25:-11.0 26:-9.0 29:-4.0 30:-9.0 
-0.0 0.0 0.0 0.0 0.01 1:-11.0 4:-4.0 5:-9.0 6:-8.0 8:4.0 9:-4.0 10:-8.0 11:-4.0 14:-2.0 15:-4.0 16:-8.0 19:-4.0 20:-7.0 21:-5.0 22:0.5666666666666667 23:2.0 24:-3.0 25:-5.0 26:-7.0 28:4.0 29:-4.0 30:-7.0 
-0.0 0.0 0.0 0.0 0.01 1:-11.0 4:-4.0 5:-9.0 6:-9.0 8:4.0 9:-4.0 10:-9.0 11:-7.0 13:2.0 14:-3.0 15:-7.0 16:-28.0 18:2.0 19:-4.0 20:-27.0 21:-5.0 22:0.5666666666666667 23:2.0 24:-3.0 25:-5.0 26:-7.0 28:4.0 29:-4.0 30:-7.0 
-0.0 0.0 0.0 0.0 0.01 1:-11.0 4:-4.0 5:-9.0 6:-9.0 8:4.0 9:-4.0 10:-9.0 11:-3.0 14:-2.0 15:-3.0 16:-6.0 19:-3.0 20:-6.0 21:-3.0 22:0.625 23:2.0 24:-1.0 25:-3.0 26:-7.0 28:4.0 29:-4.0 30:-7.0 
-0.0 0.0 0.0 0.0 0.01 1:-10.0 2:0.7272727272727272 3:2.0 4:-3.0 5:-8.0 6:-3.0 7:0.775 8:2.0 9:-2.0 10:-3.0 11:-7.0 14:-3.0 15:-7.0 16:-9.0 19:-4.0 20:-8.0 26:-15.0 27:0.71875 28:2.0 29:-3.0 30:-15.0 
-0.0 0.0 0.0 0.0 0.0020521797677279362 1:-10.0 3:2.0 4:-4.0 5:-8.0 6:-3.0 7:0.84 8:4.0 9:-2.0 10:-3.0 11:-2.0 14:-2.0 15:-2.0 16:-8.0 19:-4.0 20:-8.0 21:-15.0 24:-4.0 25:-12.0 26:-16.0 27:0.5208333333333334 28:2.0 29:-4.0 30:-16.0 
-0.0 0.0 0.0 0.002808595181302132 0.01 1:-11.0 4:-4.0 5:-9.0 6:-3.0 8:4.0 9:-3.0 10:-3.0 11:-2.0 14:-1.0 15:-2.0 16:-8.0 19:-3.0 20:-8.0 21:-15.0 23:3.0 24:-3.0 25:-12.0 26:-14.0 28:4.0 29:-4.0 30:-14.0 
-0.0 0.0 0.0 0.0 0.01 1:-11.0 4:-4.0 5:-9.0 6:-4.0 8:4.0 9:-3.0 10:-4.0 11:-4.0 14:-3.0 15:-3.0 16:-8.0 18:2.0 19:-3.0 20:-8.0 21:-15.0 24:-4.0 25:-15.0 26:-14.0 28:4.0 29:-4.0 30:-14.0 
-0.0 0.0 0.0 0.0 0.01 1:-11.0 4:-4.0 5:-9.0 6:-4.0 8:4.0 9:-3.0 10:-4.0 11:-4.0 14:-3.0 15:-4.0 16:-6.0 19:-4.0 20:-6.0 21:-4.0 22:0.5833333333333334 23:2.0 24:-2.0 25:-4.0 26:-7.0 28:4.0 29:-4.0 30:-7.0 
-0.0 0.0 0.0 0.0 0.01 1:-11.0 4:-4.0 5:-9.0 6:-4.0 8:4.0 9:-3.0 10:-4.0 11:-4.0 14:-2.0 15:-4.0 16:-8.0 19:-4.0 20:-8.0 21:-5.0 22:0.5666666666666667 23:2.0 24:-3.0 25:-5.0 26:-14.0 28:4.0 29:-4.0 30:-14.0 
-0.0 0.0 0.0 0.0 0.01 1:-11.0 4:-4.0 5:-9.0 6:-4.0 8:4.0 9:-3.0 10:-4.0 11:-4.0 14:-3.0 15:-3.0 16:-5.0 19:-2.0 20:-5.0 21:-5.0 22:0.5666666666666667 23:2.0 24:-3.0 25:-5.0 26:-7.0 28:4.0 29:-4.0 30:-7.0 
-0.0 0.0 0.0 0.0 0.01 1:-11.0 4:-4.0 5:-9.0 6:-9.0 8:4.0 9:-4.0 10:-9.0 11:-6.0 14:-3.0 15:-6.0 16:-11.0 19:-4.0 20:-11.0 21:-5.0 22:0.5666666666666667 23:2.0 24:-3.0 25:-5.0 26:-7.0 28:4.0 29:-4.0 30:-7.0 
-0.0 0.01 0.01 0.0 0.0 1:-10.0 2:0.7272727272727272 3:2.0 4:-3.0 5:-8.0 6:-3.0 7:0.775 8:2.0 9:-2.0 10:-3.0 11:-2.0 14:-2.0 15:-2.0 16:-24.0 18:2.0 19:-4.0 20:-24.0 26:-4.0 29:-2.0 30:-4.0 
-0.0 0.0 0.01 0.0 0.01 1:-9.0 4:-4.0 5:-7.0 6:-9.0 8:4.0 9:-4.0 10:-9.0 11:-2.0 14:-1.0 15:-2.0 16:-7.0 17:0.5874999999999999 18:2.0 19:-3.0 20:-5.0 21:-5.0 22:0.5666666666666667 23:2.0 24:-3.0 25:-5.0 26:-8.0 28:4.0 29:-4.0 30:-8.0 
-0.0 0.0 0.0 0.0 0.01 1:-11.0 4:-4.0 5:-9.0 6:-3.0 7:0.775 8:2.0 9:-2.0 10:-3.0 11:-4.0 14:-2.0 15:-4.0 21:-15.0 24:-4.0 25:-14.0 26:-4.0 29:-3.0 30:-4.0 
-0.0 0.0 0.0 0.0 0.01 1:-11.0 4:-4.0 5:-9.0 6:-2.0 8:4.0 9:-3.0 10:-2.0 11:-4.0 14:-2.0 15:-4.0 21:-15.0 24:-4.0 25:-14.0 26:-2.0 28:4.0 29:-3.0 30:-2.0 
-0.0 0.0 0.0 0.0 0.01 1:-11.0 4:-4.0 5:-9.0 6:-4.0 8:4.0 9:-3.0 10:-4.0 11:-2.0 14:-1.0 15:-2.0 16:-21.0 19:-3.0 20:-21.0 26:-15.0 28:4.0 29:-4.0 30:-15.0 
-0.0 0.0 0.01 0.0 0.0 1:-10.0 2:0.7272727272727272 3:2.0 4:-3.0 5:-8.0 6:-3.0 7:0.775 8:2.0 9:-2.0 10:-3.0 11:-2.0 14:-2.0 15:-2.0 16:-11.0 18:2.0 19:-4.0 20:-11.0 26:-10.0 29:-4.0 30:-10.0 
-0.0 0.0 0.0 0.0 0.01 1:-11.0 4:-4.0 5:-9.0 6:-4.0 8:4.0 9:-3.0 10:-4.0 11:-7.0 13:2.0 14:-3.0 15:-7.0 16:-9.0 19:-2.0 20:-9.0 26:-13.0 28:4.0 29:-4.0 30:-13.0 
-0.0 0.0 0.0 0.0 0.01 1:-11.0 4:-4.0 5:-9.0 6:-4.0 8:4.0 9:-3.0 10:-4.0 11:-4.0 14:-3.0 15:-3.0 16:-4.0 19:-2.0 20:-4.0 26:-7.0 28:4.0 29:-4.0 30:-7.0 
-0.0 0.0 0.0 0.0 0.01 1:-11.0 4:-4.0 5:-9.0 6:-10.0 8:4.0 9:-4.0 10:-10.0 11:-7.0 13:2.0 14:-3.0 15:-7.0 16:-27.0 18:2.0 19:-4.0 20:-26.0 21:-6.0 24:-4.0 25:-6.0 26:-7.0 28:4.0 29:-4.0 30:-7.0 
-0.0 0.0 0.0 0.0 0.01 1:-11.0 4:-4.0 5:-9.0 6:-9.0 8:4.0 9:-4.0 10:-9.0 11:-4.0 14:-3.0 15:-4.0 16:-7.0 19:-1.0 20:-7.0 21:-10.0 24:-4.0 25:-10.0 26:-7.0 28:4.0 29:-4.0 30:-7.0 
-0.0 0.0 0.0 0.0 0.01 1:-11.0 4:-4.0 5:-9.0 6:-5.0 8:4.0 9:-3.0 10:-5.0 11:-2.0 14:-1.0 15:-2.0 16:-4.0 19:-3.0 20:-4.0 21:-14.0 24:-4.0 25:-12.0 26:-15.0 28:4.0 29:-4.0 30:-15.0 
-0.0 0.0 0.0 0.0 0.01 1:-9.0 4:-4.0 5:-7.0 6:-4.0 8:4.0 9:-3.0 10:-4.0 11:-4.0 14:-3.0 15:-3.0 16:-4.0 19:-3.0 20:-3.0 26:-14.0 28:4.0 29:-4.0 30:-14.0 
-0.0 0.0 0.01 0.0 0.0 1:-10.0 2:0.47474747474747475 3:2.0 4:-4.0 5:-8.0 6:-8.0 7:0.8303030303030302 8:6.0 9:-3.0 10:-8.0 11:-6.0 14:-3.0 15:-6.0 16:-1.0 17:0.9166666666666666 18:6.0 19:-1.0 20:-1.0 21:-5.0 24:-3.0 25:-5.0 26:-9.0 29:-4.0 30:-9.0 
-0.0 0.0 0.0 0.0 0.01 1:-11.0 4:-4.0 5:-9.0 6:-9.0 8:4.0 9:-4.0 10:-9.0 11:-6.0 14:-3.0 15:-6.0 16:-3.0 17:0.625 18:2.0 19:-1.0 20:-3.0 21:-5.0 22:0.5666666666666667 23:2.0 24:-3.0 25:-5.0 26:-7.0 28:4.0 29:-4.0 30:-7.0 
-0.0 0.0 0.0 0.0 0.01 1:-11.0 4:-4.0 5:-9.0 6:-4.0 8:4.0 9:-3.0 10:-4.0 11:-2.0 14:-1.0 15:-2.0 16:-9.0 18:2.0 19:-4.0 20:-9.0 26:-13.0 28:4.0 29:-4.0 30:-13.0 
-0.0 0.0 0.0 0.0 0.01 1:-11.0 4:-4.0 5:-9.0 6:-4.0 8:4.0 9:-3.0 10:-4.0 11:-4.0 14:-3.0 15:-4.0 16:-6.0 19:-2.0 20:-6.0 21:-3.0 22:0.625 23:2.0 24:-1.0 25:-3.0 26:-7.0 28:4.0 29:-4.0 30:-7.0 
-0.0 0.0 0.0 0.0 0.01 1:-9.0 4:-4.0 5:-7.0 6:-4.0 8:4.0 9:-3.0 10:-4.0 11:-4.0 14:-2.0 15:-4.0 16:-6.0 19:-2.0 20:-6.0 21:-24.0 24:-4.0 25:-22.0 26:-7.0 28:4.0 29:-4.0 30:-7.0 
-0.0 0.0 0.0 0.0 0.01 1:-9.0 4:-4.0 5:-7.0 6:-3.0 7:0.775 8:2.0 9:-2.0 10:-3.0 11:-6.0 14:-3.0 15:-6.0 16:-8.0 19:-4.0 20:-8.0 21:-5.0 24:-3.0 25:-5.0 26:-9.0 29:-4.0 30:-9.0 
-0.0 0.0 0.0 0.0 0.01 1:-9.0 4:-4.0 5:-7.0 6:-2.0 8:4.0 9:-3.0 10:-2.0 11:-6.0 14:-3.0 15:-6.0 16:-8.0 19:-4.0 20:-8.0 21:-5.0 22:0.5666666666666667 23:2.0 24:-3.0 25:-5.0 26:-7.0 28:4.0 29:-4.0 30:-7.0 
-0.0 0.0 0.0 0.0 0.01 1:-11.0 4:-4.0 5:-9.0 6:-4.0 8:4.0 9:-3.0 10:-4.0 11:-4.0 14:-2.0 15:-4.0 16:-8.0 19:-4.0 20:-8.0 21:-11.0 24:-4.0 25:-11.0 26:-14.0 28:4.0 29:-4.0 30:-14.0 
-0.0 0.00410890426136659 0.003408671469854147 0.0 0.01 1:-11.0 4:-4.0 5:-9.0 6:-5.0 8:4.0 9:-3.0 10:-5.0 11:-7.0 12:0.5874999999999999 13:3.0 14:-3.0 15:-6.0 16:-16.0 17:0.5676470588235294 18:3.0 19:-3.0 20:-13.0 26:-14.0 28:4.0 29:-4.0 30:-14.0 
-0.0 0.0 0.0 0.0 0.01 1:-11.0 4:-4.0 5:-9.0 6:-10.0 8:4.0 9:-4.0 10:-10.0 11:-6.0 14:-3.0 15:-6.0 16:-7.0 19:-4.0 20:-7.0 21:-5.0 22:0.5666666666666667 23:2.0 24:-3.0 25:-5.0 26:-7.0 28:4.0 29:-4.0 30:-7.0 
-0.0 0.0 0.0 0.0 0.01 1:-11.0 4:-4.0 5:-9.0 6:-9.0 8:4.0 9:-4.0 10:-9.0 11:-7.0 13:2.0 14:-3.0 15:-7.0 16:-29.0 18:2.0 19:-4.0 20:-28.0 21:-33.0 24:-4.0 25:-33.0 26:-7.0 28:4.0 29:-4.0 30:-7.0 
-0.0 0.0 0.0 0.0 0.01 1:-11.0 4:-4.0 5:-9.0 6:-4.0 8:4.0 9:-3.0 10:-4.0 11:-7.0 13:2.0 14:-3.0 15:-7.0 16:-4.0 19:-2.0 20:-4.0 26:-13.0 28:4.0 29:-4.0 30:-13.0 
-0.0 0.0 0.0 0.0 0.01 1:-9.0 4:-4.0 5:-7.0 6:-4.0 8:4.0 9:-3.0 10:-4.0 11:-4.0 14:-3.0 15:-4.0 16:-7.0 18:2.0 19:-2.0 20:-7.0 21:-12.0 24:-4.0 25:-12.0 26:-14.0 28:4.0 29:-4.0 30:-14.0 
-0.0 0.0 0.0 0.0 0.01 1:-11.0 4:-4.0 5:-9.0 6:-10.0 8:4.0 9:-4.0 10:-10.0 11:-6.0 14:-3.0 15:-6.0 16:-7.0 19:-4.0 20:-7.0 21:-5.0 22:0.5666666666666667 23:2.0 24:-3.0 25:-5.0 26:-7.0 28:4.0 29:-4.0 30:-7.0 
-0.00943256264755873 0.0 0.0 0.0 0.01 1:-10.0 2:0.7272727272727272 3:2.0 4:-3.0 5:-8.0 6:-8.0 7:0.7333333333333334 8:2.0 9:-3.0 10:-8.0 11:-6.0 14:-3.0 15:-6.0 16:-7.0 19:-4.0 20:-7.0 21:-10.0 24:-4.0 25:-10.0 26:-9.0 27:0.7300000000000001 28:2.0 29:-3.0 30:-9.0 
-0.0 0.0 0.01 0.0 0.0 1:-10.0 2:0.7272727272727272 3:2.0 4:-3.0 5:-8.0 6:-3.0 7:0.775 8:2.0 9:-2.0 10:-3.0 11:-4.0 14:-2.0 15:-4.0 16:-12.0 18:2.0 19:-4.0 20:-12.0 21:-6.0 24:-4.0 25:-6.0 26:-12.0 29:-4.0 30:-12.0 
-0.0 0.0 0.0 0.0 0.01 1:-11.0 4:-4.0 5:-9.0 6:-4.0 8:4.0 9:-3.0 10:-4.0 11:-2.0 14:-1.0 15:-2.0 16:-4.0 19:-3.0 20:-4.0 21:-14.0 24:-4.0 25:-12.0 26:-14.0 28:4.0 29:-4.0 30:-14.0 
-0.01 0.0 0.0 0.004733777402776834 0.009575091643326854 1:-10.0 2:0.7272727272727272 3:2.0 4:-3.0 5:-8.0 6:-16.0 7:0.7176470588235293 8:2.0 9:-3.0 10:-16.0 11:-7.0 14:-4.0 15:-7.0 16:-7.0 19:-4.0 20:-7.0 26:-9.0 29:-4.0 30:-9.0 
-0.0 0.0 0.0 0.0 0.01 1:-11.0 4:-4.0 5:-9.0 6:-15.0 8:4.0 9:-4.0 10:-15.0 11:-7.0 14:-4.0 15:-7.0 16:-7.0 19:-4.0 20:-7.0 26:-8.0 28:2.0 29:-4.0 30:-8.0 
-0.0 0.0 0.0 0.0 0.01 1:-11.0 4:-4.0 5:-9.0 6:-4.0 8:4.0 9:-3.0 10:-4.0 11:-5.0 14:-2.0 15:-5.0 16:-9.0 19:-2.0 20:-9.0 21:-6.0 24:-4.0 25:-6.0 26:-8.0 28:4.0 29:-4.0 30:-8.0 
-0.0 0.0 0.0 0.0 0.01 1:-11.0 4:-4.0 5:-9.0 6:-4.0 8:4.0 9:-3.0 10:-4.0 11:-4.0 14:-2.0 15:-4.0 16:-8.0 19:-4.0 20:-8.0 21:-32.0 22:0.5104166666666666 23:2.0 24:-4.0 25:-29.0 26:-7.0 28:4.0 29:-4.0 30:-7.0 
-0.0 0.0 0.01 0.0 0.0 1:-10.0 2:0.7272727272727272 3:2.0 4:-3.0 5:-8.0 6:-3.0 7:0.775 8:2.0 9:-2.0 10:-3.0 11:-4.0 14:-2.0 15:-4.0 16:-12.0 18:2.0 19:-4.0 20:-12.0 21:-3.0 24:-2.0 25:-3.0 26:-12.0 29:-4.0 30:-12.0 
-0.01 0.0 0.0 0.0 0.0 1:-8.0 2:0.7333333333333334 3:2.0 4:-3.0 5:-6.0 6:-3.0 7:0.775 8:2.0 9:-2.0 10:-3.0 11:-4.0 14:-2.0 15:-4.0 16:-8.0 19:-4.0 20:-8.0 21:-6.0 24:-4.0 25:-6.0 26:-16.0 29:-4.0 30:-16.0 
-0.0 0.0 0.0 0.0 0.007058352684631533 1:-9.0 4:-4.0 5:-7.0 6:-2.0 8:4.0 9:-3.0 10:-2.0 11:-4.0 14:-2.0 15:-4.0 16:-8.0 19:-4.0 20:-8.0 21:-6.0 24:-4.0 25:-6.0 26:-15.0 28:2.0 29:-4.0 30:-15.0 
-0.0 0.0 0.0 0.0 0.01 1:-11.0 4:-4.0 5:-9.0 6:-4.0 8:4.0 9:-3.0 10:-4.0 11:-2.0 14:-1.0 15:-2.0 16:-8.0 19:-3.0 20:-8.0 21:-15.0 24:-4.0 25:-11.0 26:-14.0 28:4.0 29:-4.0 30:-14.0 
-0.0 0.0 0.0 0.0 0.01 1:-11.0 4:-4.0 5:-9.0 6:-10.0 8:4.0 9:-4.0 10:-10.0 11:-6.0 14:-3.0 15:-6.0 16:-7.0 19:-4.0 20:-7.0 21:-5.0 22:0.5666666666666667 23:2.0 24:-3.0 25:-5.0 26:-7.0 28:4.0 29:-4.0 30:-7.0 
-0.0 0.0 0.0 0.0 0.01 1:-11.0 4:-4.0 5:-9.0 6:-4.0 8:4.0 9:-3.0 10:-4.0 11:-7.0 13:2.0 14:-3.0 15:-7.0 16:-19.0 19:-4.0 20:-18.0 26:-13.0 28:4.0 29:-4.0 30:-13.0 
-0.0 0.0 0.0 0.0 0.01 1:-11.0 4:-4.0 5:-9.0 6:-10.0 8:4.0 9:-4.0 10:-10.0 11:-6.0 14:-3.0 15:-6.0 16:-7.0 19:-4.0 20:-7.0 21:-5.0 22:0.5666666666666667 23:2.0 24:-3.0 25:-5.0 26:-8.0 28:4.0 29:-4.0 30:-8.0 
-0.0 0.0 0.0 0.0 0.01 1:-11.0 4:-4.0 5:-9.0 6:-4.0 8:4.0 9:-3.0 10:-4.0 11:-4.0 14:-3.0 15:-3.0 16:-6.0 19:-3.0 20:-6.0 21:-11.0 22:0.575 23:2.0 24:-3.0 25:-11.0 26:-7.0 28:4.0 29:-4.0 30:-7.0 
-0.0 0.0 0.0 0.0 0.01 1:-11.0 4:-4.0 5:-9.0 6:-7.0 7:0.7925925925925926 8:4.0 9:-3.0 10:-7.0 11:-4.0 14:-3.0 15:-4.0 16:-4.0 17:0.5666666666666667 18:2.0 19:-2.0 20:-4.0 21:-15.0 24:-4.0 25:-14.0 26:-15.0 27:0.5208333333333334 28:2.0 29:-4.0 30:-15.0 
-0.0 0.0 0.0 0.0 0.01 1:-11.0 4:-4.0 5:-9.0 6:-7.0 8:4.0 9:-4.0 10:-7.0 11:-4.0 14:-3.0 15:-4.0 16:-5.0 19:-1.0 20:-5.0 21:-15.0 24:-4.0 25:-14.0 26:-14.0 28:4.0 29:-4.0 30:-14.0 
-0.0 0.0 0.0 0.0 0.01 1:-11.0 4:-4.0 5:-9.0 6:-4.0 8:4.0 9:-3.0 10:-4.0 11:-4.0 14:-2.0 15:-4.0 16:-8.0 19:-4.0 20:-8.0 26:-7.0 28:4.0 29:-4.0 30:-7.0 
-0.0 0.0 0.0 0.0 0.01 1:-11.0 4:-4.0 5:-9.0 6:-4.0 8:4.0 9:-3.0 10:-4.0 11:-7.0 13:2.0 14:-4.0 15:-7.0 16:-9.0 19:-3.0 20:-7.0 21:-18.0 24:-4.0 25:-18.0 26:-7.0 28:4.0 29:-4.0 30:-7.0 
-0.0 0.0 0.0 0.0 0.01 1:-11.0 4:-4.0 5:-9.0 6:-4.0 8:4.0 9:-3.0 10:-4.0 11:-4.0 14:-3.0 15:-3.0 16:-10.0 18:2.0 19:-4.0 20:-10.0 21:-5.0 22:0.5666666666666667 23:2.0 24:-3.0 25:-5.0 26:-13.0 28:4.0 29:-4.0 30:-13.0 
-0.0 0.0 0.0 0.0 0.01 1:-11.0 4:-4.0 5:-9.0 6:-4.0 8:4.0 9:-3.0 10:-4.0 11:-6.0 12:0.5928571428571427 13:2.0 14:-1.0 15:-6.0 16:-8.0 19:-2.0 20:-8.0 21:-12.0 24:-4.0 25:-12.0 26:-13.0 28:4.0 29:-4.0 30:-13.0 
-0.0 0.0 0.0 0.0 0.01 1:-11.0 4:-4.0 5:-9.0 6:-7.0 8:4.0 9:-4.0 10:-7.0 11:-6.0 14:-3.0 15:-6.0 16:-7.0 19:-4.0 20:-7.0 21:-14.0 23:2.0 24:-4.0 25:-11.0 26:-8.0 28:2.0 29:-4.0 30:-8.0 
-0.0 0.0 0.0 0.0 0.007653661309903778 1:-10.0 3:2.0 4:-4.0 5:-8.0 6:-3.0 7:0.84 8:4.0 9:-2.0 10:-3.0 11:-2.0 14:-2.0 15:-2.0 16:-8.0 19:-4.0 20:-8.0 21:-15.0 24:-4.0 25:-12.0 26:-16.0 27:0.5208333333333334 28:2.0 29:-4.0 30:-16.0 
-0.0 0.0 0.0 0.0 0.01 1:-11.0 4:-4.0 5:-9.0 6:-3.0 8:4.0 9:-3.0 10:-3.0 11:-2.0 14:-1.0 15:-2.0 16:-8.0 19:-3.0 20:-8.0 21:-14.0 23:3.0 24:-3.0 25:-11.0 26:-14.0 28:4.0 29:-4.0 30:-14.0 
-0.0 0.0 0.0 0.0 0.01 1:-11.0 4:-4.0 5:-9.0 6:-5.0 8:4.0 9:-3.0 10:-5.0 11:-2.0 14:-1.0 15:-2.0 16:-4.0 19:-3.0 20:-4.0 21:-14.0 24:-4.0 25:-12.0 26:-14.0 28:4.0 29:-4.0 30:-14.0 
-0.0 0.0 0.0 0.0 0.01 1:-11.0 4:-4.0 5:-9.0 6:-5.0 8:4.0 9:-3.0 10:-5.0 11:-4.0 14:-3.0 15:-3.0 16:-4.0 19:-3.0 20:-3.0 21:-20.0 22:0.5642857142857143 23:2.0 24:-3.0 25:-20.0 26:-10.0 28:4.0 29:-4.0 30:-10.0 
-0.0 0.0 0.0 0.0 0.01 1:-11.0 4:-4.0 5:-9.0 6:-9.0 8:4.0 9:-4.0 10:-9.0 11:-6.0 14:-3.0 15:-6.0 16:-7.0 19:-4.0 20:-7.0 21:-5.0 22:0.5666666666666667 23:2.0 24:-3.0 25:-5.0 26:-7.0 28:4.0 29:-4.0 30:-7.0 
-0.0 0.0 0.0 0.0 0.01 1:-12.0 4:-4.0 5:-10.0 6:-4.0 8:4.0 9:-3.0 10:-4.0 11:-6.0 14:-3.0 15:-6.0 16:-13.0 19:-4.0 20:-13.0 21:-5.0 22:0.5666666666666667 23:2.0 24:-3.0 25:-5.0 26:-15.0 28:4.0 29:-4.0 30:-15.0 
-0.0 0.0 0.0 0.0 0.01 1:-11.0 4:-4.0 5:-9.0 6:-4.0 8:4.0 9:-3.0 10:-4.0 11:-4.0 14:-3.0 15:-4.0 16:-4.0 19:-3.0 20:-4.0 21:-9.0 23:2.0 24:-4.0 25:-8.0 26:-7.0 28:4.0 29:-4.0 30:-7.0 
-0.0 0.0 0.0 0.0 0.01 1:-11.0 4:-4.0 5:-9.0 6:-4.0 8:4.0 9:-3.0 10:-4.0 11:-4.0 14:-2.0 15:-4.0 16:-11.0 19:-4.0 20:-11.0 21:-32.0 22:0.5104166666666666 23:2.0 24:-4.0 25:-29.0 26:-7.0 28:4.0 29:-4.0 30:-7.0 
-0.0 0.0 0.0 0.0 0.01 1:-11.0 4:-4.0 5:-9.0 6:-9.0 8:4.0 9:-4.0 10:-9.0 11:-6.0 12:0.5928571428571427 13:2.0 14:-1.0 15:-6.0 16:-6.0 19:-2.0 20:-6.0 21:-12.0 23:2.0 24:-4.0 25:-9.0 26:-7.0 28:4.0 29:-4.0 30:-7.0 
-0.0 0.0 0.0 0.0 0.01 1:-11.0 4:-4.0 5:-9.0 6:-4.0 8:4.0 9:-3.0 10:-4.0 11:-7.0 13:2.0 14:-4.0 15:-7.0 16:-8.0 19:-3.0 20:-6.0 21:-6.0 24:-4.0 25:-6.0 26:-7.0 28:4.0 29:-4.0 30:-7.0 
-0.0033812788318880113 0.0 0.01 0.005148939768142066 0.00950228283344329 1:-10.0 2:0.7272727272727272 3:2.0 4:-3.0 5:-8.0 6:-3.0 7:0.775 8:2.0 9:-2.0 10:-3.0 11:-7.0 14:-3.0 15:-7.0 16:-16.0 18:2.0 19:-4.0 20:-16.0 21:-30.0 24:-4.0 25:-28.0 
-0.0 0.009150945184104666 0.0 0.0 0.0 1:-11.0 4:-4.0 5:-9.0 6:-2.0 8:4.0 9:-3.0 10:-2.0 11:-6.0 12:0.5928571428571427 13:2.0 14:-2.0 15:-6.0 16:-16.0 17:0.5676470588235294 18:2.0 19:-3.0 20:-16.0 21:-29.0 23:2.0 24:-4.0 25:-27.0 
-0.006815347947385936 0.0 0.0 0.0 0.0 1:-8.0 2:0.5833333333333334 3:2.0 4:-3.0 5:-6.0 6:-3.0 7:0.84 8:4.0 9:-2.0 10:-3.0 11:-2.0 14:-2.0 15:-2.0 16:-8.0 19:-4.0 20:-8.0 26:-16.0 29:-4.0 30:-16.0 
-0.0 0.0 0.0 0.0 0.01 1:-9.0 4:-4.0 5:-7.0 6:-3.0 8:4.0 9:-3.0 10:-3.0 11:-2.0 14:-1.0 15:-2.0 16:-8.0 19:-3.0 20:-8.0 26:-14.0 28:4.0 29:-4.0 30:-14.0 
-0.0 0.0 0.003529407801233113 0.0 0.0 1:-10.0 2:0.7272727272727272 3:2.0 4:-3.0 5:-8.0 6:-3.0 7:0.775 8:2.0 9:-2.0 10:-3.0 11:-4.0 14:-2.0 15:-4.0 16:-11.0 18:2.0 19:-4.0 20:-11.0 21:-11.0 24:-4.0 25:-11.0 26:-16.0 29:-4.0 30:-16.0 
-0.0 0.0 0.0 0.0 0.01 1:-11.0 4:-4.0 5:-9.0 6:-5.0 8:4.0 9:-3.0 10:-5.0 11:-4.0 14:-2.0 15:-4.0 16:-19.0 19:-4.0 20:-19.0 21:-11.0 24:-4.0 25:-11.0 26:-7.0 28:4.0 29:-4.0 30:-7.0 
-0.0 0.0 0.0 0.0 0.01 1:-11.0 4:-4.0 5:-9.0 6:-5.0 8:4.0 9:-3.0 10:-5.0 11:-2.0 14:-1.0 15:-2.0 16:-7.0 19:-3.0 20:-7.0 21:-6.0 24:-4.0 25:-6.0 26:-7.0 28:4.0 29:-4.0 30:-7.0 
-0.0 0.0 0.0 0.0 0.01 1:-11.0 4:-4.0 5:-9.0 6:-3.0 8:4.0 9:-3.0 10:-3.0 11:-4.0 14:-2.0 15:-4.0 16:-8.0 19:-4.0 20:-7.0 26:-11.0 28:4.0 29:-4.0 30:-11.0 
-0.0 0.0 0.0 0.0 0.01 1:-11.0 4:-4.0 5:-9.0 6:-5.0 8:4.0 9:-3.0 10:-5.0 11:-4.0 14:-3.0 15:-3.0 16:-3.0 18:2.0 19:-2.0 20:-3.0 21:-5.0 22:0.5666666666666667 23:2.0 24:-3.0 25:-5.0 26:-8.0 28:4.0 29:-4.0 30:-8.0 
-0.0 0.0 0.0 0.0 0.01 1:-11.0 4:-4.0 5:-9.0 6:-9.0 8:4.0 9:-4.0 10:-9.0 11:-3.0 14:-2.0 15:-3.0 16:-3.0 19:-2.0 20:-3.0 21:-9.0 22:0.5370370370370371 23:2.0 24:-4.0 25:-9.0 26:-7.0 28:4.0 29:-4.0 30:-7.0 
-0.0 0.0 0.0 0.0 0.01 1:-11.0 4:-4.0 5:-9.0 6:-4.0 8:4.0 9:-3.0 10:-4.0 11:-2.0 14:-1.0 15:-2.0 16:-8.0 19:-3.0 20:-8.0 21:-5.0 22:0.5666666666666667 23:2.0 24:-3.0 25:-5.0 26:-8.0 28:4.0 29:-4.0 30:-8.0 
-0.0 0.0 0.0 0.0 0.01 1:-9.0 4:-4.0 5:-7.0 6:-17.0 8:4.0 9:-4.0 10:-17.0 11:-9.0 14:-4.0 15:-8.0 16:-18.0 19:-4.0 20:-15.0 21:-5.0 22:0.5666666666666667 23:2.0 24:-3.0 25:-5.0 26:-7.0 28:4.0 29:-4.0 30:-7.0 
-0.0 0.0 0.0 0.0 0.01 1:-11.0 4:-4.0 5:-9.0 6:-17.0 8:4.0 9:-4.0 10:-17.0 11:-4.0 14:-3.0 15:-3.0 16:-4.0 19:-2.0 20:-4.0 26:-7.0 28:4.0 29:-4.0 30:-7.0 
-0.0 0.0 0.0 0.0 0.01 1:-11.0 3:2.0 4:-4.0 5:-9.0 6:-16.0 8:6.0 9:-4.0 10:-16.0 11:-4.0 14:-3.0 15:-3.0 16:-4.0 19:-2.0 20:-4.0 26:-7.0 28:4.0 29:-4.0 30:-7.0 
-0.0 0.0 0.0 0.0 0.01 1:-11.0 4:-4.0 5:-9.0 6:-4.0 8:4.0 9:-3.0 10:-4.0 11:-6.0 14:-3.0 15:-6.0 16:-7.0 19:-4.0 20:-7.0 21:-5.0 22:0.5666666666666667 23:2.0 24:-3.0 25:-5.0 26:-7.0 28:4.0 29:-4.0 30:-7.0 
-0.0 0.0 0.0 0.0 0.01 1:-11.0 4:-4.0 5:-9.0 6:-4.0 8:4.0 9:-3.0 10:-4.0 11:-4.0 14:-3.0 15:-3.0 16:-9.0 17:0.58 18:2.0 19:-3.0 20:-7.0 21:-5.0 22:0.5666666666666667 23:2.0 24:-3.0 25:-5.0 26:-7.0 28:4.0 29:-4.0 30:-7.0 
-0.0 0.009948795756479707 0.0 0.0 0.01 1:-11.0 4:-4.0 5:-9.0 6:-5.0 8:4.0 9:-3.0 10:-5.0 11:-7.0 12:0.5874999999999999 13:3.0 14:-3.0 15:-6.0 16:-8.0 18:2.0 19:-4.0 20:-8.0 26:-8.0 28:4.0 29:-4.0 30:-8.0 
-0.0 0.0 0.0 0.0 0.01 1:-11.0 4:-4.0 5:-9.0 6:-4.0 8:4.0 9:-3.0 10:-4.0 11:-4.0 14:-2.0 15:-4.0 16:-19.0 19:-4.0 20:-19.0 21:-11.0 24:-4.0 25:-11.0 26:-7.0 28:4.0 29:-4.0 30:-7.0 
-0.0 0.0 0.0 0.0 0.01 1:-11.0 4:-4.0 5:-9.0 6:-4.0 8:4.0 9:-3.0 10:-4.0 11:-7.0 13:2.0 14:-3.0 15:-7.0 16:-13.0 19:-3.0 20:-13.0 21:-24.0 23:2.0 24:-4.0 25:-22.0 26:-7.0 28:4.0 29:-4.0 30:-7.0 
-0.0 0.0 0.0 0.0 0.01 1:-12.0 4:-4.0 5:-10.0 6:-17.0 8:4.0 9:-4.0 10:-17.0 11:-5.0 14:-2.0 15:-5.0 16:-10.0 18:2.0 19:-4.0 20:-10.0 21:-6.0 24:-4.0 25:-6.0 26:-7.0 28:4.0 29:-4.0 30:-7.0 
-0.0 0.0 0.0 0.0 0.01 1:-11.0 4:-4.0 5:-9.0 6:-4.0 8:4.0 9:-3.0 10:-4.0 11:-7.0 13:2.0 14:-3.0 15:-7.0 16:-9.0 19:-4.0 20:-8.0 21:-3.0 22:0.625 23:2.0 24:-1.0 25:-3.0 26:-15.0 28:4.0 29:-4.0 30:-15.0 
-0.0 0.0 0.0 0.0 0.01 1:-11.0 4:-4.0 5:-9.0 6:-10.0 8:4.0 9:-4.0 10:-10.0 11:-6.0 14:-3.0 15:-6.0 16:-7.0 19:-4.0 20:-7.0 21:-9.0 23:2.0 24:-4.0 25:-9.0 26:-7.0 28:4.0 29:-4.0 30:-7.0 
-0.0 0.0 0.0 0.0 0.01 1:-11.0 4:-4.0 5:-9.0 6:-4.0 8:4.0 9:-3.0 10:-4.0 11:-4.0 14:-3.0 15:-4.0 16:-6.0 19:-2.0 20:-6.0 21:-5.0 22:0.5666666666666667 23:2.0 24:-3.0 25:-5.0 26:-7.0 28:4.0 29:-4.0 30:-7.0 
-0.0 0.0 0.0 0.0 0.01 1:-11.0 4:-4.0 5:-9.0 6:-4.0 8:4.0 9:-3.0 10:-4.0 11:-4.0 14:-2.0 15:-4.0 16:-18.0 19:-4.0 20:-16.0 21:-5.0 24:-2.0 25:-5.0 26:-7.0 28:4.0 29:-4.0 30:-7.0 
-0.0 0.0 0.0 0.0 0.01 1:-11.0 4:-4.0 5:-9.0 6:-9.0 8:4.0 9:-4.0 10:-9.0 11:-6.0 14:-3.0 15:-6.0 16:-7.0 19:-4.0 20:-7.0 21:-5.0 22:0.5666666666666667 23:2.0 24:-3.0 25:-5.0 26:-7.0 28:4.0 29:-4.0 30:-7.0 
-0.0 0.0 0.0 0.0 0.01 1:-9.0 4:-4.0 5:-7.0 6:-5.0 8:4.0 9:-3.0 10:-5.0 11:-9.0 14:-4.0 15:-8.0 16:-9.0 19:-4.0 20:-8.0 26:-14.0 28:4.0 29:-4.0 30:-14.0 
-0.0 0.0 0.0 0.0 0.01 1:-11.0 4:-4.0 5:-9.0 6:-5.0 8:4.0 9:-3.0 10:-5.0 11:-3.0 14:-2.0 15:-3.0 16:-3.0 17:0.625 18:2.0 19:-1.0 20:-3.0 21:-12.0 23:2.0 24:-4.0 25:-12.0 26:-14.0 28:4.0 29:-4.0 30:-14.0 
-0.0 0.0 0.0 0.0 0.01 1:-11.0 4:-4.0 5:-9.0 6:-10.0 8:4.0 9:-4.0 10:-10.0 11:-6.0 14:-3.0 15:-6.0 16:-7.0 19:-4.0 20:-7.0 21:-5.0 22:0.5666666666666667 23:2.0 24:-3.0 25:-5.0 26:-7.0 28:4.0 29:-4.0 30:-7.0 
-0.0 0.0 0.0 0.0 0.01 1:-11.0 2:0.575 3:2.0 4:-3.0 5:-9.0 6:-7.0 7:0.7925925925925926 8:4.0 9:-3.0 10:-7.0 11:-6.0 14:-3.0 15:-6.0 16:-4.0 17:0.5666666666666667 18:2.0 19:-1.0 20:-4.0 21:-21.0 24:-4.0 25:-20.0 26:-3.0 27:0.625 28:2.0 29:-2.0 30:-3.0 
-0.0 0.0 0.0 0.0 0.01 1:-12.0 4:-4.0 5:-10.0 6:-7.0 8:4.0 9:-4.0 10:-7.0 11:-6.0 14:-3.0 15:-6.0 16:-5.0 19:-2.0 20:-5.0 21:-20.0 22:0.5158730158730159 23:2.0 24:-3.0 25:-19.0 26:-2.0 28:4.0 29:-3.0 30:-2.0 
-0.0 0.0 0.0 0.0 0.01 1:-9.0 4:-4.0 5:-7.0 6:-4.0 8:4.0 9:-3.0 10:-4.0 11:-6.0 14:-3.0 15:-6.0 16:-102.0 18:2.0 19:-4.0 20:-97.0 26:-13.0 28:4.0 29:-4.0 30:-13.0 
-0.0 0.0 0.0 0.0 0.01 1:-9.0 4:-4.0 5:-7.0 6:-4.0 8:4.0 9:-3.0 10:-4.0 11:-4.0 14:-2.0 15:-4.0 16:-9.0 19:-4.0 20:-6.0 26:-8.0 28:4.0 29:-4.0 30:-8.0 
-0.0 0.0 0.01 0.0 0.0 1:-10.0 2:0.47474747474747475 3:2.0 4:-4.0 5:-8.0 6:-8.0 7:0.8303030303030302 8:6.0 9:-3.0 10:-8.0 11:-6.0 14:-3.0 15:-6.0 16:-1.0 17:0.9166666666666666 18:6.0 19:-1.0 20:-1.0 21:-5.0 24:-3.0 25:-5.0 26:-9.0 29:-4.0 30:-9.0 
-0.0 0.0 0.0 0.0 0.01 1:-11.0 4:-4.0 5:-9.0 6:-9.0 8:4.0 9:-4.0 10:-9.0 11:-6.0 14:-3.0 15:-6.0 16:-3.0 17:0.625 18:2.0 19:-1.0 20:-3.0 21:-5.0 22:0.5666666666666667 23:2.0 24:-3.0 25:-5.0 26:-7.0 28:4.0 29:-4.0 30:-7.0 
-0.0 0.0 0.0 0.01 0.01 1:-11.0 4:-4.0 5:-9.0 6:-42.0 8:4.0 9:-4.0 10:-39.0 11:-2.0 14:-1.0 15:-2.0 16:-8.0 19:-3.0 20:-8.0 21:-5.0 22:0.5666666666666667 23:2.0 24:-3.0 25:-5.0 26:-7.0 28:4.0 29:-4.0 30:-7.0 
-0.0 0.01 0.01 0.0 0.0 1:-11.0 3:2.0 4:-4.0 5:-9.0 6:-42.0 8:4.0 9:-4.0 10:-39.0 12:1.0 13:4.0 16:-8.0 17:0.5416666666666666 18:2.0 19:-3.0 20:-8.0 21:-5.0 24:-3.0 25:-5.0 26:-9.0 29:-4.0 30:-9.0 
-0.0 0.0 0.0 0.0 0.01 1:-11.0 4:-4.0 5:-9.0 6:-4.0 8:4.0 9:-3.0 10:-4.0 11:-4.0 14:-3.0 15:-3.0 16:-8.0 19:-4.0 20:-6.0 26:-7.0 28:4.0 29:-4.0 30:-7.0 
-0.0 0.0 0.0 0.0 0.01 1:-12.0 4:-4.0 5:-10.0 6:-4.0 8:4.0 9:-3.0 10:-4.0 11:-4.0 14:-3.0 15:-4.0 16:-6.0 19:-4.0 20:-6.0 26:-13.0 28:4.0 29:-4.0 30:-13.0 
-0.0 0.0 0.0 0.0 0.01 1:-11.0 4:-4.0 5:-9.0 6:-9.0 8:4.0 9:-4.0 10:-9.0 11:-4.0 14:-3.0 15:-4.0 16:-4.0 19:-2.0 20:-4.0 21:-8.0 23:2.0 24:-4.0 25:-8.0 26:-7.0 28:4.0 29:-4.0 30:-7.0 
-0.0 0.0 0.0 0.0 0.01 1:-9.0 4:-4.0 5:-7.0 6:-4.0 8:4.0 9:-3.0 10:-4.0 11:-4.0 14:-3.0 15:-3.0 16:-7.0 18:2.0 19:-3.0 20:-7.0 21:-14.0 22:0.5238095238095238 23:2.0 24:-4.0 25:-14.0 26:-7.0 28:4.0 29:-4.0 30:-7.0 
-0.0 0.0 0.0 0.0 0.01 1:-9.0 4:-4.0 5:-7.0 6:-9.0 8:4.0 9:-4.0 10:-9.0 11:-4.0 14:-2.0 15:-4.0 16:-8.0 19:-4.0 20:-8.0 21:-5.0 24:-2.0 25:-5.0 26:-7.0 28:4.0 29:-4.0 30:-7.0 
-0.0 0.0 0.0 0.0038246701008011843 0.0 1:-9.0 4:-4.0 5:-7.0 6:-4.0 8:4.0 9:-3.0 10:-4.0 11:-2.0 14:-1.0 15:-2.0 16:-8.0 19:-3.0 20:-8.0 21:-5.0 22:0.5666666666666667 23:2.0 24:-3.0 25:-5.0 
-0.0 0.0 0.0 0.0 0.01 1:-11.0 4:-4.0 5:-9.0 6:-5.0 8:4.0 9:-3.0 10:-5.0 11:-4.0 14:-2.0 15:-4.0 16:-19.0 19:-4.0 20:-19.0 21:-11.0 24:-4.0 25:-11.0 26:-7.0 28:4.0 29:-4.0 30:-7.0 
-0.0 0.0 0.0 0.0 0.01 1:-11.0 4:-4.0 5:-9.0 6:-9.0 8:4.0 9:-4.0 10:-9.0 11:-6.0 14:-3.0 15:-6.0 16:-7.0 19:-4.0 20:-7.0 21:-5.0 22:0.5666666666666667 23:2.0 24:-3.0 25:-5.0 26:-7.0 28:4.0 29:-4.0 30:-7.0 
-0.0 0.0 0.0 0.0 0.01 1:-9.0 4:-4.0 5:-7.0 6:-4.0 8:4.0 9:-3.0 10:-4.0 11:-4.0 14:-2.0 15:-4.0 16:-18.0 19:-4.0 20:-16.0 21:-5.0 24:-2.0 25:-5.0 26:-7.0 28:4.0 29:-4.0 30:-7.0 
-0.0 0.0 0.0 0.0 0.01 1:-11.0 4:-4.0 5:-9.0 6:-5.0 8:4.0 9:-3.0 10:-5.0 11:-4.0 14:-3.0 15:-3.0 16:-3.0 18:2.0 19:-2.0 20:-3.0 21:-5.0 22:0.5666666666666667 23:2.0 24:-3.0 25:-5.0 26:-8.0 28:4.0 29:-4.0 30:-8.0 
-0.0 0.0 0.0 0.0 0.01 1:-11.0 4:-4.0 5:-9.0 6:-4.0 8:4.0 9:-3.0 10:-4.0 11:-5.0 14:-2.0 15:-5.0 16:-9.0 19:-3.0 20:-9.0 21:-6.0 24:-4.0 25:-6.0 26:-13.0 28:4.0 29:-4.0 30:-13.0 
-0.0 0.0 0.0 0.0 0.01 1:-9.0 4:-4.0 5:-7.0 6:-9.0 8:4.0 9:-4.0 10:-9.0 11:-6.0 14:-3.0 15:-6.0 16:-7.0 19:-4.0 20:-7.0 21:-5.0 22:0.5666666666666667 23:2.0 24:-3.0 25:-5.0 26:-7.0 28:4.0 29:-4.0 30:-7.0 
-0.0 0.0 0.0 0.0 0.01 1:-11.0 4:-4.0 5:-9.0 6:-9.0 8:4.0 9:-4.0 10:-9.0 11:-4.0 14:-2.0 15:-4.0 16:-11.0 19:-4.0 20:-11.0 21:-32.0 22:0.5104166666666666 23:2.0 24:-4.0 25:-29.0 26:-7.0 28:4.0 29:-4.0 30:-7.0 
-0.0 0.0 0.0 0.0 0.01 1:-12.0 4:-4.0 5:-10.0 6:-4.0 8:4.0 9:-3.0 10:-4.0 11:-21.0 13:2.0 14:-4.0 15:-19.0 16:-4.0 19:-2.0 20:-4.0 26:-12.0 28:4.0 29:-4.0 30:-12.0 
-0.0 0.0 0.0 0.0 0.01 1:-11.0 4:-4.0 5:-9.0 6:-10.0 8:4.0 9:-4.0 10:-10.0 11:-3.0 14:-2.0 15:-3.0 16:-3.0 17:0.625 18:2.0 20:-3.0 21:-5.0 22:0.5666666666666667 23:2.0 24:-3.0 25:-5.0 26:-14.0 28:4.0 29:-4.0 30:-14.0 
-0.0 0.0 0.01 0.0 0.0 1:-10.0 2:0.7272727272727272 3:2.0 4:-3.0 5:-8.0 6:-3.0 7:0.775 8:2.0 9:-2.0 10:-3.0 11:-6.0 14:-3.0 15:-6.0 16:-4.0 18:2.0 19:-2.0 20:-4.0 26:-9.0 29:-4.0 30:-9.0 
-0.0 0.0 0.0 0.0 0.006167676575666496 1:-11.0 4:-4.0 5:-9.0 6:-2.0 8:4.0 9:-3.0 10:-2.0 11:-6.0 14:-3.0 15:-6.0 16:-5.0 19:-1.0 20:-5.0 26:-8.0 28:2.0 29:-4.0 30:-8.0 
-0.0 0.0 0.0 0.0 0.01 1:-11.0 4:-4.0 5:-9.0 6:-10.0 8:4.0 9:-4.0 10:-10.0 11:-4.0 14:-3.0 15:-4.0 16:-8.0 18:2.0 19:-2.0 20:-8.0 21:-10.0 24:-4.0 25:-10.0 26:-14.0 28:4.0 29:-4.0 30:-14.0 
-0.0 0.0 0.0 0.0 0.01 1:-11.0 4:-4.0 5:-9.0 6:-9.0 8:4.0 9:-4.0 10:-9.0 11:-6.0 14:-3.0 15:-6.0 16:-7.0 19:-4.0 20:-7.0 21:-5.0 22:0.5666666666666667 23:2.0 24:-3.0 25:-5.0 26:-7.0 28:4.0 29:-4.0 30:-7.0 
-0.0 0.0 0.0 0.0 0.01 1:-11.0 4:-4.0 5:-9.0 6:-9.0 8:4.0 9:-4.0 10:-9.0 11:-7.0 13:2.0 14:-3.0 15:-7.0 16:-30.0 18:2.0 19:-4.0 20:-29.0 21:-26.0 23:2.0 24:-4.0 25:-26.0 26:-7.0 28:4.0 29:-4.0 30:-7.0 
-0.0 0.0 0.0 0.01 0.0 1:-11.0 3:2.0 4:-4.0 5:-9.0 6:-7.0 8:8.0 9:-4.0 10:-7.0 11:-7.0 13:2.0 14:-3.0 15:-7.0 16:-28.0 18:6.0 19:-4.0 20:-27.0 21:-25.0 22:0.7342592592592593 23:6.0 24:-2.0 25:-25.0 26:-9.0 29:-4.0 30:-9.0 
-0.0 0.0 0.0 0.0 0.01 1:-11.0 4:-4.0 5:-9.0 6:-4.0 8:4.0 9:-3.0 10:-4.0 11:-4.0 14:-3.0 15:-4.0 16:-6.0 19:-4.0 20:-6.0 21:-3.0 22:0.625 23:2.0 24:-1.0 25:-3.0 26:-7.0 28:4.0 29:-4.0 30:-7.0 
-0.0 0.0 0.0 0.0 0.01 1:-11.0 4:-4.0 5:-9.0 6:-4.0 8:4.0 9:-3.0 10:-4.0 11:-2.0 14:-1.0 15:-2.0 16:-9.0 19:-2.0 20:-9.0 21:-6.0 24:-4.0 25:-6.0 26:-13.0 28:4.0 29:-4.0 30:-13.0 
-0.0 0.0 0.0 0.0 0.01 1:-11.0 4:-4.0 5:-9.0 6:-4.0 8:4.0 9:-3.0 10:-4.0 11:-4.0 14:-2.0 15:-4.0 16:-18.0 19:-4.0 20:-18.0 21:-32.0 22:0.5104166666666666 23:2.0 24:-4.0 25:-29.0 26:-7.0 28:4.0 29:-4.0 30:-7.0 
-0.0 0.0 0.0 0.0 0.01 1:-11.0 4:-4.0 5:-9.0 6:-4.0 8:4.0 9:-3.0 10:-4.0 11:-4.0 14:-3.0 15:-3.0 16:-10.0 19:-4.0 20:-10.0 26:-7.0 28:4.0 29:-4.0 30:-7.0 
-0.0 0.0 0.0 0.0 0.01 1:-9.0 4:-4.0 5:-7.0 6:-9.0 8:4.0 9:-4.0 10:-9.0 11:-6.0 14:-3.0 15:-6.0 16:-8.0 19:-4.0 20:-8.0 21:-5.0 22:0.5666666666666667 23:2.0 24:-3.0 25:-5.0 26:-7.0 28:4.0 29:-4.0 30:-7.0 
-0.0 0.0 0.0 0.0 0.01 1:-11.0 4:-4.0 5:-9.0 6:-4.0 8:4.0 9:-3.0 10:-4.0 11:-2.0 14:-1.0 15:-2.0 16:-10.0 18:2.0 19:-3.0 20:-10.0 26:-14.0 28:2.0 29:-4.0 30:-14.0 
-0.0 0.0 0.0 0.0 0.01 1:-11.0 4:-4.0 5:-9.0 6:-4.0 8:4.0 9:-3.0 10:-4.0 11:-2.0 14:-1.0 15:-2.0 16:-8.0 19:-3.0 20:-8.0 26:-14.0 28:4.0 29:-4.0 30:-14.0 
-0.0 0.0 0.0 0.0 0.01 1:-11.0 4:-4.0 5:-9.0 6:-4.0 8:4.0 9:-3.0 10:-4.0 11:-4.0 14:-3.0 15:-3.0 16:-4.0 19:-2.0 20:-4.0 21:-5.0 22:0.5666666666666667 23:2.0 24:-3.0 25:-5.0 26:-7.0 28:4.0 29:-4.0 30:-7.0 
-0.0 0.0 0.0 0.0 0.01 1:-11.0 4:-4.0 5:-9.0 6:-4.0 8:4.0 9:-3.0 10:-4.0 11:-2.0 14:-1.0 15:-2.0 16:-8.0 19:-3.0 20:-8.0 21:-16.0 23:2.0 24:-4.0 25:-16.0 26:-14.0 28:4.0 29:-4.0 30:-14.0 
-0.0 0.0 0.0 0.0 0.01 1:-9.0 4:-4.0 5:-7.0 6:-4.0 8:4.0 9:-3.0 10:-4.0 11:-2.0 14:-1.0 15:-2.0 16:-9.0 18:2.0 19:-2.0 20:-9.0 26:-3.0 28:2.0 29:-3.0 30:-3.0 
-0.0 0.0 0.0 0.0 0.01 1:-12.0 4:-4.0 5:-10.0 6:-4.0 8:4.0 9:-3.0 10:-4.0 11:-4.0 14:-3.0 15:-4.0 16:-9.0 18:2.0 19:-4.0 20:-9.0 21:-5.0 24:-2.0 25:-5.0 26:-8.0 28:4.0 29:-4.0 30:-8.0 
-0.0 0.0 0.0 0.0 0.01 1:-11.0 4:-4.0 5:-9.0 6:-14.0 8:4.0 9:-4.0 10:-14.0 11:-4.0 14:-2.0 15:-4.0 16:-8.0 19:-4.0 20:-7.0 21:-6.0 24:-4.0 25:-6.0 26:-7.0 28:4.0 29:-4.0 30:-7.0 
-0.0 0.0 0.0 0.0 0.01 1:-11.0 4:-4.0 5:-9.0 6:-4.0 8:4.0 9:-3.0 10:-4.0 11:-2.0 14:-1.0 15:-2.0 16:-8.0 19:-3.0 20:-8.0 26:-14.0 28:4.0 29:-4.0 30:-14.0 
-0.0 0.0 0.0 0.0 0.01 1:-9.0 4:-4.0 5:-7.0 6:-4.0 8:4.0 9:-3.0 10:-4.0 11:-21.0 13:2.0 14:-4.0 15:-19.0 16:-4.0 19:-2.0 20:-4.0 26:-12.0 28:4.0 29:-4.0 30:-12.0 
-0.0 0.0 0.008286549517314768 0.0 0.01 1:-11.0 4:-4.0 5:-9.0 6:-9.0 8:4.0 9:-4.0 10:-9.0 11:-3.0 14:-2.0 15:-3.0 16:-7.0 17:0.5874999999999999 18:2.0 19:-3.0 20:-5.0 21:-9.0 22:0.5370370370370371 23:2.0 24:-4.0 25:-9.0 26:-8.0 28:4.0 29:-4.0 30:-8.0 
-0.0 0.0 0.0 0.0 0.01 1:-11.0 4:-4.0 5:-9.0 6:-9.0 8:4.0 9:-4.0 10:-9.0 11:-7.0 13:2.0 14:-3.0 15:-7.0 16:-28.0 18:2.0 19:-4.0 20:-27.0 26:-7.0 28:4.0 29:-4.0 30:-7.0 
-0.01 0.0 0.0 0.0 0.0 1:-8.0 2:0.5333333333333333 3:2.0 4:-3.0 5:-6.0 6:-18.0 7:0.8 8:6.0 9:-3.0 10:-18.0 11:-5.0 14:-3.0 15:-5.0 16:-7.0 19:-4.0 20:-7.0 21:-5.0 24:-2.0 25:-5.0 26:-8.0 27:0.5333333333333333 28:2.0 29:-3.0 30:-8.0 
-0.0 0.0 0.01 0.0 0.01 1:-9.0 4:-4.0 5:-7.0 6:-19.0 8:4.0 9:-4.0 10:-19.0 11:-5.0 14:-2.0 15:-5.0 16:-6.0 18:2.0 19:-4.0 20:-6.0 21:-5.0 24:-2.0 25:-5.0 26:-7.0 28:4.0 29:-4.0 30:-7.0 
-0.0 0.0 0.0 0.0 0.01 1:-11.0 4:-4.0 5:-9.0 6:-4.0 8:4.0 9:-3.0 10:-4.0 11:-7.0 13:2.0 14:-4.0 15:-7.0 16:-8.0 19:-3.0 20:-6.0 21:-6.0 24:-4.0 25:-6.0 26:-7.0 28:4.0 29:-4.0 30:-7.0 
-0.0 0.0 0.0 0.0 0.01 1:-11.0 4:-4.0 5:-9.0 6:-4.0 8:4.0 9:-3.0 10:-4.0 11:-4.0 14:-2.0 15:-4.0 16:-4.0 19:-2.0 20:-4.0 21:-5.0 22:0.5666666666666667 23:2.0 24:-3.0 25:-5.0 26:-7.0 28:4.0 29:-4.0 30:-7.0 
-0.0 0.0 0.0 0.0 0.01 1:-11.0 4:-4.0 5:-9.0 6:-4.0 8:4.0 9:-3.0 10:-4.0 11:-7.0 13:2.0 14:-4.0 15:-7.0 16:-8.0 19:-3.0 20:-6.0 26:-7.0 28:4.0 29:-4.0 30:-7.0 
-0.0 0.0 0.0 0.0 0.01 1:-11.0 4:-4.0 5:-9.0 6:-4.0 8:4.0 9:-3.0 10:-4.0 11:-4.0 14:-3.0 15:-4.0 16:-23.0 19:-4.0 20:-23.0 21:-3.0 22:0.625 23:2.0 24:-1.0 25:-3.0 26:-2.0 28:4.0 29:-3.0 30:-2.0 
-0.0 0.0 0.0 0.0 0.01 1:-11.0 4:-4.0 5:-9.0 6:-9.0 8:4.0 9:-4.0 10:-9.0 11:-2.0 14:-1.0 15:-2.0 16:-9.0 19:-3.0 20:-9.0 21:-12.0 22:0.5277777777777778 23:2.0 24:-4.0 25:-12.0 26:-13.0 28:4.0 29:-4.0 30:-13.0 
-0.0 0.0 0.0 0.0 0.01 1:-11.0 4:-4.0 5:-9.0 6:-9.0 8:4.0 9:-4.0 10:-9.0 11:-4.0 14:-3.0 15:-3.0 16:-10.0 19:-4.0 20:-8.0 21:-5.0 22:0.5666666666666667 23:2.0 24:-3.0 25:-5.0 26:-7.0 28:4.0 29:-4.0 30:-7.0 
-0.0 0.0 0.0 0.0 0.01 1:-9.0 4:-4.0 5:-7.0 6:-17.0 8:4.0 9:-4.0 10:-17.0 11:-2.0 14:-1.0 15:-2.0 16:-15.0 19:-4.0 20:-15.0 26:-12.0 28:4.0 29:-4.0 30:-12.0 
-0.0 0.0 0.01 0.0 0.0 1:-11.0 4:-4.0 5:-9.0 6:-8.0 7:0.7866666666666667 8:4.0 9:-3.0 10:-8.0 11:-6.0 14:-3.0 15:-6.0 16:-2.0 17:0.8333333333333334 18:4.0 19:-2.0 20:-2.0 21:-5.0 24:-3.0 25:-5.0 26:-9.0 29:-4.0 30:-9.0 
-0.0 0.0 0.0 0.0 0.01 1:-11.0 4:-4.0 5:-9.0 6:-8.0 8:4.0 9:-4.0 10:-8.0 11:-6.0 14:-3.0 15:-6.0 16:-4.0 19:-2.0 20:-4.0 21:-5.0 22:0.5666666666666667 23:2.0 24:-3.0 25:-5.0 26:-7.0 28:4.0 29:-4.0 30:-7.0 
-0.0 0.0 0.0 0.0 0.01 1:-12.0 4:-4.0 5:-10.0 6:-4.0 8:4.0 9:-3.0 10:-4.0 11:-6.0 12:0.5928571428571427 13:2.0 14:-1.0 15:-6.0 16:-15.0 17:0.5687500000000001 18:2.0 19:-3.0 20:-15.0 26:-13.0 28:4.0 29:-4.0 30:-13.0 
-0.0 0.0 0.0 0.0 0.01 1:-11.0 4:-4.0 5:-9.0 6:-3.0 7:0.84 8:4.0 9:-2.0 10:-3.0 11:-2.0 14:-2.0 15:-2.0 16:-8.0 19:-4.0 20:-8.0 21:-5.0 24:-3.0 25:-5.0 26:-16.0 27:0.5208333333333334 28:2.0 29:-4.0 30:-16.0 
-0.0 0.0 0.0 0.0 0.01 1:-11.0 4:-4.0 5:-9.0 6:-3.0 8:4.0 9:-3.0 10:-3.0 11:-2.0 14:-1.0 15:-2.0 16:-8.0 19:-3.0 20:-8.0 21:-5.0 22:0.5666666666666667 23:2.0 24:-3.0 25:-5.0 26:-14.0 28:4.0 29:-4.0 30:-14.0 
-0.0 0.0 0.0 0.0 0.01 1:-9.0 4:-4.0 5:-7.0 6:-9.0 8:4.0 9:-4.0 10:-9.0 11:-6.0 14:-3.0 15:-6.0 16:-7.0 19:-4.0 20:-7.0 21:-10.0 23:2.0 24:-4.0 25:-10.0 26:-7.0 28:4.0 29:-4.0 30:-7.0 
-0.0 0.0 0.0 0.0 0.01 1:-11.0 4:-4.0 5:-9.0 6:-4.0 8:4.0 9:-3.0 10:-4.0 11:-6.0 14:-3.0 15:-6.0 16:-7.0 19:-4.0 20:-7.0 21:-5.0 22:0.5666666666666667 23:2.0 24:-3.0 25:-5.0 26:-7.0 28:4.0 29:-4.0 30:-7.0 
-0.0 0.0 0.0 0.0 0.01 1:-9.0 4:-4.0 5:-7.0 6:-9.0 8:4.0 9:-4.0 10:-9.0 11:-6.0 14:-3.0 15:-6.0 16:-7.0 19:-4.0 20:-7.0 21:-6.0 24:-4.0 25:-6.0 26:-7.0 28:4.0 29:-4.0 30:-7.0 
-0.0 0.0 0.0 0.0 0.01 1:-12.0 4:-4.0 5:-10.0 6:-17.0 8:4.0 9:-4.0 10:-17.0 11:-5.0 14:-2.0 15:-5.0 16:-10.0 18:2.0 19:-4.0 20:-10.0 21:-6.0 24:-4.0 25:-6.0 26:-7.0 28:4.0 29:-4.0 30:-7.0 
-0.0 0.0 0.0 0.0 0.01 1:-9.0 4:-4.0 5:-7.0 6:-4.0 8:4.0 9:-3.0 10:-4.0 11:-4.0 14:-2.0 15:-4.0 16:-4.0 19:-2.0 20:-4.0 21:-6.0 24:-4.0 25:-5.0 26:-7.0 28:4.0 29:-4.0 30:-7.0 
-0.0 0.0 0.0 0.0 0.01 1:-12.0 4:-4.0 5:-10.0 6:-4.0 8:4.0 9:-3.0 10:-4.0 11:-4.0 14:-3.0 15:-4.0 16:-11.0 19:-2.0 20:-11.0 21:-9.0 23:2.0 24:-4.0 25:-8.0 26:-13.0 28:4.0 29:-4.0 30:-13.0 
-0.0 0.0 0.0 0.01 0.0 1:-11.0 4:-4.0 5:-9.0 6:-4.0 8:4.0 9:-3.0 10:-4.0 11:-7.0 13:2.0 14:-3.0 15:-7.0 16:-9.0 19:-4.0 20:-8.0 21:-29.0 23:2.0 24:-4.0 25:-27.0 
-0.0 0.0 0.0 0.0 0.01 1:-9.0 4:-4.0 5:-7.0 6:-4.0 8:4.0 9:-3.0 10:-4.0 11:-4.0 14:-2.0 15:-4.0 16:-8.0 19:-4.0 20:-8.0 21:-12.0 23:2.0 24:-4.0 25:-12.0 26:-7.0 28:4.0 29:-4.0 30:-7.0 
-0.0 0.0 0.0 0.0 0.01 1:-11.0 4:-4.0 5:-9.0 6:-4.0 8:4.0 9:-3.0 10:-4.0 11:-4.0 14:-3.0 15:-3.0 16:-8.0 18:2.0 19:-4.0 20:-8.0 26:-7.0 28:4.0 29:-4.0 30:-7.0 
-0.0 0.0 0.0 0.0 0.01 1:-11.0 4:-4.0 5:-9.0 6:-9.0 8:4.0 9:-4.0 10:-9.0 11:-6.0 14:-3.0 15:-6.0 16:-6.0 19:-3.0 20:-6.0 21:-5.0 22:0.5666666666666667 23:2.0 24:-3.0 25:-5.0 26:-7.0 28:4.0 29:-4.0 30:-7.0 
-0.0 0.0 0.01 0.0 0.0 1:-10.0 2:0.7272727272727272 3:2.0 4:-3.0 5:-8.0 6:-3.0 7:0.775 8:2.0 9:-2.0 10:-3.0 11:-6.0 14:-3.0 15:-6.0 16:-3.0 18:2.0 19:-1.0 20:-3.0 21:-6.0 24:-4.0 25:-6.0 26:-10.0 29:-4.0 30:-10.0 
-0.01 5.022296260549145E-4 0.01 0.0 0.0 1:-8.0 2:0.7333333333333334 3:2.0 4:-3.0 5:-6.0 6:-8.0 7:0.7333333333333334 8:2.0 9:-3.0 10:-8.0 11:-4.0 14:-2.0 15:-4.0 16:-11.0 18:2.0 19:-4.0 20:-11.0 21:-11.0 24:-4.0 25:-11.0 26:-16.0 29:-4.0 30:-16.0 
-0.0 0.0 0.0 0.0 0.01 1:-9.0 4:-4.0 5:-7.0 6:-7.0 8:4.0 9:-4.0 10:-7.0 11:-4.0 14:-2.0 15:-4.0 16:-12.0 19:-4.0 20:-12.0 21:-11.0 24:-4.0 25:-11.0 26:-15.0 28:2.0 29:-4.0 30:-15.0 
-0.0 0.0 0.0 0.0 0.01 1:-11.0 4:-4.0 5:-9.0 6:-4.0 8:4.0 9:-3.0 10:-4.0 11:-4.0 14:-2.0 15:-4.0 16:-8.0 19:-4.0 20:-8.0 21:-5.0 22:0.5666666666666667 23:2.0 24:-3.0 25:-5.0 26:-13.0 28:4.0 29:-4.0 30:-13.0 
-0.004631371880191346 0.0 0.0 0.0 0.0 1:-8.0 2:0.48148148148148145 3:2.0 4:-4.0 5:-6.0 6:-3.0 7:0.8833333333333334 8:6.0 9:-2.0 10:-3.0 11:-3.0 14:-2.0 15:-3.0 16:-19.0 19:-4.0 20:-19.0 26:-3.0 27:0.575 28:2.0 29:-2.0 30:-3.0 
-0.0 0.0 0.0 0.0 0.008342014620494585 1:-9.0 4:-4.0 5:-7.0 6:-4.0 8:4.0 9:-3.0 10:-4.0 11:-2.0 14:-1.0 15:-2.0 16:-19.0 19:-3.0 20:-19.0 26:-3.0 28:2.0 29:-3.0 30:-3.0 
-0.0 0.0 0.0 0.0 0.01 1:-11.0 4:-4.0 5:-9.0 6:-8.0 8:4.0 9:-4.0 10:-8.0 11:-6.0 14:-3.0 15:-6.0 16:-8.0 19:-4.0 20:-8.0 21:-5.0 22:0.5666666666666667 23:2.0 24:-3.0 25:-5.0 26:-7.0 28:4.0 29:-4.0 30:-7.0 
-0.0 0.0 0.0 0.0 0.01 1:-10.0 2:0.7272727272727272 3:2.0 4:-3.0 5:-8.0 6:-8.0 7:0.7333333333333334 8:2.0 9:-3.0 10:-8.0 11:-4.0 14:-3.0 15:-3.0 16:-3.0 19:-2.0 20:-3.0 21:-5.0 24:-3.0 25:-5.0 26:-9.0 29:-4.0 30:-9.0 
-0.0 0.0 0.0 0.0 0.01 1:-11.0 4:-4.0 5:-9.0 6:-7.0 8:4.0 9:-4.0 10:-7.0 11:-4.0 14:-3.0 15:-3.0 16:-3.0 18:2.0 19:-2.0 20:-3.0 21:-5.0 22:0.5666666666666667 23:2.0 24:-3.0 25:-5.0 26:-7.0 28:4.0 29:-4.0 30:-7.0 
-0.0 0.0 0.0 0.0 0.01 1:-11.0 4:-4.0 5:-9.0 6:-4.0 8:4.0 9:-3.0 10:-4.0 11:-2.0 14:-1.0 15:-2.0 16:-8.0 19:-3.0 20:-8.0 21:-16.0 23:2.0 24:-4.0 25:-16.0 26:-14.0 28:4.0 29:-4.0 30:-14.0 
-0.0 0.0 0.0 0.0 0.01 1:-11.0 4:-4.0 5:-9.0 6:-13.0 8:4.0 9:-4.0 10:-13.0 11:-6.0 12:0.5928571428571427 13:2.0 14:-1.0 15:-6.0 16:-5.0 19:-2.0 20:-5.0 21:-3.0 24:-2.0 25:-3.0 26:-14.0 28:4.0 29:-4.0 30:-14.0 
-0.0 0.0 0.0 0.0 0.01 1:-11.0 4:-4.0 5:-9.0 6:-4.0 8:4.0 9:-3.0 10:-4.0 11:-4.0 14:-3.0 15:-3.0 16:-5.0 19:-2.0 20:-5.0 21:-4.0 24:-3.0 25:-4.0 26:-7.0 28:4.0 29:-4.0 30:-7.0 
-0.0 0.0 0.01 0.0 0.01 1:-10.0 2:0.7272727272727272 3:2.0 4:-3.0 5:-8.0 6:-8.0 7:0.7333333333333334 8:2.0 9:-3.0 10:-8.0 11:-4.0 14:-2.0 15:-4.0 16:-11.0 18:2.0 19:-4.0 20:-11.0 21:-11.0 24:-4.0 25:-11.0 26:-16.0 27:0.7176470588235293 28:2.0 29:-3.0 30:-16.0 
-0.0 0.0 0.0 0.0 0.01 1:-11.0 4:-4.0 5:-9.0 6:-7.0 8:4.0 9:-4.0 10:-7.0 11:-4.0 14:-2.0 15:-4.0 16:-12.0 19:-4.0 20:-12.0 21:-11.0 24:-4.0 25:-11.0 26:-16.0 28:2.0 29:-4.0 30:-16.0 
-0.0 0.0 0.0 0.0 0.01 1:-9.0 4:-4.0 5:-7.0 6:-4.0 8:4.0 9:-3.0 10:-4.0 11:-4.0 14:-2.0 15:-4.0 16:-6.0 19:-2.0 20:-6.0 26:-7.0 28:4.0 29:-4.0 30:-7.0 
-0.0 0.0 0.01 0.0 0.0 1:-10.0 2:0.7272727272727272 3:2.0 4:-3.0 5:-8.0 6:-8.0 7:0.7333333333333334 8:2.0 9:-3.0 10:-8.0 11:-4.0 14:-2.0 15:-4.0 16:-11.0 18:2.0 19:-4.0 20:-11.0 21:-11.0 24:-4.0 25:-11.0 26:-16.0 29:-4.0 30:-16.0 
-0.0 0.0 0.0 0.0 0.01 1:-11.0 4:-4.0 5:-9.0 6:-7.0 8:4.0 9:-4.0 10:-7.0 11:-4.0 14:-2.0 15:-4.0 16:-12.0 19:-4.0 20:-12.0 21:-11.0 24:-4.0 25:-11.0 26:-15.0 28:2.0 29:-4.0 30:-15.0 
-0.0 0.0 0.0 0.0 0.01 1:-9.0 4:-4.0 5:-7.0 6:-9.0 8:4.0 9:-4.0 10:-9.0 11:-6.0 14:-3.0 15:-6.0 16:-7.0 19:-4.0 20:-7.0 21:-3.0 22:0.625 23:2.0 24:-1.0 25:-3.0 26:-7.0 28:4.0 29:-4.0 30:-7.0 
-0.0 0.0 0.0 0.0 0.01 1:-11.0 4:-4.0 5:-9.0 6:-4.0 8:4.0 9:-3.0 10:-4.0 11:-4.0 14:-3.0 15:-3.0 16:-4.0 19:-3.0 20:-3.0 21:-22.0 22:0.5151515151515151 23:2.0 24:-4.0 25:-22.0 26:-10.0 28:4.0 29:-4.0 30:-10.0 
-0.0 0.0 0.0 0.0 0.01 1:-11.0 4:-4.0 5:-9.0 6:-4.0 8:4.0 9:-3.0 10:-4.0 11:-4.0 14:-3.0 15:-4.0 16:-6.0 19:-4.0 20:-6.0 21:-5.0 22:0.5666666666666667 23:2.0 24:-3.0 25:-5.0 26:-7.0 28:4.0 29:-4.0 30:-7.0 
-0.0 0.0 0.0 0.0 0.01 1:-11.0 4:-4.0 5:-9.0 6:-4.0 8:4.0 9:-3.0 10:-4.0 11:-7.0 13:2.0 14:-3.0 15:-7.0 16:-12.0 18:2.0 19:-4.0 20:-12.0 21:-15.0 23:2.0 24:-4.0 25:-15.0 26:-7.0 28:4.0 29:-4.0 30:-7.0 
-0.0 0.0 0.0 0.0 0.01 1:-9.0 4:-4.0 5:-7.0 6:-9.0 8:4.0 9:-4.0 10:-9.0 11:-4.0 14:-2.0 15:-4.0 16:-8.0 19:-4.0 20:-8.0 21:-5.0 22:0.5666666666666667 23:2.0 24:-3.0 25:-5.0 26:-7.0 28:4.0 29:-4.0 30:-7.0 
-0.0 0.0 0.0 0.0 0.01 1:-10.0 2:0.7272727272727272 3:2.0 4:-3.0 5:-8.0 6:-3.0 7:0.775 8:2.0 9:-2.0 10:-3.0 11:-4.0 14:-2.0 15:-4.0 16:-3.0 19:-3.0 20:-3.0 26:-16.0 27:0.7176470588235293 28:2.0 29:-3.0 30:-16.0 
-0.0 0.0 0.0 0.0 0.01 1:-11.0 4:-4.0 5:-9.0 6:-2.0 8:4.0 9:-3.0 10:-2.0 11:-4.0 14:-2.0 15:-4.0 16:-3.0 19:-2.0 20:-3.0 26:-16.0 28:2.0 29:-4.0 30:-16.0 
-0.0 0.0 0.0 0.0 0.01 1:-11.0 4:-4.0 5:-9.0 6:-9.0 8:4.0 9:-4.0 10:-9.0 11:-4.0 14:-3.0 15:-4.0 16:-8.0 18:2.0 19:-4.0 20:-8.0 21:-5.0 22:0.5666666666666667 23:2.0 24:-3.0 25:-5.0 26:-7.0 28:4.0 29:-4.0 30:-7.0 
-0.0 0.0 0.0 0.0 0.01 1:-11.0 4:-4.0 5:-9.0 6:-4.0 8:4.0 9:-3.0 10:-4.0 11:-4.0 14:-3.0 15:-4.0 16:-6.0 19:-4.0 20:-6.0 21:-5.0 22:0.5666666666666667 23:2.0 24:-3.0 25:-5.0 26:-8.0 28:4.0 29:-4.0 30:-8.0 
-0.0 0.0 0.0 0.0 0.01 1:-11.0 4:-4.0 5:-9.0 6:-9.0 8:4.0 9:-4.0 10:-9.0 11:-5.0 14:-2.0 15:-5.0 16:-6.0 18:2.0 19:-4.0 20:-6.0 21:-6.0 24:-4.0 25:-6.0 26:-7.0 28:4.0 29:-4.0 30:-7.0 
-0.0 0.0 0.0 0.0 0.01 1:-11.0 4:-4.0 5:-9.0 6:-10.0 8:4.0 9:-4.0 10:-10.0 11:-6.0 14:-3.0 15:-6.0 16:-7.0 19:-4.0 20:-7.0 21:-9.0 23:2.0 24:-4.0 25:-9.0 26:-7.0 28:4.0 29:-4.0 30:-7.0 
-0.0 0.0 0.0 0.0 0.01 1:-11.0 4:-4.0 5:-9.0 6:-4.0 8:4.0 9:-3.0 10:-4.0 11:-4.0 14:-2.0 15:-4.0 16:-18.0 19:-4.0 20:-18.0 21:-32.0 22:0.5104166666666666 23:2.0 24:-4.0 25:-29.0 26:-7.0 28:4.0 29:-4.0 30:-7.0 
-0.01 0.0 0.0 0.0 0.009819854410291026 1:-10.0 2:0.7272727272727272 3:2.0 4:-3.0 5:-8.0 6:-3.0 7:0.775 8:2.0 9:-2.0 10:-3.0 11:-16.0 14:-4.0 15:-13.0 16:-18.0 19:-4.0 20:-18.0 21:-5.0 24:-3.0 25:-5.0 
-0.0 0.0 0.0 0.0 0.01 1:-11.0 4:-4.0 5:-9.0 6:-9.0 8:4.0 9:-4.0 10:-9.0 11:-7.0 13:2.0 14:-3.0 15:-7.0 16:-29.0 18:2.0 19:-4.0 20:-28.0 21:-5.0 22:0.5666666666666667 23:2.0 24:-3.0 25:-5.0 26:-7.0 28:4.0 29:-4.0 30:-7.0 
-0.0 0.0 0.0 0.0 0.01 1:-12.0 4:-4.0 5:-10.0 6:-4.0 8:4.0 9:-3.0 10:-4.0 11:-4.0 14:-2.0 15:-4.0 16:-8.0 19:-4.0 20:-8.0 21:-6.0 24:-4.0 25:-6.0 26:-7.0 28:4.0 29:-4.0 30:-7.0 
-0.0 0.0 0.0 0.0 0.01 1:-11.0 4:-4.0 5:-9.0 6:-9.0 8:4.0 9:-4.0 10:-9.0 11:-2.0 14:-1.0 15:-2.0 16:-7.0 17:0.5874999999999999 18:2.0 19:-3.0 20:-5.0 21:-6.0 24:-4.0 25:-6.0 26:-7.0 28:4.0 29:-4.0 30:-7.0 
-0.0 0.0 0.01 0.0 0.01 1:-10.0 2:0.7272727272727272 3:2.0 4:-3.0 5:-8.0 6:-3.0 7:0.775 8:2.0 9:-2.0 10:-3.0 11:-2.0 14:-2.0 15:-2.0 16:-33.0 18:2.0 19:-4.0 20:-32.0 26:-15.0 27:0.71875 28:2.0 29:-3.0 30:-15.0 
-0.0 0.0 0.0 0.0 0.01 1:-11.0 4:-4.0 5:-9.0 6:-4.0 8:4.0 9:-3.0 10:-4.0 11:-4.0 14:-3.0 15:-3.0 16:-5.0 18:2.0 19:-3.0 20:-5.0 21:-3.0 22:0.625 23:2.0 24:-1.0 25:-3.0 26:-14.0 28:4.0 29:-4.0 30:-14.0 
-0.0 0.0 0.0 0.0 0.01 1:-11.0 4:-4.0 5:-9.0 6:-4.0 8:4.0 9:-3.0 10:-4.0 11:-2.0 14:-1.0 15:-2.0 16:-8.0 19:-3.0 20:-8.0 21:-16.0 23:2.0 24:-4.0 25:-16.0 26:-14.0 28:4.0 29:-4.0 30:-14.0 
-0.0 0.0 0.0 0.0 0.01 1:-11.0 4:-4.0 5:-9.0 6:-4.0 8:4.0 9:-3.0 10:-4.0 11:-4.0 14:-3.0 15:-3.0 16:-4.0 19:-3.0 20:-3.0 21:-15.0 24:-4.0 25:-15.0 26:-14.0 28:4.0 29:-4.0 30:-14.0 
-0.0 0.0 0.0 0.0 0.01 1:-11.0 4:-4.0 5:-9.0 6:-5.0 8:4.0 9:-3.0 10:-5.0 11:-4.0 14:-2.0 15:-4.0 16:-19.0 19:-4.0 20:-19.0 21:-11.0 24:-4.0 25:-11.0 26:-7.0 28:4.0 29:-4.0 30:-7.0 
-0.0 0.0 0.0 0.0 0.01 1:-9.0 4:-4.0 5:-7.0 6:-4.0 8:4.0 9:-3.0 10:-4.0 11:-4.0 14:-3.0 15:-4.0 16:-6.0 19:-2.0 20:-6.0 21:-12.0 24:-4.0 25:-12.0 26:-14.0 28:4.0 29:-4.0 30:-14.0 
-0.0 0.0 0.0 0.0 0.01 1:-11.0 4:-4.0 5:-9.0 6:-4.0 8:4.0 9:-3.0 10:-4.0 11:-4.0 14:-3.0 15:-3.0 16:-5.0 19:-2.0 20:-5.0 21:-3.0 22:0.625 23:2.0 24:-1.0 25:-3.0 26:-7.0 28:4.0 29:-4.0 30:-7.0 
-0.0 0.0 0.0 0.0 0.01 1:-11.0 4:-4.0 5:-9.0 6:-10.0 8:4.0 9:-4.0 10:-10.0 11:-6.0 14:-3.0 15:-6.0 16:-7.0 19:-4.0 20:-7.0 21:-9.0 23:2.0 24:-4.0 25:-9.0 26:-8.0 28:4.0 29:-4.0 30:-8.0 
-0.0 0.0 0.0 0.0 0.01 1:-11.0 4:-4.0 5:-9.0 6:-9.0 8:4.0 9:-4.0 10:-9.0 11:-6.0 12:0.5928571428571427 13:2.0 14:-1.0 15:-6.0 16:-5.0 19:-2.0 20:-5.0 21:-5.0 22:0.5666666666666667 23:2.0 24:-3.0 25:-5.0 26:-8.0 28:4.0 29:-4.0 30:-8.0 
-0.01 0.0 0.0 0.0 0.0 1:-9.0 2:0.1 3:3.0 4:-3.0 5:-7.0 6:-3.0 7:0.84 8:4.0 9:-2.0 10:-3.0 11:-4.0 14:-3.0 15:-4.0 16:-4.0 19:-3.0 20:-4.0 21:-4.0 24:-2.0 25:-4.0 26:-9.0 29:-4.0 30:-9.0 
-0.0 0.0 0.0 0.0 0.01 1:-11.0 4:-4.0 5:-9.0 6:-3.0 8:4.0 9:-3.0 10:-3.0 11:-4.0 14:-3.0 15:-4.0 16:-4.0 19:-3.0 20:-4.0 21:-3.0 22:0.625 23:2.0 24:-1.0 25:-3.0 26:-7.0 28:4.0 29:-4.0 30:-7.0 
-0.01 0.0 0.0 0.0 0.0 1:-9.0 2:0.1 3:3.0 4:-3.0 5:-7.0 6:-3.0 7:0.84 8:4.0 9:-2.0 10:-3.0 11:-4.0 14:-3.0 15:-4.0 16:-11.0 19:-4.0 20:-9.0 21:-4.0 24:-2.0 25:-4.0 26:-9.0 29:-4.0 30:-9.0 
-0.0 0.0 0.0 0.0 0.01 1:-11.0 4:-4.0 5:-9.0 6:-3.0 8:4.0 9:-3.0 10:-3.0 11:-4.0 14:-3.0 15:-4.0 16:-11.0 19:-4.0 20:-9.0 21:-3.0 22:0.625 23:2.0 24:-1.0 25:-3.0 26:-7.0 28:4.0 29:-4.0 30:-7.0 
-0.0 0.0 0.0 0.0 0.01 1:-11.0 4:-4.0 5:-9.0 6:-2.0 8:4.0 9:-3.0 10:-2.0 11:-6.0 14:-3.0 15:-6.0 16:-4.0 19:-2.0 20:-4.0 26:-3.0 28:2.0 29:-3.0 30:-3.0 
-0.0 0.0 0.0 0.0 0.01 1:-11.0 4:-4.0 5:-9.0 6:-9.0 8:4.0 9:-4.0 10:-9.0 11:-4.0 14:-3.0 15:-4.0 16:-6.0 19:-2.0 20:-6.0 21:-9.0 23:2.0 24:-4.0 25:-9.0 26:-7.0 28:4.0 29:-4.0 30:-7.0 
-0.0 0.0 0.0 0.0 0.01 1:-9.0 4:-4.0 5:-7.0 6:-4.0 8:4.0 9:-3.0 10:-4.0 11:-4.0 14:-3.0 15:-3.0 16:-7.0 18:2.0 19:-3.0 20:-7.0 21:-14.0 22:0.5238095238095238 23:2.0 24:-4.0 25:-14.0 26:-7.0 28:4.0 29:-4.0 30:-7.0 
-0.0 0.0 0.0 0.0 0.01 1:-11.0 4:-4.0 5:-9.0 6:-4.0 8:4.0 9:-3.0 10:-4.0 11:-7.0 13:2.0 14:-3.0 15:-7.0 16:-27.0 18:2.0 19:-4.0 20:-26.0 26:-2.0 28:4.0 29:-3.0 30:-2.0 
-0.0 0.0 0.0 0.0 0.01 1:-9.0 4:-4.0 5:-7.0 6:-5.0 8:4.0 9:-3.0 10:-5.0 11:-21.0 13:2.0 14:-4.0 15:-19.0 16:-4.0 19:-2.0 20:-4.0 26:-12.0 28:4.0 29:-4.0 30:-12.0 
-0.0 0.0 0.0 0.0 0.01 1:-11.0 4:-4.0 5:-9.0 6:-9.0 8:4.0 9:-4.0 10:-9.0 11:-7.0 13:2.0 14:-3.0 15:-7.0 16:-9.0 19:-2.0 20:-9.0 21:-9.0 22:0.5370370370370371 23:2.0 24:-4.0 25:-9.0 26:-7.0 28:4.0 29:-4.0 30:-7.0 
-0.0 0.0 0.0 0.0 0.01 1:-11.0 4:-4.0 5:-9.0 6:-17.0 8:4.0 9:-4.0 10:-17.0 11:-4.0 14:-2.0 15:-4.0 16:-4.0 19:-2.0 20:-4.0 21:-5.0 22:0.5666666666666667 23:2.0 24:-3.0 25:-5.0 26:-7.0 28:4.0 29:-4.0 30:-7.0 
-0.0 0.0 0.0 0.0 0.01 1:-11.0 4:-4.0 5:-9.0 6:-9.0 8:4.0 9:-4.0 10:-9.0 11:-4.0 14:-2.0 15:-4.0 16:-11.0 19:-4.0 20:-11.0 21:-32.0 22:0.5104166666666666 23:2.0 24:-4.0 25:-29.0 26:-7.0 28:4.0 29:-4.0 30:-7.0 
-0.0 0.0 0.001499912256115005 0.0 0.01 1:-11.0 4:-4.0 5:-9.0 6:-9.0 8:4.0 9:-4.0 10:-9.0 11:-7.0 13:2.0 14:-3.0 15:-7.0 16:-27.0 18:2.0 19:-4.0 20:-26.0 21:-33.0 24:-4.0 25:-33.0 26:-7.0 28:4.0 29:-4.0 30:-7.0 
-0.0 0.0 0.0 0.0 0.01 1:-11.0 4:-4.0 5:-9.0 6:-9.0 8:4.0 9:-4.0 10:-9.0 11:-7.0 13:2.0 14:-3.0 15:-7.0 16:-27.0 18:2.0 19:-4.0 20:-26.0 26:-7.0 28:4.0 29:-4.0 30:-7.0 
-0.0 0.0 0.0 0.0 0.01 1:-11.0 4:-4.0 5:-9.0 6:-4.0 8:4.0 9:-3.0 10:-4.0 11:-4.0 14:-3.0 15:-4.0 16:-6.0 19:-2.0 20:-6.0 21:-5.0 22:0.5666666666666667 23:2.0 24:-3.0 25:-5.0 26:-7.0 28:4.0 29:-4.0 30:-7.0 
-0.0 0.0 0.01 0.0 0.01 1:-11.0 4:-4.0 5:-9.0 6:-9.0 8:4.0 9:-4.0 10:-9.0 11:-7.0 13:2.0 14:-3.0 15:-7.0 16:-27.0 18:2.0 19:-4.0 20:-26.0 21:-29.0 23:2.0 24:-4.0 25:-27.0 26:-7.0 28:4.0 29:-4.0 30:-7.0 
-0.0 0.0 0.0 0.0 0.01 1:-11.0 4:-4.0 5:-9.0 6:-3.0 8:4.0 9:-3.0 10:-3.0 11:-2.0 14:-1.0 15:-2.0 16:-6.0 19:-2.0 20:-6.0 26:-7.0 28:4.0 29:-4.0 30:-7.0 
-0.0 0.0 0.0 0.0 0.01 1:-11.0 4:-4.0 5:-9.0 6:-4.0 8:4.0 9:-3.0 10:-4.0 11:-4.0 14:-2.0 15:-4.0 16:-4.0 19:-2.0 20:-4.0 21:-5.0 22:0.5666666666666667 23:2.0 24:-3.0 25:-5.0 26:-14.0 28:4.0 29:-4.0 30:-14.0 
-0.01 0.0 6.654003715826841E-4 0.0 0.0 6:-3.0 7:0.775 8:2.0 9:-2.0 10:-3.0 11:-4.0 14:-2.0 15:-4.0 16:-10.0 18:2.0 19:-4.0 20:-10.0 21:-5.0 24:-3.0 25:-5.0 26:-10.0 29:-4.0 30:-10.0 
-0.01 0.0 0.0 0.008111717198147092 0.0 6:-2.0 8:4.0 9:-3.0 10:-2.0 11:-4.0 14:-2.0 15:-4.0 16:-10.0 18:2.0 19:-3.0 20:-10.0 21:-5.0 22:0.5666666666666667 23:2.0 24:-3.0 25:-5.0 26:-10.0 29:-4.0 30:-10.0 
-0.0 0.0 0.0 0.0 0.01 1:-9.0 4:-4.0 5:-7.0 6:-4.0 8:4.0 9:-3.0 10:-4.0 11:-4.0 14:-2.0 15:-4.0 16:-11.0 19:-3.0 20:-11.0 26:-2.0 28:4.0 29:-3.0 30:-2.0 
-0.0 0.0 0.0 0.0 0.01 1:-11.0 4:-4.0 5:-9.0 6:-4.0 8:4.0 9:-3.0 10:-4.0 11:-7.0 13:2.0 14:-3.0 15:-7.0 16:-9.0 19:-4.0 20:-8.0 26:-13.0 28:4.0 29:-4.0 30:-13.0 
-0.0 0.0 0.0 0.0 0.01 1:-11.0 4:-4.0 5:-9.0 6:-4.0 8:4.0 9:-3.0 10:-4.0 11:-4.0 14:-3.0 15:-3.0 16:-8.0 18:2.0 19:-4.0 20:-8.0 21:-5.0 22:0.5666666666666667 23:2.0 24:-3.0 25:-5.0 26:-7.0 28:4.0 29:-4.0 30:-7.0 
-0.0 0.0 0.0 0.0 0.01 1:-11.0 4:-4.0 5:-9.0 6:-10.0 8:4.0 9:-4.0 10:-10.0 11:-4.0 14:-2.0 15:-4.0 16:-6.0 19:-2.0 20:-6.0 21:-6.0 24:-4.0 25:-6.0 26:-15.0 28:4.0 29:-4.0 30:-15.0 
-0.0 0.0 0.0 0.0 0.01 1:-11.0 4:-4.0 5:-9.0 6:-4.0 8:4.0 9:-3.0 10:-4.0 11:-2.0 14:-1.0 15:-2.0 16:-4.0 19:-3.0 20:-4.0 21:-14.0 24:-4.0 25:-12.0 26:-14.0 28:4.0 29:-4.0 30:-14.0 
-0.0 0.0 0.0 0.0 0.01 1:-11.0 4:-4.0 5:-9.0 6:-9.0 8:4.0 9:-4.0 10:-9.0 11:-7.0 13:2.0 14:-3.0 15:-7.0 16:-29.0 18:2.0 19:-4.0 20:-28.0 21:-26.0 23:2.0 24:-4.0 25:-26.0 26:-7.0 28:4.0 29:-4.0 30:-7.0 
-0.0 0.0 0.0 0.01 0.0 1:-11.0 3:2.0 4:-4.0 5:-9.0 6:-7.0 8:8.0 9:-4.0 10:-7.0 11:-7.0 13:2.0 14:-3.0 15:-7.0 16:-27.0 18:6.0 19:-4.0 20:-26.0 21:-25.0 22:0.7342592592592593 23:6.0 24:-2.0 25:-25.0 26:-9.0 29:-4.0 30:-9.0 
-0.0 0.0 0.0 0.0 0.01 1:-11.0 4:-4.0 5:-9.0 6:-4.0 8:4.0 9:-3.0 10:-4.0 11:-4.0 14:-3.0 15:-3.0 16:-8.0 18:2.0 19:-4.0 20:-8.0 26:-7.0 28:4.0 29:-4.0 30:-7.0 
-0.0 0.0 0.0 0.0 0.01 1:-11.0 4:-4.0 5:-9.0 6:-9.0 8:4.0 9:-4.0 10:-9.0 11:-7.0 13:2.0 14:-3.0 15:-7.0 16:-28.0 18:2.0 19:-4.0 20:-27.0 21:-26.0 23:2.0 24:-4.0 25:-26.0 26:-7.0 28:4.0 29:-4.0 30:-7.0 
-0.0 0.0 0.0 0.01 0.0 1:-11.0 3:2.0 4:-4.0 5:-9.0 6:-7.0 8:8.0 9:-4.0 10:-7.0 11:-7.0 13:2.0 14:-3.0 15:-7.0 16:-25.0 18:6.0 19:-4.0 20:-24.0 21:-25.0 22:0.7342592592592593 23:6.0 24:-2.0 25:-25.0 26:-9.0 29:-4.0 30:-9.0 
-0.0 0.0 0.0 0.0 0.01 1:-11.0 4:-4.0 5:-9.0 6:-9.0 8:4.0 9:-4.0 10:-9.0 11:-6.0 14:-3.0 15:-6.0 16:-7.0 19:-4.0 20:-7.0 21:-5.0 22:0.5666666666666667 23:2.0 24:-3.0 25:-5.0 26:-7.0 28:4.0 29:-4.0 30:-7.0 
-0.0 0.0 0.0 0.0 0.01 1:-9.0 4:-4.0 5:-7.0 6:-9.0 8:4.0 9:-4.0 10:-9.0 11:-7.0 13:2.0 14:-3.0 15:-7.0 16:-20.0 19:-4.0 20:-19.0 21:-5.0 22:0.5666666666666667 23:2.0 24:-3.0 25:-5.0 26:-7.0 28:4.0 29:-4.0 30:-7.0 
-0.0 0.0 0.0 0.0 0.01 1:-11.0 4:-4.0 5:-9.0 6:-10.0 8:4.0 9:-4.0 10:-10.0 11:-6.0 14:-3.0 15:-6.0 16:-7.0 19:-4.0 20:-7.0 21:-5.0 22:0.5666666666666667 23:2.0 24:-3.0 25:-5.0 26:-7.0 28:4.0 29:-4.0 30:-7.0 
-0.0 0.0 0.01 0.0 0.0 1:-10.0 2:0.47474747474747475 3:2.0 4:-4.0 5:-8.0 6:-3.0 7:0.8833333333333334 8:6.0 9:-2.0 10:-3.0 11:-4.0 14:-3.0 15:-3.0 16:-2.0 17:0.9066666666666667 18:6.0 19:-2.0 20:-2.0 26:-9.0 29:-4.0 30:-9.0 
-0.0 0.0 0.01 0.0 0.01 1:-11.0 4:-4.0 5:-9.0 6:-4.0 8:4.0 9:-3.0 10:-4.0 11:-4.0 14:-3.0 15:-3.0 16:-3.0 18:4.0 19:-3.0 20:-3.0 26:-7.0 28:4.0 29:-4.0 30:-7.0 
-0.0 0.0 0.0 0.0 0.01 1:-11.0 4:-4.0 5:-9.0 6:-4.0 8:4.0 9:-3.0 10:-4.0 11:-2.0 14:-1.0 15:-2.0 16:-8.0 19:-3.0 20:-8.0 26:-7.0 28:4.0 29:-4.0 30:-7.0 
-0.0 0.0 0.0 0.0 0.01 1:-9.0 4:-4.0 5:-7.0 6:-4.0 8:4.0 9:-3.0 10:-4.0 11:-7.0 13:2.0 14:-4.0 15:-7.0 16:-8.0 19:-4.0 20:-6.0 21:-5.0 22:0.5666666666666667 23:2.0 24:-3.0 25:-5.0 26:-7.0 28:4.0 29:-4.0 30:-7.0 
-0.0 0.0 0.0 0.0 0.01 1:-11.0 4:-4.0 5:-9.0 6:-2.0 8:4.0 9:-3.0 10:-2.0 11:-4.0 14:-2.0 15:-4.0 16:-8.0 19:-4.0 20:-8.0 21:-6.0 24:-4.0 25:-6.0 26:-14.0 28:2.0 29:-4.0 30:-14.0 
-0.0 0.0 0.0 0.0 0.01 1:-11.0 4:-4.0 5:-9.0 6:-4.0 8:4.0 9:-3.0 10:-4.0 11:-7.0 13:2.0 14:-3.0 15:-7.0 16:-9.0 19:-4.0 20:-8.0 26:-12.0 27:0.7142857142857143 28:4.0 29:-4.0 30:-12.0 
-0.0 0.0 0.0 0.0 0.01 1:-12.0 4:-4.0 5:-10.0 6:-4.0 8:4.0 9:-3.0 10:-4.0 11:-4.0 14:-3.0 15:-4.0 16:-4.0 19:-3.0 20:-4.0 26:-7.0 28:4.0 29:-4.0 30:-7.0 
-0.0 0.01 0.0 0.0 0.01 1:-11.0 4:-4.0 5:-9.0 6:-43.0 8:4.0 9:-4.0 10:-43.0 11:-7.0 13:2.0 14:-3.0 15:-7.0 16:-10.0 19:-2.0 20:-10.0 26:-4.0 29:-2.0 30:-4.0 
-0.0 0.0 0.0 0.0 0.01 1:-9.0 4:-4.0 5:-7.0 6:-4.0 8:4.0 9:-3.0 10:-4.0 11:-7.0 13:2.0 14:-3.0 15:-7.0 16:-9.0 19:-4.0 20:-8.0 21:-13.0 23:2.0 24:-4.0 25:-13.0 26:-7.0 28:4.0 29:-4.0 30:-7.0 
-0.0 0.0 0.0 0.0 0.01 1:-11.0 4:-4.0 5:-9.0 6:-4.0 8:4.0 9:-3.0 10:-4.0 11:-4.0 14:-3.0 15:-3.0 16:-5.0 19:-2.0 20:-5.0 21:-4.0 24:-3.0 25:-4.0 26:-7.0 28:4.0 29:-4.0 30:-7.0 
-0.0 0.0 0.0 0.0 0.01 1:-11.0 4:-4.0 5:-9.0 6:-4.0 8:4.0 9:-3.0 10:-4.0 11:-6.0 14:-3.0 15:-6.0 16:-4.0 19:-2.0 20:-4.0 26:-12.0 28:4.0 29:-4.0 30:-12.0 
-0.0 0.0 0.01 0.0 0.01 1:-10.0 2:0.7272727272727272 3:2.0 4:-3.0 5:-8.0 6:-8.0 7:0.7333333333333334 8:2.0 9:-3.0 10:-8.0 11:-4.0 14:-2.0 15:-4.0 16:-11.0 18:2.0 19:-4.0 20:-11.0 21:-11.0 24:-4.0 25:-11.0 26:-16.0 27:0.7176470588235293 28:2.0 29:-3.0 30:-16.0 
-0.0 0.0 0.0 0.0 0.01 1:-11.0 4:-4.0 5:-9.0 6:-7.0 8:4.0 9:-4.0 10:-7.0 11:-4.0 14:-2.0 15:-4.0 16:-12.0 19:-4.0 20:-12.0 21:-11.0 24:-4.0 25:-11.0 26:-16.0 28:2.0 29:-4.0 30:-16.0 
-0.0 0.0 0.0 0.0 0.01 1:-11.0 4:-4.0 5:-9.0 6:-4.0 8:4.0 9:-3.0 10:-4.0 11:-6.0 14:-3.0 15:-6.0 16:-8.0 19:-4.0 20:-8.0 21:-5.0 22:0.5666666666666667 23:2.0 24:-3.0 25:-5.0 26:-13.0 28:4.0 29:-4.0 30:-13.0 
-0.0 0.0 0.0 0.0 0.01 1:-11.0 4:-4.0 5:-9.0 6:-5.0 8:4.0 9:-3.0 10:-5.0 11:-4.0 14:-3.0 15:-3.0 16:-8.0 18:2.0 19:-4.0 20:-8.0 21:-5.0 22:0.5666666666666667 23:2.0 24:-3.0 25:-5.0 26:-8.0 28:4.0 29:-4.0 30:-8.0 
