svm_type c_svc
kernel_type linear
nr_class 2
total_sv 976
rho 1.0
label 1 -1
probA -1.0046467494914977
probB -0.9704684290263601
nr_sv 488 488
SV
1.0 
1.0 
1.0 
1.0 
1.0 
1.0 
1.0 
1.0 
1.0 
1.0 
1.0 
1.0 
1.0 
1.0 
1.0 
1.0 
1.0 1:1.0 
1.0 
1.0 
1.0 
1.0 
1.0 
1.0 
1.0 
1.0 
1.0 
1.0 
1.0 
1.0 
1.0 
1.0 
1.0 
1.0 
1.0 
1.0 
1.0 
1.0 
1.0 7:1.0 
1.0 
1.0 
1.0 
1.0 
1.0 
1.0 
1.0 
1.0 
1.0 
1.0 
1.0 
1.0 
1.0 
1.0 
1.0 
1.0 
1.0 
1.0 
1.0 
1.0 
1.0 
1.0 
1.0 
1.0 
1.0 
1.0 
1.0 
1.0 
1.0 
1.0 
1.0 
1.0 
1.0 
1.0 
1.0 
1.0 
1.0 
1.0 
1.0 
1.0 
1.0 
1.0 
1.0 
1.0 
1.0 
1.0 
1.0 
1.0 
1.0 
1.0 
1.0 
1.0 
1.0 
1.0 
1.0 
1.0 
1.0 
1.0 
1.0 
1.0 
1.0 
1.0 
1.0 
1.0 
1.0 
1.0 
1.0 
1.0 
1.0 
1.0 
1.0 
1.0 
1.0 
1.0 
1.0 
1.0 
1.0 
1.0 
1.0 
1.0 
1.0 
1.0 
1.0 
1.0 
1.0 
1.0 
1.0 
1.0 
1.0 
1.0 
1.0 
1.0 
1.0 
1.0 
1.0 
1.0 
1.0 
1.0 
1.0 
1.0 
1.0 
1.0 
1.0 
1.0 
1.0 
1.0 
1.0 
1.0 
1.0 
1.0 
1.0 
1.0 21:1.0 
1.0 
1.0 
1.0 
1.0 
1.0 
1.0 
1.0 
1.0 
1.0 
1.0 
1.0 
1.0 
1.0 
1.0 
1.0 16:1.0 
1.0 
1.0 
1.0 
1.0 
1.0 
1.0 
1.0 
1.0 
1.0 
1.0 
1.0 
1.0 
1.0 
1.0 
1.0 
1.0 
1.0 
1.0 
1.0 
1.0 
1.0 
1.0 
1.0 
1.0 
1.0 
1.0 
1.0 
1.0 
1.0 
1.0 
1.0 
1.0 
1.0 
1.0 
1.0 
1.0 
1.0 
1.0 
1.0 
1.0 
1.0 
1.0 
1.0 
1.0 
1.0 
1.0 
1.0 
1.0 
1.0 
1.0 
1.0 
1.0 
1.0 
1.0 
1.0 
1.0 
1.0 
1.0 
1.0 
1.0 
1.0 
1.0 
1.0 
1.0 
1.0 
1.0 
1.0 
1.0 28:1.0 
1.0 
1.0 
1.0 
1.0 
1.0 
1.0 
1.0 
1.0 
1.0 
1.0 
1.0 
1.0 
1.0 
1.0 
1.0 
1.0 
1.0 
1.0 
1.0 
1.0 
1.0 
1.0 
1.0 
1.0 
1.0 
1.0 
1.0 
1.0 
1.0 
1.0 
1.0 
1.0 
1.0 
1.0 
1.0 
1.0 
1.0 
1.0 
1.0 
1.0 
1.0 
1.0 
1.0 
1.0 
1.0 
1.0 
1.0 
1.0 
1.0 15:1.0 
1.0 
1.0 
1.0 
0.6666666666666666 19:1.0 22:1.0 40:1.0 
1.0 4:1.0 
1.0 
1.0 
1.0 
1.0 
1.0 
1.0 
1.0 
1.0 
1.0 
1.0 
1.0 4:1.0 
1.0 13:1.0 
1.0 
1.0 
1.0 
1.0 
1.0 
1.0 
1.0 
1.0 
1.0 
1.0 
1.0 
1.0 
1.0 
1.0 
1.0 
1.0 
1.0 
1.0 
1.0 
1.0 
1.0 
1.0 
1.0 
1.0 
1.0 
1.0 
1.0 
1.0 
1.0 
1.0 
1.0 
1.0 
1.0 
1.0 
1.0 
1.0 
1.0 
1.0 
1.0 
1.0 
1.0 
1.0 
1.0 37:1.0 39:1.0 
1.0 
1.0 
1.0 
1.0 
1.0 
1.0 
1.0 
1.0 
1.0 
1.0 3:1.0 
1.0 
1.0 
1.0 
1.0 
1.0 
1.0 27:1.0 
1.0 
1.0 
1.0 
1.0 4:1.0 
1.0 
1.0 
1.0 
1.0 
1.0 
1.0 
1.0 
1.0 
1.0 
1.0 
1.0 
1.0 
1.0 
1.0 
1.0 
1.0 
1.0 
1.0 
1.0 
1.0 
1.0 
1.0 
1.0 
1.0 
1.0 
1.0 
1.0 
1.0 
1.0 
1.0 
1.0 
1.0 
1.0 
1.0 
1.0 
1.0 
1.0 
1.0 
1.0 
1.0 
1.0 
1.0 
1.0 
1.0 
1.0 
1.0 
1.0 
1.0 
1.0 
1.0 
1.0 
1.0 
1.0 
1.0 
1.0 
1.0 
1.0 
1.0 
1.0 
1.0 
1.0 
1.0 28:1.0 
1.0 
1.0 25:1.0 
1.0 
1.0 
1.0 25:1.0 
1.0 
1.0 
1.0 
1.0 
1.0 
1.0 
1.0 
1.0 
1.0 
1.0 
1.0 
1.0 
1.0 
1.0 
1.0 
1.0 
1.0 
1.0 
1.0 
1.0 
1.0 4:1.0 
1.0 
1.0 
1.0 
1.0 
1.0 
1.0 
1.0 
1.0 10:1.0 
1.0 
1.0 
1.0 
1.0 
1.0 
1.0 
1.0 
1.0 
1.0 
1.0 
1.0 
1.0 
1.0 
1.0 
1.0 
1.0 
1.0 
1.0 
1.0 
1.0 
1.0 
1.0 
1.0 
1.0 
1.0 
1.0 
1.0 
1.0 
1.0 
1.0 
-0.6666666666666666 
-1.0 
-1.0 
-1.0 
-1.0 
-1.0 
-1.0 
-1.0 
-1.0 
-1.0 
-1.0 
-1.0 
-1.0 
-1.0 
-1.0 
-1.0 
-1.0 
-1.0 
-1.0 
-1.0 
-1.0 
-1.0 
-1.0 
-1.0 
-1.0 
-1.0 
-1.0 
-1.0 
-1.0 
-1.0 
-1.0 
-1.0 
-1.0 
-1.0 
-1.0 
-1.0 
-1.0 
-1.0 
-1.0 
-1.0 
-1.0 
-1.0 
-1.0 
-1.0 
-1.0 
-1.0 
-1.0 
-1.0 
-1.0 
-1.0 
-1.0 
-1.0 
-1.0 
-1.0 
-1.0 
-1.0 
-1.0 
-1.0 
-1.0 
-1.0 
-1.0 
-1.0 
-1.0 
-1.0 
-1.0 
-1.0 
-1.0 
-1.0 
-1.0 
-1.0 
-1.0 
-1.0 
-1.0 
-1.0 
-1.0 
-1.0 
-1.0 
-1.0 
-1.0 
-1.0 
-1.0 
-1.0 
-1.0 
-1.0 
-1.0 
-1.0 
-1.0 
-1.0 
-1.0 
-1.0 
-1.0 
-1.0 
-1.0 
-1.0 
-1.0 
-1.0 
-1.0 
-1.0 
-1.0 
-1.0 
-1.0 
-1.0 
-1.0 
-1.0 
-1.0 
-1.0 
-1.0 
-1.0 
-1.0 
-1.0 
-1.0 
-1.0 
-1.0 
-1.0 
-1.0 
-1.0 
-1.0 
-1.0 
-1.0 
-1.0 
-1.0 
-1.0 
-1.0 
-1.0 
-1.0 
-1.0 
-1.0 
-1.0 
-1.0 
-1.0 3:1.0 
-1.0 
-1.0 
-1.0 
-1.0 
-1.0 
-1.0 
-1.0 
-1.0 
-1.0 
-1.0 
-1.0 
-1.0 
-1.0 
-1.0 
-1.0 
-1.0 
-1.0 
-1.0 
-1.0 
-1.0 
-1.0 
-1.0 
-1.0 
-1.0 
-1.0 
-1.0 
-1.0 
-1.0 
-1.0 
-1.0 
-1.0 
-1.0 
-1.0 
-1.0 
-1.0 
-1.0 
-1.0 
-1.0 
-1.0 
-1.0 
-1.0 
-1.0 
-1.0 
-1.0 
-1.0 
-1.0 
-1.0 
-1.0 
-1.0 
-1.0 
-1.0 
-1.0 
-1.0 
-1.0 
-1.0 
-1.0 
-1.0 
-1.0 
-1.0 
-1.0 
-1.0 
-1.0 
-1.0 
-1.0 
-1.0 
-1.0 
-1.0 
-1.0 
-1.0 
-1.0 
-1.0 
-1.0 
-1.0 
-1.0 
-1.0 
-1.0 
-1.0 
-1.0 
-1.0 
-1.0 
-1.0 
-1.0 
-1.0 
-1.0 
-1.0 
-1.0 
-1.0 
-1.0 
-1.0 
-1.0 
-1.0 
-1.0 
-1.0 
-1.0 
-1.0 
-1.0 
-1.0 
-1.0 
-1.0 
-1.0 
-1.0 
-1.0 
-1.0 
-1.0 
-1.0 
-1.0 
-1.0 
-1.0 
-1.0 
-1.0 
-1.0 
-1.0 
-1.0 
-1.0 4:1.0 
-1.0 
-1.0 
-1.0 
-1.0 
-1.0 
-1.0 
-1.0 
-1.0 
-1.0 
-1.0 
-1.0 
-1.0 
-1.0 
-1.0 
-1.0 
-1.0 
-1.0 
-1.0 
-1.0 
-1.0 
-1.0 
-1.0 
-1.0 
-1.0 
-1.0 
-1.0 
-1.0 
-1.0 
-1.0 
-1.0 
-1.0 
-1.0 
-1.0 
-1.0 
-1.0 
-1.0 
-1.0 
-1.0 
-1.0 
-1.0 
-1.0 
-1.0 
-1.0 
-1.0 
-1.0 
-1.0 
-1.0 
-1.0 
-1.0 
-1.0 4:1.0 
-1.0 
-1.0 
-1.0 
-1.0 
-1.0 
-1.0 
-1.0 
-1.0 
-1.0 
-1.0 
-1.0 
-1.0 
-1.0 
-1.0 
-1.0 
-1.0 
-1.0 
-1.0 
-1.0 
-1.0 
-1.0 
-1.0 
-1.0 
-1.0 
-1.0 
-1.0 
-1.0 
-1.0 
-1.0 
-1.0 
-1.0 
-1.0 
-1.0 
-1.0 
-1.0 
-1.0 
-1.0 
-1.0 
-1.0 
-1.0 
-1.0 
-1.0 
-1.0 
-1.0 
-1.0 
-1.0 
-1.0 
-1.0 
-1.0 
-1.0 
-1.0 
-1.0 
-1.0 
-1.0 
-1.0 
-1.0 
-1.0 
-1.0 
-1.0 
-1.0 
-1.0 
-1.0 
-1.0 
-1.0 
-1.0 
-1.0 
-1.0 
-1.0 
-1.0 
-1.0 
-1.0 
-1.0 
-1.0 
-1.0 
-1.0 
-1.0 
-1.0 
-1.0 
-1.0 
-1.0 
-1.0 
-1.0 
-1.0 
-1.0 
-1.0 
-1.0 
-1.0 
-1.0 
-1.0 
-1.0 
-1.0 
-1.0 
-1.0 
-1.0 
-1.0 
-1.0 
-1.0 
-1.0 
-1.0 
-1.0 
-1.0 
-1.0 
-1.0 
-1.0 
-1.0 
-1.0 
-1.0 
-1.0 
-1.0 
-1.0 
-1.0 
-1.0 
-1.0 
-1.0 
-1.0 
-1.0 
-1.0 
-1.0 
-1.0 
-1.0 
-1.0 
-1.0 
-1.0 
-1.0 
-1.0 
-1.0 
-1.0 
-1.0 
-1.0 
-1.0 
-1.0 
-1.0 
-1.0 
-1.0 
-1.0 
-1.0 
-1.0 
-1.0 
-1.0 
-1.0 
-1.0 
-1.0 
-1.0 
-1.0 
-1.0 
-1.0 
-1.0 
-1.0 
-1.0 
-1.0 
-1.0 
-1.0 
-1.0 
-1.0 
-1.0 
-1.0 
-1.0 
-1.0 
-1.0 
-1.0 
-1.0 
-1.0 
-1.0 
-1.0 
-1.0 
-1.0 
-1.0 
-1.0 
-1.0 
-1.0 
-1.0 
-1.0 
-1.0 
-1.0 
-1.0 
-1.0 
-1.0 
-1.0 
-1.0 
-1.0 
-1.0 
-1.0 
-1.0 
-1.0 
-1.0 
-1.0 
-1.0 
-1.0 
-1.0 
-1.0 
-1.0 
-1.0 
-1.0 
-1.0 
